[
    {
        "epochs": 10,
        "name": "hello"
    },
    {
        "activation_function": null,
        "bias_h": [
            [
                -0.7944364440700813
            ],
            [
                -0.4783298326699177
            ],
            [
                -0.6983233802245394
            ],
            [
                0.6277721040292635
            ],
            [
                -0.7036297664984957
            ],
            [
                -0.48071700235938875
            ],
            [
                -0.1687128546832971
            ],
            [
                -0.005890606296074206
            ],
            [
                -0.22889252387634343
            ],
            [
                -0.15572136249727375
            ],
            [
                -0.5821772312341239
            ],
            [
                0.4063414319131467
            ],
            [
                -0.293005901919048
            ],
            [
                0.42406027605729085
            ],
            [
                0.5655176924873699
            ],
            [
                0.18032650080317628
            ],
            [
                -0.728006521187066
            ],
            [
                0.6909491771644846
            ],
            [
                0.1678339400963721
            ],
            [
                0.5813195934655734
            ],
            [
                0.09299019763970008
            ],
            [
                -0.9858657152106541
            ],
            [
                0.5019618428836569
            ],
            [
                0.48577268916833777
            ],
            [
                -0.3705405691605647
            ],
            [
                -0.05034250436232637
            ],
            [
                -0.16429586199565707
            ],
            [
                -0.594358530347012
            ],
            [
                -0.9059110957701775
            ],
            [
                -0.4204543782518955
            ],
            [
                -0.13930731745958908
            ],
            [
                0.45481231329365607
            ],
            [
                0.7287886123318372
            ],
            [
                -0.15973661923052238
            ],
            [
                0.7806327222369088
            ],
            [
                -1.0804069038235569
            ],
            [
                0.6191258198982645
            ],
            [
                -0.9203723978337759
            ],
            [
                -0.3385603669259193
            ],
            [
                0.4489810441293834
            ],
            [
                0.04215754588104766
            ],
            [
                -0.4337240930675288
            ],
            [
                0.07680211582645696
            ],
            [
                0.7784986727324078
            ],
            [
                -0.8879224082698632
            ],
            [
                0.5997382231556381
            ],
            [
                0.6462492777102133
            ],
            [
                -0.7241256725426815
            ],
            [
                0.8111978440481389
            ],
            [
                0.912491660242687
            ],
            [
                -0.3674392221726671
            ],
            [
                -0.2317466393728408
            ],
            [
                0.5182595566928094
            ],
            [
                -0.05140127822162018
            ],
            [
                0.43974318260960527
            ],
            [
                -0.5051551290030096
            ],
            [
                0.5982698273727425
            ],
            [
                0.8620694530446064
            ],
            [
                -0.6898538228937405
            ],
            [
                0.3454740098062298
            ],
            [
                0.2231832976128075
            ],
            [
                -0.7377227536824822
            ],
            [
                -0.492940190396929
            ],
            [
                -0.5194844604327545
            ]
        ],
        "bias_o": [
            [
                -0.4424749230654276
            ],
            [
                -0.9400503086922275
            ],
            [
                0.3865651680598208
            ]
        ],
        "hidden_nodes": 64,
        "input_nodes": 784,
        "learning_rate": 0.001,
        "output_nodes": 3,
        "weights_ho": [
            [
                0.2968362876637413,
                -0.2345325514954833,
                -0.8090953391154487,
                -0.9877011824563741,
                0.45184994707176507,
                1.1017905492514026,
                -0.3368204500145125,
                0.2737905138379077,
                0.22983435965787224,
                0.4310749108448792,
                0.4665063179463936,
                -0.5859629338778585,
                -0.8056511264070938,
                0.8404318420608408,
                0.19799509262629303,
                0.11324022146646075,
                -0.9699608676508933,
                -0.7278885438682211,
                -0.25836365436405695,
                -0.1121073061503574,
                -0.16230310579117513,
                -0.7842725967269346,
                0.7207633222873724,
                -0.26652492700745223,
                0.7201122268314695,
                -0.2232686042453122,
                -0.7106913272049955,
                -0.059262658903594834,
                -0.8227466076153643,
                0.3179218556895096,
                0.9306298627000158,
                1.405342175019595,
                -0.7904994654769246,
                -0.10985750542714554,
                -0.25520360988746293,
                0.820861473254679,
                0.17240208625638667,
                0.04018924818584244,
                0.6283448581734188,
                -0.22673006902956805,
                0.7469061085684341,
                0.5842493523392034,
                -0.12169796809031984,
                0.6848254312786831,
                -0.9968206914929664,
                -0.20909282639506377,
                -0.9025872278344506,
                -0.11132354583452735,
                0.10825693064369858,
                -0.97812918031766,
                -0.17073588665295272,
                0.3128334860365688,
                -0.9747984589477656,
                -1.5355146483634388,
                0.7778356647887402,
                0.10711012965014027,
                -0.8952823725195679,
                -0.9327982849266602,
                -0.13318794625368313,
                1.026054187472111,
                -0.93606942050789,
                -0.7642226166766183,
                0.8980393694441122,
                -0.052065504851006264
            ],
            [
                0.4668071364496005,
                -0.6616811933125086,
                -0.4781059016452667,
                -0.1335667477125452,
                -0.6932762760702886,
                -0.09370537761689568,
                0.8205932197141157,
                0.908472373366105,
                -0.8593125966518934,
                -0.6145858442958877,
                0.04204444785049464,
                -0.4725619108223449,
                -0.46022672751606475,
                -0.479235232450865,
                -0.48393453006336706,
                0.3722224929257888,
                0.6117136105280918,
                -0.5361765170998896,
                -0.11420743291952262,
                0.3838272849141095,
                0.8972348280238922,
                -0.6160474492035595,
                -0.41503010190023837,
                -0.06225900890418246,
                0.8444798672270701,
                0.7318109252316115,
                0.4574243897489083,
                -0.6950600942084019,
                -0.02393492868443913,
                0.25610361333206644,
                -0.1385613498990218,
                0.16494075892721105,
                -0.771205141042315,
                -0.28382346160443683,
                -0.0908398714473767,
                0.5541097620058446,
                0.35389133777036863,
                0.6328885727255046,
                -0.046686042933618555,
                0.664159450569671,
                -0.8782273392108166,
                -0.05459825275880235,
                0.19648070178082747,
                -0.229216153003455,
                0.12033337244514405,
                -0.5388131422596121,
                1.1682955657765057,
                -0.2930014381893419,
                -0.36560306854488317,
                0.22299886438879163,
                -0.32439405426798196,
                -0.9189169835140414,
                1.5543362209474543,
                1.0909363770296139,
                -0.9658313693922572,
                -1.0818378169084641,
                -0.5258702494049798,
                0.7507511247696983,
                -0.30956377810679514,
                0.496152600416806,
                -0.015483851782899873,
                -0.8338815673105534,
                0.7000387744827717,
                -0.7414002312893886
            ],
            [
                -0.7873436857517367,
                0.40234660054028654,
                0.5664637832634133,
                0.42832034997702645,
                1.003943212298652,
                -0.06151849050169058,
                0.3547427439907231,
                -0.6235906070680352,
                -0.37998274640360646,
                -0.5683962493353162,
                0.15479728585755387,
                0.6708446103203843,
                0.45226341232121636,
                -0.5738728033387006,
                0.14952306012404223,
                0.781363710534076,
                -0.2560050073290619,
                0.30930346223877836,
                -1.0232730939123644,
                0.5995279067870566,
                -0.5236189733391022,
                0.7732644886562883,
                0.7821365107820355,
                0.560931612264087,
                0.4551232998345173,
                0.2990173625503875,
                0.7781267215221933,
                0.5553880015796131,
                0.17772750822400712,
                0.7420898610533502,
                -0.226879938609623,
                -0.6390740903301044,
                -0.020221805169889334,
                -0.42015212788221185,
                0.7409299431096485,
                -1.1743751844631034,
                -0.3982113621636954,
                0.6853750685931554,
                0.5358883732862475,
                -0.9673768882347644,
                -0.024257472464159473,
                -0.9946134419426602,
                -0.23912973575989738,
                -0.013934288491654151,
                0.3939917433640192,
                0.15914744864788874,
                -0.8456244255296053,
                0.4063912532086672,
                -1.030203646370752,
                0.24988853583597073,
                1.102992127789075,
                0.9547309274231727,
                -0.8530674500805075,
                1.2835291447002077,
                0.7898816189330462,
                1.0851468387098862,
                0.2718297822833413,
                0.10619807227588011,
                0.8654948807492316,
                0.6194664786151706,
                -0.010391892341080766,
                -0.5401112850341424,
                -0.26505737321000616,
                0.059885409872226035
            ]
        ],
        "weights_ih": [
            [
                0.3737399663028002,
                -0.4710433117670854,
                -0.6384605196347135,
                0.22931906038635294,
                -0.06728047697690956,
                0.23053803961288236,
                -0.7515045905051163,
                -0.47654600591798496,
                0.9141701013079899,
                0.1885981499349452,
                -1.010548859125772,
                -0.42946411568828996,
                -0.8689163201534009,
                -0.5217285305903625,
                -0.5474076253445981,
                -0.5115151114742997,
                0.8513558380132926,
                -0.4761363243581676,
                0.7927048492038946,
                0.19006626562547016,
                0.504955889451361,
                0.9723635547127654,
                0.18682279413451933,
                -0.11443283677754254,
                -0.8829812852028887,
                -0.6739357502335586,
                0.050350606354971496,
                0.5166631545362843,
                -0.4384774797581999,
                -0.7557858294227024,
                0.35088201401841224,
                -0.6793107265984664,
                0.18875578938873716,
                0.5922231526297216,
                0.7940168811948302,
                0.14779800910190113,
                -0.7753833711995465,
                -0.9427548397294683,
                -0.11605342804790716,
                0.8883192178436655,
                -0.9593924513497691,
                0.33100111683205813,
                -0.5571595508534312,
                -0.2542976354866581,
                0.24562869170037255,
                -0.7940500279104065,
                0.40677459197474725,
                -0.0743357978755045,
                0.7982290024413499,
                -0.6481704759896585,
                -0.6432214945552467,
                0.2799590296885515,
                -0.5927611964141445,
                0.37393087784872653,
                -0.4991346124638628,
                -0.04146262241681802,
                0.7639763211976378,
                -1.0134739768793208,
                0.755786082576191,
                0.6028507728463485,
                0.2239421906891986,
                -0.6567744956135179,
                0.4488350951718277,
                0.36989531181730506,
                0.012258099672818877,
                0.13431701999865803,
                -0.057796576431513785,
                -0.26220857329526603,
                -0.038295479879236996,
                0.9709391808871296,
                0.33941772499140416,
                0.16487052702716437,
                -0.16843765211203288,
                -0.13758514800725066,
                -0.20094783392916687,
                -0.33240467594081086,
                -0.951081753469277,
                -0.352039220965071,
                0.1831326950766062,
                0.20043731567137915,
                0.37397837224556135,
                -0.5223671449828452,
                -1.0222102131615718,
                -0.24795673054730624,
                0.9508665329907744,
                -0.9964962355758941,
                -0.6962310764005732,
                -0.2685164072126579,
                -0.6687720847768944,
                0.8646217818906055,
                0.2011811693930817,
                -0.15892424554803322,
                0.18327282648416254,
                -0.49420141864631856,
                0.6825729024891906,
                0.5867026715723019,
                0.526486520012268,
                -0.7803893253938202,
                -0.2565134509157277,
                -0.4922847974110975,
                -0.529914520427277,
                0.23721379541389404,
                0.10026001288844537,
                -0.12776288746436024,
                -0.6338953916704577,
                0.535774791153415,
                -0.005626368540584952,
                -0.4236160161767266,
                -0.213668224833511,
                0.7565105027449589,
                0.8977799963747242,
                -0.07398418286282724,
                0.16001617945004723,
                -0.05028533372964045,
                -0.47549561819299074,
                -0.8913559493327284,
                -0.062010650745422925,
                -0.7388759211519066,
                0.7623567847836081,
                0.10190823453815522,
                -0.16892523153084688,
                0.6218301236847104,
                -0.9256327998000358,
                0.10374284844655064,
                -0.8806052930181122,
                0.5037090696769065,
                1.0028445637285106,
                -0.6745492489623247,
                -0.8698710117237887,
                0.9792522211167016,
                -0.5001820370250311,
                0.9159982943873465,
                0.1185111248372265,
                -1.0174253488302096,
                0.2305894506880413,
                0.7833118353793951,
                0.08983617737489635,
                0.7494251914913193,
                -0.533768388360403,
                0.25501178283343745,
                -0.9248071734185146,
                -0.2982689539451069,
                0.47388906887944643,
                -0.9594968922028438,
                0.5313116959843021,
                -0.8447863970662263,
                0.4325412049083909,
                -0.6638493471105122,
                0.6006958127756273,
                0.03683260992609592,
                -0.7636452863718144,
                -0.3452013723406639,
                -0.8673749344518614,
                1.0343691445047947,
                0.334012801692347,
                -0.12341626434955945,
                -0.033775887868444814,
                0.08358258514957456,
                -0.05909037042889222,
                -0.07524916337811517,
                -0.6397516619821259,
                -0.396027673288721,
                -0.5393421567485557,
                0.9276175212688544,
                0.7364746586189354,
                -0.012545982767087457,
                0.07892211673013948,
                -0.5191188192474148,
                -0.6338199355222343,
                -0.09198068344521215,
                -0.9705287927410795,
                -0.3731470036919464,
                0.601038407695066,
                -0.2798504160739546,
                0.10649456262291054,
                0.4398071035125325,
                -0.1273930571109381,
                -0.24919816160232217,
                -0.38320685528449827,
                -0.34431591159420344,
                0.08426696108161558,
                -0.6130125957915789,
                -0.4059781660802008,
                -0.1031051791468277,
                -0.5508864924980107,
                0.6491872045459508,
                0.4743227775591718,
                -0.7930516683186388,
                0.8928572440613197,
                -0.35147174712876494,
                -0.15815289741665675,
                0.13850156450606926,
                0.8886790287369497,
                -0.2702553672167982,
                0.4437273315782395,
                0.3127583254792769,
                -0.10858657474273511,
                -0.5549877494714628,
                -0.0914154672897386,
                0.839601950162695,
                0.3743123859720647,
                -0.5168042842973909,
                0.4880154958246378,
                0.693853816042614,
                -0.7743189086673438,
                -0.01955143290354819,
                -0.16961371481065973,
                -0.019307378180823606,
                -0.6614688805164481,
                0.6979328614868205,
                0.6760508204321649,
                -0.35254797149938577,
                0.1865948102718968,
                -0.2752574711666482,
                -0.5785500149086809,
                -0.5923769930613291,
                0.5174094056851134,
                0.7092744615114163,
                -0.9613578270754961,
                -0.4229137587296986,
                0.8445283153604476,
                -0.09903115580832039,
                0.5837022484953854,
                -0.04064789976468316,
                0.23308501144951285,
                -0.8012688826808074,
                0.5694291823400434,
                0.7389388980770866,
                -0.687527423978801,
                0.029340731733793004,
                -0.10235660682051068,
                0.24195340443629476,
                0.1493558112054557,
                0.6625486070169736,
                -0.5403780322591433,
                0.103745072219784,
                0.700501992305307,
                0.41239870506067217,
                -0.13307151119410907,
                -0.7338326862354393,
                0.5118947719781155,
                0.2933549801555711,
                0.7369018848720513,
                0.6662155977642785,
                -0.6853483599422703,
                0.15584151202164032,
                0.7679365567632256,
                -0.4724378201245643,
                0.6366780478197116,
                -0.6363270188531789,
                -0.435702698405676,
                -0.17257603196579138,
                -0.41953603544818013,
                -0.7588502674142962,
                -0.2621460641699077,
                -0.5573121123198096,
                0.7664450922257987,
                0.17541211612853452,
                -0.1134485521413758,
                -0.9514526799151476,
                0.21191189098041502,
                -0.7851265852251263,
                -0.4608490502532953,
                0.7892170380845993,
                -0.1194597118566224,
                -0.22572653311086455,
                -0.5388663013280061,
                0.46190792537547165,
                -0.10392236785451757,
                -0.09249173212862154,
                1.0264558418588257,
                -0.7054599160492675,
                -0.8708617161341203,
                -0.17809406465405836,
                -0.20818118405748126,
                -0.8701625471798372,
                -0.6168106729331372,
                -0.5067972879419648,
                0.6212870725349423,
                0.31181810297542517,
                -0.5334924666792495,
                0.4268739805486605,
                -0.49673401364085545,
                -0.017389982038467554,
                -0.37330946943825455,
                -0.15161025450945412,
                -0.2671777574781194,
                -0.9407081877072783,
                -0.5145450742024421,
                0.07566448969187356,
                0.5800495133729222,
                -0.13980823230951508,
                0.383731741624173,
                0.07676215659781568,
                0.9967388509607924,
                0.8868953491306544,
                0.22630020245004973,
                0.22315900138041167,
                -0.749228897380737,
                0.20738436645120123,
                -0.22042077005294358,
                0.7146973460282507,
                0.33648586901912036,
                -0.4081579713420736,
                -0.5205689897632269,
                -0.6250860747436934,
                0.8291930159896682,
                -0.6223478566756582,
                -0.12302305519377751,
                0.7999162743944046,
                0.3675719977625194,
                0.5923036402138476,
                -0.7328058636210244,
                0.3684529105790257,
                -1.0433857552062686,
                -0.7584694695390268,
                -0.03130597158932295,
                0.24669760161867618,
                0.1180549147883294,
                -0.20832746074044978,
                0.16174014136306414,
                0.8923259035582336,
                0.5044720369011536,
                -0.6980847743990706,
                -0.6455622798457338,
                0.9122505951354811,
                -0.6282342001868063,
                0.10290968243159611,
                0.22403674643945864,
                0.57496661082945,
                -0.709050577723207,
                0.9166694248872302,
                0.49914336666283093,
                0.15509622718488428,
                0.3613861048645853,
                -1.016711343863521,
                -0.5196404537765538,
                0.32610684090112974,
                0.18005662496027888,
                0.2775820064839949,
                0.1774520880173848,
                0.3765564905105842,
                0.8420360491787259,
                -0.4870439323344566,
                0.2483275942885418,
                -0.1019828269977555,
                0.6329909971188752,
                0.1768600153122494,
                0.6757572455883483,
                -0.5170510210229022,
                0.5870453356295092,
                -0.454215669748192,
                -0.6107986443798079,
                -0.9133084661446103,
                0.3298143533739162,
                -0.5467118772147594,
                -0.6233708935264822,
                -0.5858423434566916,
                0.16668681170190275,
                0.03493970464335857,
                -0.5169663952251973,
                0.7341502814947751,
                0.574496487661752,
                0.5137046382781973,
                -0.6645029440125187,
                0.7854295872597629,
                0.6507771665622043,
                -0.7866202939876825,
                -0.13024443943436143,
                -0.48597932894463064,
                -0.10784650127906857,
                -0.6874663162456318,
                -0.5728207283094602,
                0.6510447703526175,
                -0.0016750148933260742,
                0.80606687762626,
                -0.36788389670349503,
                0.6610990450609947,
                0.6367988174233984,
                -0.16337141655741202,
                0.8058790110629881,
                0.5397443235710668,
                -0.6177508887552017,
                0.1903604339124277,
                -0.15498278875088728,
                -0.13772896478914645,
                -0.8801405921354785,
                -0.42196609095058174,
                0.2891629771284892,
                1.0046598541150216,
                -0.5408457389292649,
                -0.0047546003821268504,
                -0.7281966337252541,
                0.9662822162802575,
                -0.2828040901470498,
                1.0367689923757086,
                -0.09304538132588111,
                0.40798316837717197,
                0.42830137917121186,
                -0.13384335456448648,
                0.15250027563104732,
                0.19666739843870343,
                -0.13501611120458865,
                -0.05477053683568073,
                -0.36097719908298154,
                0.9125744580436069,
                -0.7548474380334049,
                -0.9086309487838341,
                -0.39920121643293327,
                -0.9519920541069187,
                -0.5622550145113222,
                0.6400004916279312,
                0.21204211623349614,
                -0.047324154072031645,
                -0.4823168701132736,
                -0.5452771654586663,
                0.09390231882963855,
                1.1961657957947514,
                -0.6877396655291287,
                0.12721280787954561,
                -0.8968801082443312,
                -0.619880920130445,
                0.7623846733312197,
                -0.5446483132707549,
                0.3402270359869056,
                0.287377819225185,
                -0.8407786554390053,
                0.7751370944969861,
                0.531362504671787,
                -0.21620831567518098,
                0.46503417456128415,
                0.37726310464352286,
                0.8186480219259212,
                -0.7086307246023259,
                0.36839577372244076,
                0.13658246967006385,
                0.4005743557556139,
                -0.5111424450387224,
                0.11539624640607589,
                -0.44984505177653067,
                0.31741424230510423,
                -0.411499281842465,
                0.9361642470435408,
                0.27979707021349726,
                -0.8511621963182389,
                -0.32741939675378273,
                -0.8063331266071162,
                0.9432861546782239,
                0.08180878801187111,
                0.08096739679598547,
                -0.010125055720568982,
                0.7153962304786589,
                0.4718055658362731,
                -0.3010672125930759,
                -0.7877235037067062,
                -0.013524073830165347,
                -0.8287681356040832,
                0.6018396710219861,
                0.6881201007997391,
                -0.7301833175476578,
                -0.8249785550468888,
                -0.2551652732511957,
                0.298501502628596,
                0.2840755681871124,
                0.46665176099559436,
                -0.719310831388859,
                0.5668571804062849,
                0.5509920199667572,
                0.5412162762443357,
                0.40294258324876475,
                0.8663500530644298,
                0.9523714268377371,
                0.30936038165209306,
                0.1484478376889897,
                0.22543580780452432,
                0.5889691239841854,
                0.764673570709439,
                0.7341928614392773,
                0.23461186527333205,
                0.5489897121924883,
                -0.5813872460107962,
                -0.6055673483184061,
                0.06603562719407742,
                0.9066757714312456,
                0.3306013086789181,
                -0.8539953501751856,
                -0.5689842880864826,
                0.5065952201229558,
                0.9453454737840107,
                0.36994046235444983,
                1.1127282425325455,
                0.6100601063473065,
                0.035247617011757326,
                0.923002303227039,
                0.01365157792643989,
                0.7931319616206738,
                0.982840463228634,
                0.908456052275643,
                0.12891658901160666,
                0.3243600598853304,
                -0.4635804312969596,
                -0.5662042840259299,
                -0.7987339041999932,
                -0.7167189683125994,
                0.6320407931289602,
                -0.8583689476110147,
                0.740824915310667,
                -0.7293337561569633,
                0.8502285857640652,
                0.777270688960814,
                0.47956127731023757,
                0.7822611087165948,
                -0.46202725523189847,
                -0.7643197981986178,
                -0.8165951957994534,
                1.0190134515740121,
                -0.10019936681419192,
                0.7813852818396576,
                0.3735411667247289,
                0.9855946031291727,
                1.015584229524866,
                -0.2627863433850858,
                1.0031164255362832,
                0.732943877326119,
                -0.016629849440049273,
                0.703277896190277,
                -0.21592891363031988,
                0.9412583149310927,
                0.08422751300173284,
                0.3151664535969963,
                0.6537341097417345,
                0.27813541363827315,
                0.48253399033403693,
                -0.16300763625119094,
                0.2021381919175382,
                0.4767849869068823,
                -0.3426072392181036,
                0.6235460680953766,
                0.06585812265289297,
                -0.8298058830770362,
                -0.645544004906842,
                -0.6753594808147606,
                -0.6357004367651462,
                0.9827033852018268,
                -0.01390463145316507,
                -0.8628018097310329,
                0.8567905953743864,
                0.47468429081190333,
                -0.4512865557619656,
                -0.19556717344111857,
                -0.11015932896916096,
                0.27812581299932987,
                0.1372349398523391,
                -0.691643354158869,
                0.08636513464194688,
                -0.7093737885327782,
                -0.7387602016228451,
                -0.7960969146731718,
                -0.03012245035238778,
                -0.43570285819285065,
                0.7856047458756594,
                -0.02296613748651065,
                0.3440361872994514,
                -0.1814460087207881,
                0.09010921888218212,
                0.11036953024636946,
                0.9707097172201371,
                0.19486160916483178,
                0.3210345009970887,
                0.9430130794089042,
                -0.030126036450514145,
                -0.008305269300838544,
                1.0159922538022277,
                -0.6456925595569283,
                -0.34806297549267845,
                -0.9049450343187033,
                1.0628171888327367,
                -0.08378188261080242,
                0.2835623104947053,
                0.06745011034830115,
                0.4136097387617561,
                -0.24847274538196892,
                0.5511549521083997,
                0.05692436711950828,
                0.4268572085837503,
                0.7042136040895508,
                0.6962847143718705,
                -0.6073491275196694,
                -0.625667723074645,
                -0.9345241153387189,
                0.07130273975356854,
                0.028236925496918266,
                -0.44575164242412635,
                0.6367493158307905,
                0.827510474097634,
                -0.004879331014432301,
                -0.41757815382090036,
                -0.7548268758097887,
                -0.5580844595819046,
                -0.12429023661468336,
                -0.45575601673063637,
                0.20663131489329464,
                0.9871239855360344,
                0.15674797864057916,
                -0.19316296493289825,
                -0.7354841399590639,
                0.8330884575671655,
                -0.2975964755544673,
                1.0619519701176325,
                -0.555679578085011,
                -0.38081489063293483,
                0.6089044960601668,
                0.31431006278747303,
                0.8916652927316043,
                -0.479669165510021,
                0.5681204125911679,
                -0.18154479647556962,
                0.4750621307094761,
                -0.07184104087993953,
                -0.4749873045365113,
                0.6322789122062376,
                0.1868093217927304,
                0.759161292377404,
                0.30046237368559703,
                0.6194425951761878,
                0.9684113358506422,
                0.21865368578543495,
                0.8905203756831704,
                -0.004649349356596003,
                -0.22756558208013747,
                -0.7317352906816992,
                -0.8601236950580757,
                0.4610410051804258,
                -0.8035616928445752,
                -0.7741804440404462,
                -0.191133154499029,
                0.43647018701801465,
                -0.7478104727537195,
                -0.6357547710113014,
                0.7073618848788861,
                -0.2616779902655554,
                0.9398077134466959,
                -0.6565845598994965,
                0.2234350913024126,
                0.3318556174439348,
                -0.9883665954046619,
                -0.9031168949157378,
                0.6301274518063664,
                0.5071192553264825,
                -0.1319198983946711,
                0.414514067546129,
                -0.24496295362144785,
                0.49114546020970273,
                0.5180626463032799,
                -0.42610506600359355,
                -0.1874909868255588,
                -0.7309686839764902,
                -0.9208601282785692,
                0.19892503474705472,
                -0.5974946077074603,
                0.597126766754358,
                0.5526494927841613,
                -0.324113001840222,
                -0.387962039248218,
                -0.9207583055707478,
                -0.48518705295419157,
                -0.7945277754112607,
                0.2220007998544939,
                -0.011244889125392081,
                0.45276526806188794,
                -0.6733378294595471,
                0.913975441601445,
                -0.26508610167250174,
                0.09739184050151636,
                -0.992699419849166,
                -0.02026511252170061,
                -0.8532461006348304,
                -0.6019997033207677,
                0.24206068702150624,
                0.049608162133004126,
                0.25404593871917736,
                0.990210922627475,
                0.9104980699423341,
                0.10422411200346889,
                -0.19038215124588082,
                -0.2457609993176237,
                0.8303314735242839,
                -0.48527376782575915,
                -0.94154525518887,
                0.9152147833054114,
                0.988782450680681,
                0.43976495206988014,
                0.8409261155609731,
                -0.8283730827747389,
                0.4768930845814887,
                -0.2072016066566273,
                -0.39294476316202165,
                -0.5867696289386792,
                -0.13365211275982555,
                -0.43696050059961783,
                -0.07773785058495469,
                0.4761396798133114,
                0.2430886670238766,
                -0.2376008514534461,
                -0.21702802897822307,
                0.024308612979861675,
                1.0040357485899873,
                -0.04514273050115059,
                -0.13703023532540476,
                0.5733795450449778,
                -0.15932952305130613,
                -0.4560980059615286,
                -0.005112718968216291,
                0.6528297273444488,
                -0.7293077979414039,
                0.5240079836082695,
                0.7259691066557952,
                -0.5215991165988556,
                -0.5982012762610153,
                -0.5240107122286575,
                -0.652571534651782,
                0.28890684830944696,
                0.6397260436763345,
                -0.6934048741367831,
                0.964659785143291,
                0.22002938953131268,
                0.33194859239320734,
                0.3543774657364231,
                -0.664687533133397,
                -0.8879798960916935,
                0.0666694382161586,
                -0.7742823389092066,
                0.4464218677879401,
                -0.012233829573892942,
                0.3316515423760281,
                0.3759112866787952,
                -0.12942802058112127,
                -0.2028586870038014,
                0.4095171105643136,
                -0.6072955024308179,
                0.6324736752118657,
                -0.936895611278747,
                -0.22816602719389537,
                0.4096316977653087,
                -0.18442891177193454,
                0.33813485714621483,
                0.8306829982059372,
                -0.0849581245601516,
                -0.007133959787504614,
                0.840815486759522,
                -0.6597006387422206,
                -0.6605648018424017,
                -0.16699339079732878,
                0.6805000136190726,
                -0.4255774001431076,
                -0.6413954602907499,
                0.40159463102737497,
                0.5689674746129216,
                -0.292384760921034,
                -0.05689178824833698,
                -0.22090616576056774,
                -0.7234599080227204,
                0.2363958322591652,
                0.17528560820724096,
                -0.4057506812135126,
                0.861516818855893,
                0.8087533823494757,
                -0.0920112606719907,
                -0.9924444927219302,
                -0.7578830590402199,
                0.1461008060891518,
                0.6463793865412408,
                0.910106584895986,
                0.22094841745773416,
                -0.6909655464829945,
                0.31469163007416195,
                -0.39899654062050943,
                0.674460319722868,
                0.2128034079236696,
                -0.13868986176289447,
                0.32984378814338416,
                -0.7794002597581589,
                0.15589055747346484,
                -0.15317035828242145
            ],
            [
                0.23174495760667033,
                0.28913293841958976,
                -0.017971716748940367,
                0.6870292056471328,
                0.459333839101816,
                0.1597178805294139,
                -0.9387819981319987,
                0.2912076638007062,
                -0.8889899639211414,
                0.8457970235560905,
                0.13198385403782395,
                0.6299948266375477,
                0.18403206110938305,
                -0.11526420491187508,
                -0.2970672251129822,
                -0.21673741833941776,
                -0.3966196407346647,
                0.7811288373722665,
                0.4184437767903968,
                0.4986749128244474,
                -0.3090456247391631,
                -1.004633332994156,
                -0.981203231448114,
                -0.7060237003941494,
                -0.13555066703951682,
                -0.9006568563788271,
                -0.06320598953754353,
                -0.782650843796233,
                0.6272700636558806,
                -0.8264775973422027,
                -0.8949635079863959,
                -0.6597306658074239,
                -0.8702735587742836,
                0.4626480347691392,
                -0.1999069471490877,
                -0.062298720484922764,
                0.03884674944375376,
                -0.5792536750758421,
                -0.6219724463421468,
                0.7331512416289804,
                -0.13468926516686766,
                0.5386970409262917,
                -0.4836797979003663,
                -0.9377419292666308,
                -0.4104197549564482,
                -0.5513736037986865,
                0.38227018614690994,
                -0.671160385317385,
                -0.9855592288273431,
                0.632623594522656,
                -0.0662321025513325,
                0.8036020121471874,
                -0.19127374965080257,
                -0.7642288477445472,
                -0.91495252647911,
                -0.23269578626091583,
                0.5193355173166248,
                -0.34289275088944027,
                -0.9615251984321045,
                0.6043182232500335,
                0.18316743778587052,
                -0.12905889749516078,
                0.22818059594066242,
                0.7645383015058211,
                -0.17585271532605432,
                0.9356745060239543,
                -0.819927120632349,
                0.4307451174919746,
                0.9072487693246463,
                0.12804367015763593,
                0.37293918659497066,
                -0.48552532926893255,
                -0.15445800717493038,
                0.5419106754638232,
                -0.07558888281584986,
                -0.4134341197813425,
                0.8317036265646724,
                -0.2792963824473488,
                0.043417043330483115,
                -0.6668260218557241,
                -0.07099189890709078,
                -0.2959969232343372,
                -0.6630997335628828,
                -0.38558097021336546,
                -0.5042103348075017,
                0.4179808274098087,
                0.27572478507008785,
                -0.28351876357451855,
                -0.9457254033779501,
                -0.2886535486881931,
                0.04755866195362163,
                0.41735930021801393,
                0.41035862785137917,
                -0.3845052384656569,
                0.29679081985390476,
                0.6626963696362588,
                0.07948651787720859,
                0.6480952372827559,
                -0.3788956394460383,
                0.5808441490151841,
                0.24067415459849847,
                -0.4843034567607132,
                0.4199263205164007,
                -0.2638284861921281,
                0.06809651284407317,
                -0.700611526731506,
                -0.6791245415492222,
                -0.6910907830873688,
                0.7150624531626927,
                -0.5890848471579988,
                -0.56730816468715,
                -0.2592098562366876,
                0.4172641445018088,
                -0.6576672085712926,
                -0.8679910201068736,
                -0.18623725749447284,
                -0.227748466666459,
                -0.07203367975691065,
                0.376177239946815,
                -0.9361214053786865,
                -0.7529373064804892,
                -0.3253497971047066,
                -0.34568000466165955,
                -0.6198293635799256,
                -0.60862735750497,
                0.2493714951559855,
                0.7963508869848059,
                0.80419519865816,
                0.2340306871157368,
                -0.3428755452131301,
                0.5482139537126006,
                0.8140366003220498,
                -0.045370318522390596,
                0.11482996570465362,
                0.8422159086503166,
                -1.0008489029168326,
                -0.3228560777172343,
                0.24254860721075297,
                0.03599635448247919,
                -0.5757400314458954,
                0.23618632670903936,
                -0.11906698587965032,
                0.6909038498845488,
                0.6750366601948532,
                0.4007599791128825,
                0.21170469162069722,
                0.9930499547307581,
                0.23204074857511808,
                -0.8933391157260594,
                -0.5695483079223944,
                0.8256189249252608,
                0.5449747517046821,
                -0.18678332551633303,
                0.4998863943302225,
                -0.3672586886774749,
                -0.9508435585977152,
                0.3540205927888215,
                0.8451892145737422,
                -0.28701108619837656,
                -0.3022738342417264,
                0.8747832486525512,
                -1.0039472125621423,
                -0.7293451176736249,
                0.9517342946457671,
                -0.2694131687562989,
                0.7569662185823863,
                -0.6267495958971765,
                0.39804921787858016,
                0.09683445335050142,
                0.9713799773387636,
                0.9821897724073654,
                0.6099604650416942,
                -0.6681048049391887,
                0.9046795989045889,
                -0.14329977047369485,
                -0.6087003361522105,
                -0.3689806678400276,
                0.2713788545465418,
                0.4122577396739521,
                0.7533642089339284,
                -0.20447540868400352,
                0.7841311285109913,
                0.6049142155513721,
                0.561888593277307,
                0.5898661752604748,
                0.6517587515445591,
                -0.7342275904545006,
                -0.8732640173477322,
                0.006006045223671736,
                -0.41852663916727,
                -0.7179001544371981,
                0.1307018679887387,
                -0.2224516080177464,
                0.14992587144925576,
                -0.025230418080683607,
                -0.1440799180033632,
                -0.624807010251105,
                -0.5074540263344209,
                0.8183376712574053,
                0.3066573774438151,
                -0.7034532917460377,
                -0.8851926310379564,
                -0.4820072559348484,
                -0.8202036837439691,
                -0.23287275718532657,
                -0.43311162545628695,
                -0.9070305714253089,
                0.7999523908111079,
                -0.9127249235329487,
                0.8238184795666006,
                -0.8624242381419491,
                0.8427650569917495,
                0.3080508449875413,
                -0.5451100521652056,
                0.8611105370242949,
                -0.881518530358465,
                0.22610733398737246,
                0.49144410189519333,
                -0.2748199089508886,
                -0.6450494917642411,
                -0.4777222488503353,
                0.24672251527203326,
                0.21693788686964513,
                -0.40211673193349506,
                0.7488301247274061,
                -0.07818668095203603,
                -0.21153122326315915,
                0.51029620632131,
                -0.8427009373084182,
                -0.19176870248569913,
                0.7373340978915629,
                0.6650315684953164,
                -0.8515511185644172,
                -0.5001044043535604,
                -0.9756925752637413,
                -0.2762493889310149,
                0.36810658570918614,
                -0.1491973450240634,
                0.049546664731157014,
                -0.9151273195292577,
                -0.986388119190491,
                -0.2940696038035355,
                -0.5032829475642909,
                0.7889003629621852,
                0.7856705839992418,
                0.14123453210150547,
                0.47619746347055786,
                0.4183154822658311,
                0.29916247215127195,
                0.5904222831276145,
                -0.655131683605409,
                0.0718676928212982,
                -0.9694084897131876,
                -0.5463726308894663,
                0.41034129681195963,
                -0.6843416729525805,
                -0.20827877479713833,
                0.1557083649669344,
                -0.9165245960371469,
                0.5018541148369122,
                -0.2081869622099821,
                -0.9359799481020852,
                -0.130868719856951,
                0.45044493388886686,
                -0.3420084235222059,
                -0.13968894893887707,
                0.19850177025065632,
                0.88908337197816,
                -0.08204075012123901,
                0.8870034157288932,
                0.2719391350664051,
                0.6975905611335503,
                0.12599039968402245,
                0.2497167664281184,
                -0.47853406589324843,
                -0.7993769804091356,
                -0.9555012294650044,
                -0.7166000437946568,
                -0.017056634587254503,
                -0.9494761147136284,
                0.4730562335708295,
                0.0040962658741970385,
                0.8331753474808049,
                0.35560229101451624,
                -0.10709833035278529,
                -0.18597432559249366,
                -0.7114324300383876,
                -0.3634693708861367,
                0.7915537988709525,
                0.24857958831830868,
                -0.781471851335471,
                -0.0411634985738679,
                -0.34962617031477766,
                -0.690245431948456,
                -0.050336741191729456,
                0.7566787145503048,
                0.10139369558986215,
                -0.7704794243349999,
                -0.4145060286470578,
                -0.9033496984186956,
                -0.6741707239201151,
                0.7755626007151701,
                0.9617149299160919,
                -0.9127985091379589,
                -0.7468134673895539,
                -0.25851898558505537,
                -0.07132593148434355,
                -0.02250312558751333,
                -0.2266522703537082,
                0.15367787939967728,
                -0.49411215599030067,
                0.26275268348061664,
                0.9228532587573166,
                -0.9751413949246859,
                0.026090397036313034,
                -0.8637737051046108,
                -0.16783421832109338,
                -0.9404944694373507,
                0.8460798869962369,
                0.15273947101611893,
                -0.9539833857146083,
                0.6956846509059723,
                -0.9618245623228961,
                -0.4315637296672413,
                -0.316366720600154,
                0.4540538186859464,
                -0.9702613656948402,
                -0.8150443182509176,
                0.6387321552658235,
                0.7653844315097088,
                0.04698831811817571,
                -0.3238225775583966,
                0.22287484381766812,
                -0.3909423609073158,
                0.03686058855150807,
                -0.09919961052153584,
                0.10828325468757113,
                0.2669755470461695,
                0.8981397963006271,
                0.34200389513770785,
                -0.6940005097006657,
                0.2703028297351105,
                -0.6529620965787879,
                -0.7554205339741658,
                0.5770689303372474,
                0.6999406266486345,
                -0.5218905692565057,
                -0.12308184748132497,
                -0.6894093177343265,
                -0.8869882085858076,
                0.489475648650862,
                -0.01219530204308538,
                -0.5122783603897889,
                0.2519659106546748,
                0.16570807485323974,
                -0.7686716628985814,
                -0.570336355327673,
                0.419081633428063,
                -0.07713611399697462,
                0.7994798936718153,
                0.4434079835038887,
                0.6444693500302766,
                0.8881532433712531,
                -0.9558036810194974,
                -0.45565583741206295,
                -0.8964179485016995,
                -0.7064343155083732,
                0.5194764681905057,
                0.5143346419662337,
                0.5644719400412125,
                0.039000840999667837,
                -0.49899907882737254,
                -0.7784768703572127,
                0.6728528996450772,
                0.7814128724965638,
                0.8204255893865032,
                0.594949230850853,
                -0.8591747444026625,
                -0.0955500460727709,
                0.4738918250238992,
                -0.49018720676518884,
                -0.6938429369322645,
                -0.036503794544503525,
                -0.15015856312417977,
                0.4268094076054281,
                -0.7014112690837915,
                -0.07075397060295155,
                -0.41869562682770767,
                0.8150912276077071,
                -0.1650569567023502,
                -0.9527512601139831,
                0.01807883027142887,
                -0.07992549317705525,
                0.5860863299945479,
                0.3654561940462277,
                0.8280272427678136,
                0.2839475960920522,
                -0.21721892763274464,
                -0.48833574241972677,
                -0.5280091529712813,
                0.7069284850684395,
                -0.38628066558645485,
                -0.1967533053294719,
                0.2942135550781389,
                0.17047114547832953,
                -0.955031222641463,
                -0.09554650826257037,
                0.19801266942764992,
                0.4420654712823652,
                0.8242813403447568,
                -0.6131842891674542,
                0.5880828714132267,
                0.6580650666480481,
                0.5737160110317046,
                -0.0664445893828754,
                0.04315293749774141,
                0.35920068138146843,
                0.5314162459273252,
                0.21325884139069998,
                0.818417444556661,
                -0.5858326052841691,
                -0.5205414405214049,
                -0.1753029636220113,
                0.0573161754372521,
                0.7592521206300816,
                -0.2136106991287149,
                0.15708358161814123,
                -0.5866227237603652,
                -0.6272957154632891,
                0.6982761849758173,
                -0.37315809963799795,
                -0.14914119593367492,
                0.8346405694496526,
                0.7134668850630049,
                -0.8724884641236351,
                -0.08800683055346135,
                -0.05794041518816389,
                -0.7525877019145955,
                0.310503244943305,
                0.9578976656120365,
                -0.6336422235091076,
                -0.5196464577173264,
                -0.16555125664593842,
                -0.4665663699463427,
                -0.021000959200961723,
                0.8501457406331474,
                0.916229379715804,
                -0.29852045052483867,
                -0.6641695292540919,
                -0.9465255065477141,
                -0.09325744602396642,
                -0.16294414053293194,
                -0.9098595062205506,
                -0.797757105728773,
                -0.16960717621573632,
                -0.9865050185806484,
                0.44059726109369907,
                0.14128653054869147,
                -0.7349007697056393,
                0.19727768531752732,
                0.2609164033328414,
                -0.800776383930281,
                0.43737430403118005,
                0.3377606017449536,
                0.5474575449359378,
                0.797387060107698,
                -0.6753344515932689,
                0.10223153031297062,
                -0.7649985472674019,
                -0.5540618894570778,
                -0.6555528689713396,
                0.562204376162417,
                0.8475033038357107,
                0.6982429277483589,
                -0.49625393218225816,
                0.46046797638561743,
                -0.15364413032444293,
                0.2992787868855022,
                -0.6987606008482179,
                -0.5049012653306131,
                0.008324066832284786,
                -0.455897051731967,
                0.3499844685197202,
                -0.21147346045090448,
                0.5705848513057059,
                -0.5947385254051504,
                -0.8147265475262015,
                0.9577774392355577,
                -0.7913447692121599,
                0.4031607269164138,
                -0.9192857495990645,
                -0.8561567438156031,
                0.3162719212368701,
                0.10315219120334304,
                0.7156773188593785,
                -0.7247014404786881,
                -0.21503235507107388,
                -0.9824499892181633,
                0.4239353020605302,
                -0.45881229982282684,
                -0.935829486066326,
                0.687747443634229,
                -0.26882029667538626,
                0.16725654085094185,
                0.46314035580256574,
                -0.9735197258304594,
                -0.639695550504345,
                -0.8143427622238865,
                -0.9321739674341756,
                -0.8935194883101087,
                -0.33718030211408223,
                -0.16820538518821251,
                0.05884606946239169,
                0.34028701742016176,
                -0.34288034993838046,
                -0.6119009355643693,
                0.7279412956503495,
                0.3872416743110022,
                -0.22119468318873844,
                -0.6077285569288515,
                -0.24696971344783422,
                0.8616986228058393,
                0.44863670628343516,
                -0.7280590516459288,
                -0.10852814574840558,
                0.6773405512167882,
                0.21135981483689595,
                0.4101288873165438,
                -0.532300423761915,
                -0.24091831421796622,
                -0.37869971434942346,
                0.8217241362407071,
                0.8269570456578761,
                0.9872141281539148,
                -0.4979052328271116,
                -0.04509749233942406,
                0.7095249188464157,
                -0.4726462177511659,
                0.06358168573366231,
                0.4461108576914751,
                0.9644879115758898,
                -0.4781133340594965,
                0.8885801077879015,
                0.05277459931807548,
                0.3677947940560733,
                -0.8881133573674187,
                0.9516580932352771,
                -0.8658164825622884,
                -0.07732075748936199,
                0.7434933414047395,
                -0.48373210045928405,
                0.27647763140254183,
                -0.6332020416428278,
                -0.49558345072479437,
                -0.8054398574352103,
                -0.6930745366371247,
                0.4016473778688797,
                -0.958937848363418,
                -0.0944584166105709,
                -0.5380770795674155,
                -0.4198333511364667,
                0.9666535433569229,
                -0.9472103460709391,
                0.9267051200388953,
                -0.16694842835054147,
                0.05529868880243274,
                -0.4132263777590703,
                0.20321921876173404,
                -0.557554087359717,
                -0.7742880840065013,
                0.8194175635337825,
                -0.6739900258802172,
                0.2866156833137439,
                -0.04941982148283137,
                0.0904346539176841,
                0.007123075169035939,
                0.7589747467840074,
                -0.22066060075968788,
                0.8241191547508715,
                -0.8213195123319885,
                -0.42832108978616584,
                0.6662072231901625,
                0.3500994763207217,
                -0.1370966102613162,
                0.6570464070041385,
                -0.8369046167516064,
                -0.7068250025432983,
                0.2540810088893599,
                0.6078466281542974,
                -0.5988532491347084,
                0.06687275924602853,
                -0.8007093596357662,
                0.4741438601238723,
                -0.5880671120022181,
                0.6466891209381609,
                -0.6283403206659797,
                -0.6363564887472064,
                0.19773367300741293,
                0.5306948472650556,
                -0.03787569702436172,
                0.8842313328964659,
                -0.8494238535141654,
                -0.5012118275668448,
                -0.09046828195329389,
                0.13711886422507885,
                -0.09069063335588141,
                -0.01293474701735421,
                0.8658903789983975,
                0.8386251317417448,
                0.986298911414742,
                0.18001454091238647,
                -0.2506866147002266,
                -0.3353396752737057,
                0.48296400301316245,
                -0.5410340071603742,
                -0.47928610091872503,
                0.9499542179449321,
                -0.5714403969872989,
                -0.008309429728883275,
                -0.2835005667733991,
                -0.9053788670031161,
                -0.19689721080856248,
                -0.7250048864320224,
                0.8821375314951926,
                -0.4140647794871648,
                0.35942609278587306,
                -0.2755229509328737,
                -0.06150656284846451,
                0.5464416620745731,
                -0.8687308109998221,
                0.7083630152462289,
                -0.4012716397203012,
                -0.9790365328766858,
                -0.6622209655018599,
                -0.44849779098519454,
                -0.10299227699443517,
                -0.24918914278845578,
                -0.1633460279823244,
                0.8627683852171601,
                -0.04398592770357785,
                0.778472535011941,
                0.9511029192022974,
                0.42631751852963845,
                0.7785617756308962,
                0.8955770774147267,
                -0.8519778177466031,
                -0.544487705814193,
                0.5109426629682241,
                -0.008238724701563662,
                -0.86626318542086,
                0.589658627530394,
                -0.37704628620263725,
                0.9233083498278988,
                -0.9100883606232776,
                0.937197788242724,
                -0.013675423990134864,
                -0.20088614794496995,
                -0.868849802264055,
                0.3352682604942498,
                0.8633487696286957,
                0.2843339665523894,
                -0.4705993924720769,
                0.7257833666364054,
                -0.5028032828607838,
                -0.07100937514519655,
                -0.22249285149430964,
                0.805231807878706,
                0.7264448267807672,
                0.8595270624467481,
                -0.758444973972875,
                0.854546115791135,
                0.9681564646464578,
                0.5353162502946591,
                0.7172705410656849,
                -0.7993995395391129,
                -0.8033047954610688,
                -0.7617359648884898,
                -0.18006689063657305,
                0.9173951267876762,
                0.6042648067130016,
                -0.1893852421725673,
                -0.9231712475273975,
                -0.6194118045830556,
                0.4646577541409482,
                -0.15847197875569755,
                -0.6305558154402783,
                -0.3549934437964242,
                0.9922678844299673,
                -0.22681465350285446,
                0.8259467028614792,
                -0.6905603755020276,
                -0.021840321851282107,
                -0.6848107746448375,
                -0.3733271114041576,
                0.0749059012428918,
                0.3489518171721374,
                0.15757249011733016,
                -0.49169358307796457,
                -0.9337689420344365,
                0.756313576355989,
                -0.518821195394275,
                0.7657904371608171,
                0.00272237884886993,
                -0.43617668727861963,
                0.2608133374900961,
                0.8402119493631262,
                0.28380438263097946,
                0.0023448297918023868,
                -0.7994814322310783,
                0.7166242367633362,
                0.4900500866381132,
                0.2723473331711509,
                0.6627924635336406,
                0.0007350854610364191,
                0.6510758186265119,
                -0.7973297778222119,
                0.46957493217389,
                -0.6402090402772155,
                0.469043688906709,
                0.15131506974099446,
                -0.9057286607331144,
                -0.7037247656914702,
                -0.1567757329356699,
                0.3473488826005402,
                0.8754199331540303,
                -0.40758227820842086,
                -0.6255349903381151,
                -0.743787480927333,
                0.8674523496531557,
                0.13849005182816898,
                0.4788343113176432,
                0.25974469871332934,
                0.4600370317805546,
                -0.938494167464531,
                -0.3473081615820692,
                -0.1219730739277601,
                0.6620173627994232,
                -0.6116826101926333,
                0.07224929998939368,
                0.569662392702675,
                0.7661726798151012,
                0.41520697311642063,
                -0.5774044099672065,
                -0.5386198552949402,
                -0.04795439554074226,
                0.7432495479055037,
                -0.00546729931853675,
                -0.1375585261154547,
                -0.07010736096711333,
                -0.4051593515843308,
                -0.2768537474114965,
                0.9467137207491979,
                -0.014367642095141102,
                0.9216637934981492,
                0.6655806916973066,
                -0.7872744365375668,
                -0.4115927472054146,
                0.9710180058700353,
                -0.6930198322274721,
                -0.606968610782334,
                0.3662898474044385,
                -0.24512240730365822,
                0.1530044513231876,
                -0.20843046011707947,
                -0.012440306378814455,
                -0.2465063782081474,
                0.9738663068083884,
                0.46224359832575934,
                0.838363981068253,
                -0.7615688362345847,
                0.675372459239179,
                0.49812341999332704,
                -0.8752570209071548,
                -0.22300251070598012,
                0.614256021959179,
                -0.5959412631811791,
                -0.2724712241391416,
                0.7696170710122803,
                -0.17872225561757785,
                0.7075026945445821,
                0.6465314571963603,
                0.3415280006998176,
                -0.3772023524935286,
                0.5103404158722575
            ],
            [
                -0.5770895046968443,
                -0.24687554524855326,
                -0.13572990541905583,
                0.6326412390784921,
                -0.49184195439938094,
                0.4828805770102885,
                -0.945345520510684,
                0.9382024949268912,
                0.6284337973475798,
                0.5896955118705451,
                0.5046523885233192,
                0.7092744607626442,
                0.03273813814192346,
                -0.2441636611369623,
                -0.23879830010366632,
                -0.6201244926478935,
                0.9582953940599213,
                -0.5010882660337096,
                0.5093222492921743,
                0.9775199634908847,
                -0.4685132539263216,
                0.39024489062776346,
                0.6141176526470853,
                0.9489149188166399,
                -0.5772008934554995,
                -0.3572731115016131,
                0.053631952818463294,
                0.7311664155189173,
                -0.02654919771267477,
                -0.604557031107219,
                -0.2626347495224288,
                0.9749039527144361,
                0.521097998260717,
                -0.8051766792828899,
                -0.48071038088950474,
                -0.5565234799863938,
                -0.7483927127526717,
                -0.741509057866459,
                0.9384526197457135,
                -0.5422101574147402,
                0.6941642812642492,
                -0.788753103657381,
                0.5855638288283913,
                -0.27601936865795945,
                0.9913799603803244,
                0.31514669462200834,
                0.36526471279614836,
                0.8044702137914252,
                -0.08927769109268165,
                0.16162337376157118,
                -0.22000973867011178,
                -0.41742422443553523,
                0.49972654541442685,
                -0.48452773785782466,
                -0.17940060329829088,
                0.35437701213440465,
                -0.8915073504597728,
                -0.6989579842683408,
                0.8491947956861972,
                -0.40591348990710935,
                0.5319693206901893,
                0.2550718669443003,
                0.0946691180497766,
                -0.07791181725894046,
                0.42252058372597556,
                0.7148822483549611,
                0.825569616704964,
                -0.09455371817420521,
                0.24456140421351186,
                0.5139662527708854,
                -0.43482418292137953,
                -0.7015172479573923,
                0.6057050283553965,
                -0.5364046781001859,
                0.81209143603039,
                0.013842097065911167,
                0.20236023823618954,
                -0.7778293749400388,
                -0.16445848670253463,
                0.6623741251266433,
                0.3467719251291883,
                -0.4882277320160223,
                0.43922861921180495,
                -0.6039197923804933,
                -0.4717427896135241,
                -0.1988348353013094,
                -0.21750234896782053,
                -0.32845549462474144,
                0.0968441496558297,
                -0.8675862756898157,
                0.7392124100420248,
                0.8737018513504076,
                0.09753593461708887,
                -0.28558901732327957,
                -0.8852291132304331,
                0.5107430880910999,
                0.4982919037110089,
                0.7395863028386827,
                -0.4939470225852421,
                -0.14859412462170102,
                -0.7236435400138355,
                0.6860435595925564,
                0.2426533750117323,
                -0.3054736851936775,
                -0.8690996899933248,
                -0.8545085688473089,
                0.5260384441275264,
                0.5961622242582733,
                0.8246660930154787,
                0.144707746943073,
                0.5538708469821659,
                0.9927387525116438,
                0.3858623943681637,
                0.20618934242367967,
                0.30511067796231084,
                -0.6318454198983806,
                -0.9785473186624529,
                -0.6070955402588559,
                -0.13806940065701875,
                0.5419314306252102,
                0.4507286310818757,
                -0.01134852048414267,
                0.2551194670822149,
                -0.2899995522539598,
                -0.5310948480111058,
                -0.9282571129453975,
                0.4434153444939183,
                -0.0814517830745722,
                -0.20721845685811152,
                -0.4781726386497572,
                0.4260425779141702,
                0.3921076631178178,
                -0.72734566344074,
                -0.286561159420359,
                0.4632603218833887,
                -0.8468080970285436,
                -0.0715684577612451,
                -0.9604100276919851,
                -0.23544268329920245,
                -0.4027626298515322,
                0.24992298604615737,
                -0.8418074277756339,
                -0.8722809313507643,
                0.660711056690387,
                0.5481144573586781,
                -0.49875778736021953,
                0.8850921677280661,
                -0.7536309133371597,
                -0.7697161957393455,
                0.6428677242653348,
                0.646118874679434,
                -0.9426053821429061,
                -0.055178893570248105,
                0.3086231125066521,
                0.6447920715071945,
                -0.9324542429731979,
                0.9812950935028926,
                0.4117923095350599,
                0.19233147929334005,
                0.8992509914516832,
                0.4789357647197055,
                -0.14982810354276876,
                0.5896700025282204,
                -0.4394283802546668,
                -0.9960960051138859,
                0.8423976057917851,
                -0.5153448742040969,
                0.09051981821668433,
                -0.5497002461355753,
                0.3394883265692718,
                -0.6217455060723456,
                0.21475883752421157,
                0.26277614310526776,
                -0.6094112338142358,
                -0.01753035527119958,
                -0.7334857800272523,
                0.4629973414610934,
                -0.8928295106397338,
                -0.7701363930583848,
                0.2211946233778212,
                0.6568659521729224,
                -0.5431232668627806,
                -0.8081237629559928,
                -0.3087255411614062,
                0.2150313457084284,
                -0.6175963077477147,
                0.5035793587929369,
                0.9796798162379973,
                -0.6410102753443443,
                0.8023390684930083,
                -0.5315695391521226,
                0.39282534226959787,
                0.28436021616740703,
                -0.3008042662772275,
                0.11010466391055279,
                0.10112931051668674,
                0.1888861954916755,
                0.7938637316538022,
                0.8666316994829361,
                -0.6738825658294484,
                0.7927998646962917,
                -0.3256643376326439,
                0.8281387784265417,
                -0.4850045502381454,
                -0.9676750640519377,
                -0.9701489349413299,
                0.3482784211859619,
                0.7914750811067817,
                -0.1397941686451538,
                0.9472342868205856,
                0.8289049730446634,
                0.26445027846684815,
                -0.01099019079076203,
                -0.8024055011688778,
                -0.6067542516667623,
                -0.449660882803782,
                -0.6804269517904935,
                0.48591178339657337,
                0.5692582514872826,
                -0.7827536055826223,
                0.6239277353614988,
                0.046299873204352034,
                0.18804551681869738,
                0.10969679335226269,
                0.12258918074293844,
                -0.16971946955971925,
                -0.048206752044377424,
                -0.525345252394543,
                -0.6087575501027187,
                -0.375346127703566,
                -0.03807023596650514,
                0.7326820484061379,
                0.6374273528658455,
                -0.14016141187397865,
                -0.9529159056623794,
                0.2014660750994166,
                -0.5046446483571971,
                -0.7456220992525192,
                -0.34223719774064576,
                -0.6671436383067677,
                -0.4350433027030742,
                0.7023570991610177,
                -0.97498914634671,
                0.34975326864511963,
                -0.061152341638071,
                -0.23164069997882986,
                -0.6409120788744788,
                -0.49951825306704994,
                -0.14175370951658328,
                -0.6625047313684657,
                -0.26904361638071567,
                -0.0019156388636958662,
                -0.39455091361973993,
                0.3249955585155685,
                0.5667349774009858,
                0.9577642702984743,
                0.32754420812245166,
                0.7184613633353191,
                -0.07118565404789623,
                0.9455543645920225,
                -0.631021673270684,
                0.6139673417865061,
                -0.553257138352775,
                -0.19793134319012518,
                0.6446698750142258,
                -0.2557763957685744,
                0.6668651602551926,
                -0.7451217487512541,
                0.47086567687135567,
                -0.04302578859192967,
                -0.16061698919518755,
                0.5752631174424049,
                0.2738850321107476,
                -0.08563438871231584,
                0.5436541690029669,
                0.09054354081947019,
                0.11603797863210517,
                -0.4397095221066181,
                -0.9602765786412492,
                -0.8422922817335576,
                -0.22049179213099135,
                0.3500525256927934,
                0.05921025538161188,
                0.10115547532260394,
                -0.007861573214129981,
                0.32561764307105256,
                -0.6646954112197424,
                0.46569664006725214,
                0.20953112475181318,
                -0.3395006233062109,
                -0.6615927912229512,
                -0.017963852384387864,
                0.695836097872154,
                -0.45974868171630606,
                -0.8083718637616514,
                -0.24328463840744982,
                0.9337856462608496,
                0.44315556115311716,
                -0.09944962485006627,
                0.7833178231579616,
                -0.7563423132746631,
                0.6545638146782125,
                -0.2696840471050748,
                0.5029127797377713,
                -0.5580457549501536,
                0.4736518649594447,
                -0.44385088889800195,
                -0.902560163501845,
                -0.7417973557054551,
                -0.012293955406361514,
                0.10275896128275654,
                -0.4938812676804745,
                -0.07394956423698013,
                0.9702641067267594,
                0.8126251624957856,
                -0.34791519061454884,
                0.5965411428176521,
                0.07124358622309374,
                0.9567893800748809,
                0.6650107471307252,
                0.8443956130287633,
                -0.7220904680143965,
                -0.5397016295189683,
                0.08689957738671492,
                -0.9432222800960507,
                0.8748012566067228,
                -0.930200123711383,
                0.34692850058384866,
                0.7425836767935173,
                0.9008780046513966,
                0.1996219241814056,
                0.7673561127345367,
                -0.9567256287492744,
                -0.7866842771859687,
                0.8023366663522629,
                -0.14838031344066638,
                0.2059554486885461,
                -0.9004469399600624,
                0.4550006164839486,
                -0.72350129153992,
                0.9293163061495826,
                -0.665941847461856,
                0.26062816272106987,
                -0.3397328398020275,
                0.7636138336627526,
                0.8673799264350716,
                0.6752821542124359,
                -0.20033397632010752,
                -0.27052045264829727,
                0.13138956852223055,
                0.44840589299037825,
                0.3331268379469014,
                0.9247356807686046,
                -0.5647957843504892,
                0.9808552425448505,
                0.8554654131752827,
                0.7482247105380423,
                -0.12781406981046878,
                0.3320585115819605,
                0.9045550745294512,
                0.06819807234566587,
                0.24454064146600685,
                0.21993444441949508,
                -0.3557468931166382,
                0.5258183963808825,
                -0.8898510728587303,
                0.5884588770474937,
                0.29437538948519504,
                -0.21641011421050024,
                0.13709812861470044,
                -0.9236545380623892,
                -0.3162711477657009,
                0.5387472563755136,
                0.040912037293511845,
                -0.7297117729184568,
                0.0708633594425924,
                0.19459247382444747,
                0.10981541172456362,
                -0.5083731743102552,
                -0.26719561555194965,
                -0.5058937580058214,
                -0.9294374020266281,
                -0.9065959324164204,
                0.501797051360918,
                -0.8364874195572438,
                0.9231603222729867,
                0.25261064154939505,
                0.2464840149240826,
                -0.8523343176047836,
                0.7847868904986917,
                0.6010703065403841,
                0.030794529735081257,
                -0.6261411173895515,
                0.4593937635481374,
                -0.183440155914367,
                0.1566634430765459,
                -0.5425965814460462,
                0.37255642694931135,
                0.4888610175434048,
                -0.6869348590911304,
                -0.09476761118580652,
                -0.020764704440283083,
                -0.0701918290961532,
                0.6991969921657016,
                0.2657077779173815,
                0.38660486657624615,
                0.9712747036098661,
                0.9984067932872931,
                0.6680578635815503,
                -0.4869225120043716,
                0.3185332916736311,
                -0.6917799449921873,
                0.507340097591402,
                -0.912132370806541,
                -0.11489007889953147,
                0.011764871915040399,
                -0.044331836223631835,
                -0.2738679086574745,
                0.733479857300925,
                0.13780127431688072,
                -0.7610843538971908,
                -0.9410842129050567,
                -0.484018658401809,
                -0.6402935059406,
                -0.9012458960234926,
                0.4123279102276255,
                -0.770227561323992,
                -0.6874244856750922,
                -0.3188228184116151,
                -0.8441913721748804,
                0.39160857811247235,
                -0.10210058432633422,
                -0.16314122209311208,
                0.8939023081831902,
                -0.2550797311823612,
                0.6712309490523024,
                -0.496568082481416,
                0.3362721318095599,
                -0.2421219365036592,
                0.691644362944379,
                0.1758766029460428,
                0.11389432687863868,
                0.6621283282219322,
                -0.6572157303104215,
                -0.553753045055435,
                -0.6031969593513563,
                -0.9788275145205325,
                0.2283508206010202,
                0.8177105539668132,
                0.13591888968497587,
                0.959655909762569,
                0.891738634746094,
                0.9241339538701937,
                0.20588841877791642,
                0.9941307630992271,
                0.20547792222360725,
                0.5388575603079511,
                -0.5389557254833027,
                0.4754511999063492,
                0.33254375367817296,
                -0.7359941708100058,
                -0.798262301508109,
                -0.0018464382866497937,
                -0.7329766546002838,
                0.6549426838922703,
                0.6612072222014411,
                -0.1732057085121757,
                0.5423442535910722,
                -0.27509773476955557,
                -0.9768682236723578,
                -0.5242914598274311,
                -0.31994950122638843,
                0.25783584898103634,
                0.18128643005292538,
                0.23609585195912522,
                -0.8791172482573777,
                -0.9907835167265384,
                -0.31926489613951714,
                -0.17257000922219676,
                -0.033366516366949,
                0.7719289369301261,
                -0.2043957685294581,
                0.2292302441975135,
                0.44212590117870476,
                -0.810935414996213,
                -0.2965925008784911,
                0.17129571653184042,
                -0.3093645374821983,
                -0.22219563331097864,
                -0.12807132111079586,
                -0.3597389211606505,
                -0.5076220667868355,
                -0.0067805149413335585,
                0.9567327354800266,
                0.6309694323793384,
                -0.8695419149426115,
                0.5348906315130573,
                0.1284182140399934,
                0.4095669808371852,
                -0.05250561856083802,
                0.39901516069704085,
                -0.13871416327924502,
                0.29015387858744607,
                0.4846949339627714,
                0.5369199707577126,
                0.19484740217313848,
                0.33371001153595337,
                -0.47796548437308883,
                0.42933403823947763,
                0.7339753100188466,
                0.3016883505949538,
                -0.43245005506825285,
                -0.2914584520314181,
                0.7012834472130623,
                0.9417763824173684,
                0.605776017487329,
                0.1234803849048511,
                0.2588582142519791,
                0.8072521473056513,
                0.9858896401284009,
                0.19907851878885144,
                0.6560689910586227,
                0.44650192686018597,
                0.01452080976436089,
                -0.9965733894932837,
                0.9475409021676926,
                0.5571793180428348,
                0.5609576512484389,
                -0.027190460805597907,
                -0.35301287173247275,
                -0.06354080080457904,
                0.62482008318493,
                0.7996032551476309,
                0.16998237940160807,
                0.5236349395451074,
                0.24912363674136154,
                -0.044906259115332435,
                0.7091881883277982,
                0.4874360335647075,
                -0.8755033241221812,
                -0.559101714811172,
                -0.40975546604200247,
                0.7035498139488973,
                -0.6079021211609013,
                0.7937351116288838,
                -0.4346210389995844,
                0.3641839635101551,
                -0.5443999230800833,
                0.4780332307188322,
                -0.02640829143144792,
                -0.5104268951600878,
                -0.43784495315302113,
                0.5924612353048881,
                -0.23215091706010302,
                -0.0862787236510508,
                0.6833260060646964,
                0.5709409607019121,
                0.9414662035590049,
                0.06077847558677337,
                -0.14354815723207637,
                0.9882532060087281,
                -0.6247620782680997,
                -0.33797130959743243,
                0.3377391771347571,
                -0.19677753528151382,
                -0.3400157785574792,
                -0.14079660406450273,
                -0.9380053974021947,
                0.8050221059271762,
                0.971330612668696,
                0.7661632165827906,
                0.89736690806757,
                0.930089592829383,
                0.530686449674941,
                0.9584308203143997,
                -0.6073590743437083,
                0.2335765263420174,
                -0.11472600945920973,
                0.8829502057000788,
                0.8313080152054413,
                0.776789901919248,
                0.5815414733768325,
                -0.5163643376940872,
                -0.9642198158237104,
                -0.620757410805802,
                0.24159098962756206,
                0.965653482910399,
                -0.4545843855724542,
                -0.45329647437436094,
                0.09930009728935445,
                0.1739008387064955,
                -0.39244999007576914,
                0.6673011504209996,
                0.6553923636890322,
                -0.8309371734553196,
                0.2226022912174759,
                -0.892875231040785,
                -0.21348244881702136,
                0.7839544131475086,
                -0.5727342004217707,
                -0.7650588562267665,
                -0.8658670158282507,
                -0.10987087087739747,
                -0.042171792370207344,
                0.0040679578467546695,
                0.8583565809644703,
                -0.32903084329499005,
                -0.5888783416574359,
                -0.034311500583746025,
                -0.7875066484304133,
                0.2795074267177427,
                -0.8152177693992476,
                0.10443657710539865,
                0.4400334462716707,
                0.6619172000465465,
                0.5739750955142364,
                0.3097230059441781,
                0.37039674198490236,
                0.6007632894797672,
                -0.27845360044589923,
                0.6739801779760576,
                -0.36372674276109496,
                0.6454759260220811,
                0.016476753832159994,
                0.568012259892516,
                -0.35776197527404696,
                -0.3879556935346372,
                0.1218952276092487,
                0.8753280895308234,
                -0.247140985757312,
                0.8934484386333302,
                0.44030350446241945,
                -0.17554259501542943,
                -0.05405465410301028,
                -0.39616081138625064,
                0.6081864485821307,
                0.5814696438806028,
                0.8711841507187685,
                -0.7671393071809449,
                0.8083545702645984,
                0.3967190796302696,
                0.937037153041254,
                -0.49821057242638106,
                0.5629126628642824,
                -0.584955065315184,
                0.5241173159861191,
                0.5691425236586162,
                -0.618395763427909,
                -0.14149071617520276,
                0.37532027709449195,
                -0.45006387859992014,
                0.4176530863105617,
                -0.05952443538257335,
                -0.5054813970133586,
                0.044184649376483996,
                0.8783544002269168,
                -0.9460401950470347,
                -0.7013615001441517,
                0.44522207768951105,
                -0.570339223406242,
                -0.34379577923947435,
                -0.8298411879638898,
                0.33058434581639945,
                -0.5579344795082171,
                0.22050683013988642,
                -0.07736797703328326,
                0.15383391919542588,
                -0.9205261791833714,
                0.20155308548191486,
                0.005308762008927018,
                0.789381925183189,
                -0.9218628460653264,
                0.9161828457317347,
                0.17595965727796123,
                -0.1751631168108861,
                0.791413056230598,
                0.4379052042185705,
                0.7948359026132054,
                0.28780488478196625,
                -0.9419045288780094,
                -0.2345280344540946,
                0.7888077811520686,
                0.2566453775280415,
                -0.45252817433335507,
                -0.4399548228989185,
                -0.48154873817607713,
                -0.32981557529741673,
                0.6163236726054985,
                0.7168420274590793,
                -0.12343790060041566,
                -0.333096817637769,
                -0.6026885790813348,
                0.20554649959202795,
                0.16878825360696134,
                -0.8093028808809476,
                0.039867170794516966,
                -0.38906172632378266,
                0.9640731293855377,
                0.8896757527209248,
                -0.09454168104320347,
                -0.6670136341909834,
                -0.6033503983886706,
                -0.31020759601832115,
                0.35761902743407487,
                0.3706414994705618,
                -0.30801061913229194,
                0.7002877488889364,
                0.9483816648560701,
                -0.23234804813903426,
                0.2355251695193462,
                0.641823924355608,
                -0.8404406214810232,
                0.4611478539367993,
                -0.7154475754027391,
                0.732257709999335,
                0.2629006179689906,
                -0.15242463066931472,
                0.5766931665289152,
                0.7509630784560697,
                -0.5642558572003527,
                0.7748225592715179,
                -0.40302735804396195,
                -0.16511702669568507,
                0.4036414373104143,
                -0.7339257649383395,
                -0.27111558430239396,
                0.39526801181892274,
                -0.3205692304323099,
                -0.34557252926409976,
                -0.5379655194601739,
                0.44486891237775844,
                -0.4702767538126498,
                -0.6704816088453154,
                -0.4111515125398849,
                -0.6377748785048725,
                -0.30267528570365304,
                -0.6461536644843705,
                -0.4481860656757827,
                0.012984983475203772,
                0.2372311262709019,
                0.5868562948383104,
                0.08637870051016375,
                -0.029597422703139364,
                -0.1040515874260608,
                -0.5008489585137719,
                -0.24434746052532713,
                -0.7400583339844845,
                0.30766598175932586,
                -0.9829930185508128,
                -0.6982501720094972,
                0.13839612116980235,
                0.028120252185658,
                0.704583473942435,
                -0.681861217280616,
                -0.5139234149254744,
                -0.26385686944220466,
                0.5362664105756367,
                -0.9610945383756544,
                0.06974339974779155,
                -0.272752937738893,
                -0.7327036182119162,
                -0.4925811395430927,
                -0.2534082535366489,
                0.050166403637583803,
                0.8522459909692661,
                0.036102169134551845,
                0.10117522204279895,
                0.5802070139851452,
                0.8437949759564087,
                0.7025634263870324,
                0.5285484941323515,
                -0.5092784693840102,
                -0.5090520617892293,
                -0.2717035942684264,
                0.8999382365367596,
                0.9385077468620773,
                0.017765060757985403,
                0.18336009318007396,
                0.7056745929301151,
                0.4725575600903954,
                -0.18890144388842856,
                -0.7367182179949134,
                0.25639997301576745,
                0.32328940602961953
            ],
            [
                -0.03137251459273719,
                -0.7884595744632573,
                -0.48882965814806484,
                0.8982086089315008,
                0.8134014570103772,
                0.5280802387865061,
                -0.14790889298569906,
                0.1387308189787959,
                -0.522717680968427,
                0.2170954630987301,
                -0.8304972773012876,
                -0.6457134093721576,
                -0.6571153648459632,
                -0.41624182619451194,
                0.25225445602718716,
                -0.6041981489250007,
                -0.8919436793599259,
                -0.7861555834787485,
                0.4278827774037813,
                -0.49616696213369044,
                0.4771541246737075,
                0.198328987106446,
                0.1983427915026448,
                0.9653164070347119,
                -0.841716581972782,
                0.9316674799971892,
                0.6057586163020939,
                0.5293584623878805,
                0.583643544575864,
                -0.579957971901707,
                -0.3335693012754431,
                -0.7971877229161272,
                -0.5174454254732647,
                0.6243981406174494,
                0.016816905923135582,
                -0.5560907411720051,
                0.5321630518677151,
                -0.2462635155909571,
                0.5887575571310244,
                -0.7963296021918176,
                0.25723041907819133,
                0.8819873247837191,
                0.6220244716860567,
