[
    {
        "epochs": 2,
        "name": "lots_of_categories"
    },
    {
        "activation_function": null,
        "bias_h": [
            [
                0.9618490958288314
            ],
            [
                0.7593868261316696
            ],
            [
                -0.30258711783919556
            ],
            [
                -0.8373675717284098
            ],
            [
                -0.8668017729683059
            ],
            [
                -0.49305686409610144
            ],
            [
                0.9726616775177135
            ],
            [
                0.8872108471584628
            ],
            [
                -0.1156027839470993
            ],
            [
                0.08956792647325326
            ],
            [
                0.4003089860702973
            ],
            [
                -0.6660618098844117
            ],
            [
                -0.25460486483724853
            ],
            [
                -0.5901866904615998
            ],
            [
                0.7355030994064718
            ],
            [
                -0.8887826408827246
            ],
            [
                -0.8426473532060522
            ],
            [
                -0.8163838740882333
            ],
            [
                0.3265697626189271
            ],
            [
                0.8400754979004701
            ],
            [
                0.08891857774910422
            ],
            [
                0.021234136184481694
            ],
            [
                0.12303900732840921
            ],
            [
                0.46631330915073416
            ],
            [
                -0.7360424021078171
            ],
            [
                0.3476445008308442
            ],
            [
                -0.08732787517514606
            ],
            [
                -0.6824247867612958
            ],
            [
                -0.9553114170733868
            ],
            [
                0.10977318677904684
            ],
            [
                0.6785106761209085
            ],
            [
                -0.24640128097048392
            ],
            [
                -0.0022528315905463478
            ],
            [
                -0.08722647880111363
            ],
            [
                0.6069551517338116
            ],
            [
                -0.9309246924846282
            ],
            [
                0.7082496769848945
            ],
            [
                0.666083955145588
            ],
            [
                -0.13054016853278466
            ],
            [
                0.046770523353269235
            ],
            [
                -0.257015022336489
            ],
            [
                -0.6704289271433442
            ],
            [
                0.1491534556815241
            ],
            [
                0.10729533387364489
            ],
            [
                -0.6686357632177012
            ],
            [
                0.6613235081573198
            ],
            [
                0.4588660289237279
            ],
            [
                0.03567062724214061
            ],
            [
                0.10448561152768099
            ],
            [
                -0.5828817318389181
            ],
            [
                -0.2726929402931971
            ],
            [
                0.9319444165977191
            ],
            [
                -0.42862155585628486
            ],
            [
                0.08211280173032844
            ],
            [
                0.7937663052671787
            ],
            [
                0.5331231516923166
            ],
            [
                -0.09855919672522073
            ],
            [
                -0.16699430455175637
            ],
            [
                -0.3279940568710908
            ],
            [
                0.12482856462915785
            ],
            [
                -0.9029157490092041
            ],
            [
                0.7204005616244228
            ],
            [
                -0.7571969327746395
            ],
            [
                -0.5953177119174032
            ]
        ],
        "bias_o": [
            [
                0.7504675711208868
            ],
            [
                0.6373940552923432
            ],
            [
                0.6095486221042118
            ],
            [
                -0.21422821766994135
            ],
            [
                -0.7190801964615684
            ],
            [
                0.1306493031762516
            ],
            [
                -0.08062736252343214
            ],
            [
                0.321291441573545
            ],
            [
                -0.1142944347730528
            ],
            [
                0.027563604777312952
            ],
            [
                0.25671610823881186
            ],
            [
                0.42406890747672543
            ],
            [
                -1.016376263957572
            ]
        ],
        "hidden_nodes": 64,
        "input_nodes": 784,
        "learning_rate": 0.001,
        "output_nodes": 13,
        "weights_ho": [
            [
                -0.8303504889944046,
                0.23253364902523144,
                0.6108951849888146,
                0.5569388961518964,
                0.14734293611928764,
                0.9666052758116692,
                -0.3786778874882977,
                0.2817835605647993,
                -0.7757772587063708,
                0.5495514077923324,
                -0.8241855709804402,
                -0.778414967102966,
                0.35998642188741675,
                -0.34836478516287844,
                -0.5369140093386534,
                -0.9316748886428452,
                0.24676874003837845,
                -0.4434301517658071,
                -0.8468693494857741,
                -0.03870671977540142,
                0.03271044672634234,
                -0.35535284613686596,
                -0.9213261887683484,
                0.11801137469754594,
                -0.13862739650978498,
                -0.1957047028554024,
                -0.7016532841819247,
                -0.16815379062851,
                -0.10301097385344465,
                -0.3569311727771367,
                -0.5916548197867743,
                0.18672907272387101,
                -0.7908467380290501,
                0.7356921347066836,
                0.7524089824214775,
                -0.6779510588821137,
                0.3014401518358613,
                0.14982222431942208,
                -0.5819367264379038,
                -0.8419766146157667,
                0.7254283292231589,
                -0.074408259935041,
                -0.9807405386185214,
                0.598744320819869,
                0.6438995348897106,
                0.03398624812083814,
                0.23066843318292396,
                -0.23446008806798607,
                0.520102856156899,
                0.10124854298040004,
                0.05376091179481036,
                0.3891391259835816,
                0.7175045453855103,
                0.41661949295758466,
                -0.14449561193326116,
                -0.2236608757522579,
                0.19227152216313165,
                -0.7145803455061139,
                -0.4326324175814426,
                0.20041610413104627,
                -0.5802240261884167,
                0.024412903175807032,
                0.2696372214911869,
                0.1540926659870141
            ],
            [
                -0.1221170492199095,
                0.6209856987322258,
                -0.6766623589807298,
                -0.05044390244453012,
                -0.7163917243829552,
                0.5400353841291623,
                -0.03080350708511961,
                0.13077358861514843,
                0.8090314834178276,
                -0.9420447215049098,
                -0.017263765839913195,
                0.7159559074729271,
                -0.9499184722468764,
                -0.9626150610357199,
                -0.7074962673656304,
                -0.5005011957406583,
                0.4896478535388886,
                0.12635355201419615,
                0.12590734313347915,
                -0.5086069320997715,
                0.6907125780318027,
                -0.19737807605036561,
                0.09467767941178161,
                -1.0550483007286156,
                0.14702749599498727,
                -0.2869511831378815,
                0.9103670822517032,
                -0.08270753069555226,
                -0.5650394158729146,
                0.0867721657455834,
                -0.37218277405287914,
                0.6443871452542104,
                0.6078926980196573,
                -0.6015526122509357,
                0.9073305248806315,
                -0.11605881984870638,
                -0.10898248748072915,
                0.08990630436845834,
                0.2205721660981268,
                0.0921858612409895,
                0.5847376425300391,
                -0.1302768793936183,
                -0.9105454179752667,
                -0.8481590802618841,
                -0.4445571151627396,
                -0.6804423061012609,
                0.36081790697210214,
                -0.1642935167187343,
                0.1859306697327914,
                0.8433652017616343,
                0.014474459794926838,
                -0.1691440274341417,
                -0.9706921969388798,
                -0.31029098352078,
                -0.8034939216965026,
                -0.6707875881007241,
                0.8665005288621566,
                0.7084215249568481,
                0.8176368139334619,
                0.9368416471846731,
                0.47882525687848626,
                -0.4878136749948193,
                0.9189237506701916,
                0.4943187503429952
            ],
            [
                -0.6337791611771723,
                0.12001282725210899,
                -0.5066625136230397,
                0.08344779645376367,
                -0.6178633573809064,
                -0.10020113903487783,
                -0.30741111980787755,
                0.6284577298492185,
                -0.6169416103511698,
                -0.4999112133940792,
                -0.4384141751630979,
                -0.4980117459026156,
                -0.5920404722298973,
                -0.12621876782074024,
                -0.4725155823707279,
                -0.43772357371024423,
                -0.17180300382188185,
                -0.16899555470437552,
                -0.05690378170943607,
                -0.01655141518487832,
                0.752870187931374,
                0.900092634068315,
                0.5045976953633753,
                -0.35572351904667954,
                -0.02326402785876451,
                0.8806933119040652,
                0.28647030805417456,
                0.41419810968147575,
                -0.058914714801860626,
                -0.7516884541960728,
                0.5819531627488714,
                0.24221720574370537,
                0.5175894799830778,
                0.4107507402583034,
                -0.6238387062267007,
                0.5282486783175785,
                -0.6400825361248511,
                0.08482204655554865,
                -0.7750572141435862,
                0.06307111821091867,
                0.3165511874981857,
                -0.16652348802414074,
                -0.9577510610685522,
                -0.9891640615143521,
                0.6081389062973379,
                -0.7505814432213774,
                0.43155997629648685,
                0.9132556746866682,
                -0.43410876134651966,
                -0.5221898387795082,
                0.21418199846052674,
                0.8590229740081958,
                0.35738839433657116,
                0.297079545174336,
                0.9787613883290177,
                -0.7629569212808912,
                -0.29781238984407676,
                -0.6990577058176246,
                0.08441034681633024,
                0.1842808555138994,
                0.22790817717224676,
                0.23669464610588936,
                -0.5350313130970887,
                0.8054834287307562
            ],
            [
                0.20881838585359658,
                0.4784554640974022,
                -0.9309609536949415,
                -0.44617936277550757,
                0.44447519047280454,
                -0.9603107320449268,
                -0.6351561307518113,
                -0.11319991754187934,
                -0.5309380779564049,
                0.0644924441518956,
                0.7122711768313137,
                0.47466024559242015,
                -0.8487857484368205,
                -0.14935313238024567,
                0.021026826911847873,
                0.9131110011524748,
                -0.6361194325777333,
                0.6763575882671728,
                0.5538375291752192,
                -1.0238441183708116,
                0.0616162389623639,
                -0.9562582578509315,
                0.12716201294461868,
                0.47004161929201094,
                0.20047609858470974,
                -0.033906468166169705,
                0.8800434527872835,
                0.7943479090175015,
                -0.847705057025341,
                -1.1437138122583717,
                -0.6259274950577745,
                -0.8595478237225844,
                -0.08317981930350704,
                -0.6108194620170446,
                -0.3763677244422429,
                0.6933196920505991,
                0.44804178536410605,
                0.12413968409811009,
                -0.7502922208045922,
                0.038197649263525195,
                -0.31073353371802753,
                -0.4895112804453396,
                0.3983157795289873,
                0.8911189430970081,
                -0.7112551120987868,
                0.9548611201875102,
                -0.425177138097395,
                -0.6405602131290218,
                -0.33673197541582295,
                0.27988489647523535,
                -0.650937908120811,
                -0.523845688609908,
                -0.8153613686432433,
                0.4874303398555676,
                0.73962187546705,
                0.7304509753705212,
                -0.5012167197620467,
                0.9464410566539924,
                -0.2921029092141035,
                0.05811310184831342,
                0.482638291921307,
                0.9003513452946014,
                0.5317212648428918,
                -0.0275153636052215
            ],
            [
                -0.2807586546491382,
                0.7227221783206575,
                -0.2858546963327262,
                0.3139384100648387,
                -0.0015108889018442403,
                -0.6070708844767794,
                0.131791623247213,
                0.31014465434715965,
                -0.951104269583853,
                -0.08445831968391015,
                0.6683415228661278,
                -0.8098476438989897,
                -0.7611595303185971,
                -0.8903089650530551,
                -0.5697472161394599,
                0.5581063081219971,
                -0.23718003272501095,
                0.16724662345505853,
                -0.051517408969209186,
                -0.8274499139755142,
                -0.4842345602421073,
                -0.1907260190213528,
                0.24444174929366047,
                -0.074492665139171,
                0.9575897676948731,
                -0.751068688970046,
                0.13119241915592023,
                -0.8869091189417723,
                0.0073351184491116375,
                -0.5539621991464823,
                -0.22338331972062472,
                1.0236295377954745,
                0.9194815804764792,
                0.37514512738554134,
                -0.3479097278620252,
                -0.12782726715554132,
                0.46581374990648144,
                0.05336170056098632,
                0.04484988045787349,
                0.7193646542985561,
                0.7656541370698916,
                -0.47025522978955886,
                0.6877202677131924,
                0.07217387999673872,
                -0.9772644385560232,
                0.8761462768847398,
                0.34381169201185263,
                -0.8735158223141729,
                -0.3748957728003547,
                -0.8920107395157911,
                0.8436649962325057,
                -0.004721816916426869,
                0.21276480392935865,
                -0.75445027030311,
                0.22716361188561515,
                -0.9901825953435371,
                -0.8972498616828903,
                -0.09383692949120748,
                0.6910691509085852,
                0.13604004347990836,
                -0.7472715439303733,
                -0.9487044013469647,
                0.40366782733483525,
                0.4391290486803452
            ],
            [
                -0.7997208362662201,
                -0.6423260055450235,
                -0.20626521299643133,
                0.9069748153692108,
                -0.11771929317930083,
                -0.23755924658874594,
                -0.8365299196651627,
                0.27200060875817894,
                -0.6994089055631452,
                0.13595280612554764,
                -1.0031401437720096,
                0.14764100094972069,
                0.7142850648146106,
                0.1474377736562187,
                -0.30970499973972493,
                -0.15943997453861736,
                -0.17204725466451848,
                -0.9620116475650369,
                0.6031478409574523,
                -0.8628490686014707,
                -0.8886105769546679,
                0.7722039876635856,
                -0.7223797144593159,
                0.33919016993994083,
                -0.4826256084600454,
                0.20273971833693194,
                -0.7875385148476776,
                0.9140141558774185,
                0.2882493108963475,
                0.12794434504431237,
                0.7415542370805285,
                -0.2671107296211715,
                -1.0207493949286037,
                0.5851330778247161,
                -0.26970797017092796,
                -0.8637769211131086,
                -0.0160457903834027,
                -0.1719401300802486,
                -0.5490493208537525,
                0.9213339010000832,
                -0.43093689928838974,
                -0.0922401199045877,
                -0.5722701258737434,
                0.30737817492133107,
                -0.7988933520646243,
                -0.4326295068875486,
                -0.7979079801055944,
                -0.9104208883181055,
                0.48481243860333123,
                0.8796574041588617,
                0.9157985958591685,
                0.2754897517836954,
                0.05706649817129961,
                0.7965196404322281,
                -0.07331693246585645,
                0.5678419430586279,
                0.692616944589864,
                -0.38648964770226907,
                0.2699639457461015,
                0.8709266041003763,
                0.08926263910558756,
                -0.3411516538371785,
                0.19393699292927585,
                0.3357470427580502
            ],
            [
                -0.4030291368777354,
                -0.3593032026353515,
                0.010750946406432538,
                -0.34486539891709067,
                0.7233290175293436,
                0.7418660218645181,
                -0.7191224729353818,
                -0.7043985810390281,
                -0.2787883635032974,
                -0.8730164523957638,
                -0.8082380255901819,
                -0.30498470589215854,
                -0.8822910359490345,
                0.7569607671603286,
                0.14627663749062716,
                0.42905993936784115,
                0.6018432639244088,
                0.5341262550188636,
                -0.7245858428265298,
                -0.8466809244054211,
                0.9192032527604949,
                -0.23576080564423202,
                -0.5298763178186122,
                -0.6864932770603794,
                0.679059282185055,
                -0.33048546032688647,
                -0.1694799892124704,
                -0.45888979558571946,
                1.0653229742477535,
                -0.16901543237952021,
                -0.36515312624940205,
                -0.8012472988344642,
                -0.05654900701732103,
                0.08199487136357768,
                -0.9183004487525415,
                0.5237378380528324,
                -0.5187286859958364,
                -0.0718769381120233,
                0.11205324558266286,
                0.7854563468557079,
                0.7069472680693675,
                0.4256265645252038,
                -0.2509116017726123,
                0.24041860681012656,
                -0.135085842561686,
                0.2640963824784712,
                -0.5597398272520981,
                0.6894858694086144,
                0.5979619811932788,
                -0.473338281873748,
                0.8995094241943093,
                0.19894945277954595,
                0.8809013501785476,
                -0.8157875490303732,
                -0.05263757925816031,
                0.6538910227074205,
                0.7936628005930593,
                -0.9495997855864362,
                0.2899637186707748,
                -0.05904413323283253,
                0.6078930984056105,
                -0.4911499202923074,
                -0.1104377605596911,
                -0.4568683959444649
            ],
            [
                -0.27903076335240934,
                -0.02091964013117016,
                0.6664694472824064,
                0.44028507124783817,
                0.02671815976524243,
                -0.00916652434976136,
                -0.6809129088745652,
                -0.7969512954815753,
                -0.3950317837929248,
                0.8666291328899136,
                0.31458201985306483,
                0.10155225482853077,
                0.5510915982484579,
                -0.5205651223366257,
                -0.1558260401602833,
                0.2816876214455054,
                -0.36040237540705516,
                0.7850176947655855,
                0.9061916810243363,
                -0.5719718768033548,
                0.601696566635411,
                -0.26178550107165743,
                -0.7417668954772583,
                0.6666927202168159,
                0.7316269840093267,
                0.4378893482620201,
                0.9716720726474907,
                0.6891973574148144,
                0.0059620999462256345,
                0.9873833525120388,
                -0.03802806549893208,
                0.41188095288858834,
                0.460341088831834,
                0.12678385422795196,
                -1.068742978852274,
                -0.42780455915062426,
                0.22510487058321818,
                0.039862285565432976,
                -0.5729089504520658,
                -0.5346723582321622,
                0.08463733738246192,
                0.7257508203316262,
                -0.37038121789839834,
                -0.14041944448722304,
                -0.5329522144811668,
                -0.48233788193375793,
                -0.4842292842616536,
                -0.16537237338555535,
                -0.286008802645379,
                -0.5912910399232023,
                -0.3754262618279375,
                0.06219428306874457,
                -0.053220357025837106,
                -0.48598216459648935,
                0.24975845731924748,
                -0.8090232116864439,
                -0.3267369030010228,
                0.7869464596400201,
                -0.8230544327073535,
                -1.088224247063091,
                -0.7089962680310434,
                0.47570191691699987,
                -0.8945852617207506,
                0.8543348342487326
            ],
            [
                0.6235615242382136,
                -0.09855807524856626,
                0.8828444779414966,
                0.752683985540845,
                0.09528017584990116,
                -0.6751598203826477,
                0.3155298385057906,
                -0.8134664361963406,
                -1.0421304078022409,
                0.6873185489342811,
                0.12544573061984227,
                0.44844445480593564,
                0.29930364138810583,
                -0.5512930796739155,
                -0.9994437634203064,
                0.07763606554029913,
                -0.7264753669585458,
                0.42514070574315177,
                -0.6556122041752451,
                0.4861686800229552,
                -0.5752475194624158,
                -0.2959565270396828,
                0.3873935902495469,
                -0.741184547339372,
                0.44421325878927687,
                0.5185445726860833,
                -0.41289721780933686,
                0.6045150619916346,
                0.6484038802286702,
                -0.07204918767633856,
                -0.1578001012323803,
                0.8359875493439629,
                -1.0179550645974609,
                0.6419917041099763,
                -0.3930055861006036,
                0.693918221093666,
                -0.14213087660194967,
                0.27878633054535934,
                0.2928081820333291,
                0.3574840938865461,
                -0.9969116791026602,
                -0.7189686282100843,
                0.7174546601863783,
                -0.11062946729280437,
                -0.6001552541924516,
                0.8686417440345141,
                -0.8901795540163447,
                0.6274321559769046,
                0.7493109064025706,
                0.8802088311895078,
                0.8079181452962584,
                -0.4887229447040809,
                0.6607113357904019,
                0.5421488554040714,
                0.7918818950915315,
                -0.9217443160623586,
                0.12998245716824935,
                -0.8013913701367835,
                -0.3006041204795934,
                -0.3755792046089416,
                -0.19383511289480387,
                0.5229246655765198,
                0.2199274050157491,
                -0.37390903930885805
            ],
            [
                -0.629467294961469,
                0.7248779219642433,
                -0.7322704942150053,
                0.22415062493619461,
                0.9414964995989487,
                -0.13138648834453912,
                -0.6952389672731847,
                0.3794692807879933,
                -0.7053170721327644,
                0.55920402271787,
                -0.29095128409298476,
                0.5945015142171809,
                0.02472478828144385,
                -0.10702162276741026,
                0.8078640974077591,
                -0.338542938282084,
                0.8708154351316523,
                0.5674575767431703,
                -0.1311690904757252,
                -0.12337655848357779,
                -0.247592993145872,
                0.48423849645344935,
                0.06266446746902883,
                0.12146552226956299,
                -0.5777958534497517,
                0.34227091711197943,
                0.12392459713798074,
                0.848128422999878,
                -0.7829237070279408,
                -0.1694171686390913,
                -0.5025036550680843,
                -1.0847103794634212,
                0.559017475960506,
                0.915539015259005,
                -0.34464788886804504,
                -0.9836439331673084,
                0.3065041546824443,
                0.4129654700305224,
                -0.13276913686645586,
                -0.24736318090264528,
                -0.49776089187594824,
                -0.1449753273394721,
                -0.43236625822050084,
                -0.23493063749989462,
                -0.11450407715933689,
                0.4987317021759098,
                0.2877085686934738,
                0.40333925922967445,
                0.8141395024559751,
                0.43449625966160654,
                0.2123781689522196,
                -0.7794652254568861,
                -0.8863850067443443,
                0.17808226832043605,
                -0.3422360708372057,
                -0.5488220524676956,
                0.13529768307499207,
                -0.9382767611359385,
                0.46134135987556935,
                -0.9154535452691486,
                0.5397737125465526,
                -0.4266064787195546,
                0.8443430544258933,
                -0.37211199535765316
            ],
            [
                -0.5245079862913903,
                -1.0110977503931355,
                -0.16440605632116775,
                0.16831948527955365,
                -0.8703472911131995,
                0.9000217014901983,
                0.012046086348192165,
                0.03825895364024346,
                0.6308241656336976,
                -0.12578573563478024,
                -0.7977070477765679,
                -0.2666891371131076,
                0.05627908564096473,
                -0.42465549294731775,
                -0.8101200665077296,
                0.3296222636330273,
                0.6568205356627439,
                0.44981497883792604,
                0.38193754010257985,
                -0.03818017278713401,
                0.5568934131927954,
                -0.2995208387062336,
                -0.21863127374863123,
                0.6633685372776488,
                0.4156795903882896,
                -0.23182202123308673,
                -0.6391484605060481,
                0.8590347494831239,
                -0.5295755255845949,
                0.6205381831902438,
                0.21955052356422086,
                -0.9754424623161971,
                -0.8229496767391726,
                0.0646081323183237,
                0.8234961687555646,
                0.7119202468536027,
                0.7944263722716233,
                0.6209686672739363,
                0.4767007221416379,
                -0.6926712850881026,
                0.8529399650110813,
                0.4795401813095054,
                0.7382176055088175,
                -0.5815059491065694,
                0.14683078828158783,
                -0.9054348346133781,
                -0.23580601819879288,
                -0.6052248318673837,
                -0.40433290161400565,
                0.8240864815450547,
                1.114013320370685,
                -0.479633699694475,
                0.03385041296884582,
                -0.0187876752257737,
                -0.9639573694182116,
                0.06802041480439106,
                -0.2900679030378959,
                0.13485865763912686,
                -0.3835211946600341,
                -0.7434669587617607,
                -0.3670451887722546,
                -0.440300301453125,
                0.1277592797417253,
                -0.7357203786102217
            ],
            [
                -0.21457527702644044,
                -0.6254876165804429,
                -0.4212518241794788,
                0.13551317233892138,
                0.6711340037345175,
                0.49515090944622486,
                -0.5437180048751097,
                0.3482396920417512,
                -0.09383929922291681,
                0.0034412464132564263,
                0.2852529196162705,
                0.3841105932477576,
                -0.28260086724689804,
                0.18423264695037095,
                -0.4840889879381182,
                0.583711222612896,
                -0.1823552075656723,
                -0.9141998405242939,
                -0.7704707792455815,
                -0.8437786556958503,
                0.10639517732770908,
                -0.10779744074050794,
                0.08419502719599693,
                -0.10619925754345891,
                0.5960074906826616,
                0.3322648623399657,
                0.22433264567053235,
                -0.06338314346767096,
                0.5514997897141888,
                -0.6768313341846712,
                -0.44843514665996426,
                -0.0403979001531117,
                0.7252717869787173,
                -0.8735415522536764,
                0.8499255212979546,
                0.11957667713808655,
                -0.6450747806912661,
                0.35252571373571445,
                0.5905306182125456,
                -0.48091334365825766,
                -0.7010434491597198,
                0.31758420536146825,
                0.29014148760900915,
                0.5677619520223037,
                -0.4030707871075417,
                0.7374997314154255,
                -0.10646516763543279,
                0.0946881823132733,
                -0.4977445526270093,
                0.8303648818431832,
                -0.6748860240758981,
                -0.322114990725658,
                -0.7099962082704396,
                -0.532878181000844,
                0.628201460629853,
                1.2886881691222851,
                -0.8685179853113058,
                -0.5146401156237385,
                -0.8385658269555808,
                -1.0116776080640306,
                0.08913561440838934,
                0.23525447998696974,
                0.6882502031248996,
                0.011227654185859063
            ],
            [
                0.5794199397188526,
                0.500186793231289,
                0.9433115012734054,
                -0.4629050566151785,
                0.6713966202176606,
                0.8564606400261104,
                -0.9343544484770746,
                -0.4290104806791236,
                0.16258895733703949,
                -0.7812566711734946,
                0.8477509062179174,
                -0.10792941977175106,
                -0.39369378319224463,
                -0.2690576586129115,
                -1.1242606167151503,
                0.6808507742945116,
                -0.7356792957321272,
                0.3046067478366085,
                -0.13378568000083077,
                0.345656284962251,
                -0.3198215688940418,
                0.19580661774817765,
                -0.21555214360861225,
                0.5130204925053252,
                0.05090675029457325,
                -0.6953218177523048,
                0.6156839805860085,
                0.6646221241989017,
                -0.35131842839349553,
                -0.7762844073624071,
                -0.4533508446047181,
                0.22840415573658784,
                0.11607179729597415,
                -0.5127810736390409,
                -0.40158355523840367,
                0.601616808450332,
                0.42762317717237813,
                0.24889537627402855,
                0.44657556646446606,
                0.22454834184963368,
                -0.15036888548339833,
                -0.4872194822352254,
                0.2529788700765664,
                -0.7228019472179907,
                0.8191064262601156,
                -0.08471482789984923,
                0.3315992613109198,
                0.6800804255391152,
                0.07416655417415585,
                0.1137240172293301,
                -0.3139090168043837,
                -0.45251790460431973,
                -1.0412576877314454,
                -0.14474574320704484,
                0.13785092331214768,
                0.4302248069578412,
                0.7396302924111033,
                -0.15101367883494507,
                -0.3656881173761378,
                0.5057437508874286,
                -0.8306411337761377,
                0.1325991180976608,
                -0.8408480467872321,
                -0.6948499447082003
            ]
        ],
        "weights_ih": [
            [
                0.963332200512058,
                0.40431526675115176,
                -0.04514701428597367,
                0.1966107757343071,
                -0.6974674428362385,
                0.09233378466123184,
                0.07648375161403116,
                0.10449882212297686,
                -0.5332758528516298,
                -0.05893061220185771,
                -0.3218121827416001,
                0.8495147528825467,
                0.16496881045942993,
                -0.7578209072665244,
                -0.7868001675986492,
                -0.39030788414026435,
                -0.9435421292885723,
                0.28733243768484024,
                0.3491911427725131,
                -0.6799905862828141,
                -0.9289527783040507,
                0.606572252661905,
                0.8921786136662905,
                0.42612677119705794,
                -0.5544958715549145,
                -0.21553051918714647,
                -0.4217454926609781,
                -0.2742136211355169,
                0.6141857608176201,
                0.7530725401109877,
                0.3267701586446716,
                -0.8700316598318861,
                -0.7320720469579233,
                0.0014365104507673564,
                0.925203571856486,
                -0.8278553433140786,
                -0.04438655651786401,
                -0.887849502953466,
                -0.2877522594660903,
                -0.7180245043302802,
                -0.7332501191627543,
                0.46993194694448953,
                0.17825436681959692,
                0.6482477364216489,
                0.8208596790374747,
                -0.8122199780681062,
                -0.47684066937549385,
                -0.9714918498947777,
                -0.4779713013796724,
                -0.5313882114145474,
                -0.15664684616840238,
                -0.6245525423641746,
                -0.7180147395289328,
                -0.9630355767023666,
                0.6685009563621909,
                0.6409675600393593,
                -0.19379818192215623,
                0.7502897346417773,
                0.7686752990326401,
                0.03659866526648582,
                -0.7768407979765568,
                0.9129236417938629,
                0.28534884344351535,
                0.017491783627885896,
                0.46651622828208095,
                0.014269812673886322,
                -0.3152010780606919,
                0.9181814405530012,
                0.1893811079987305,
                0.31890131638924196,
                0.4306735896310844,
                -0.3395975796684884,
                -0.8440545152005715,
                -0.1851508997275103,
                0.1817230070761551,
                -0.9776791831424437,
                0.2950298051406325,
                0.19047617295602076,
                -0.41857783809868987,
                -0.26804567811029084,
                -0.7287074095536107,
                -0.09981605825231014,
                0.24560172445454964,
                -0.5749701028690207,
                0.18284288188421086,
                0.5691713404789661,
                -0.9524157548036758,
                0.18774562992514204,
                0.8168643742806645,
                0.01756324975031195,
                0.3165612797959095,
                -0.9842379588468878,
                0.8630538151329323,
                0.09156483841191071,
                -0.8118869408698922,
                0.6832876571309687,
                -0.09263600163600362,
                0.5104118444904049,
                0.6016323335566138,
                0.23923130426377118,
                -0.43238519280318927,
                -0.22750200059468184,
                -0.9590494888520616,
                -0.5736809838827315,
                -0.5802719101220541,
                0.9030279984870363,
                -0.0229404696320164,
                0.6602707630687492,
                -0.44819388494908363,
                -0.8142061022128676,
                0.5454113847928889,
                -0.5053638029512797,
                -0.8488884195508445,
                0.16142885468923507,
                0.688304344532754,
                0.12988696146051162,
                -0.03873030836009878,
                0.04304056719213182,
                0.24341688969325376,
                0.42992141807245776,
                0.3406023110128152,
                0.8849286126543785,
                -0.04086184128526025,
                0.011332857951147508,
                0.609860875602217,
                0.018611080596358756,
                -0.8807572151513348,
                0.6353620075108177,
                0.5345687744570671,
                0.2234335880932504,
                0.10593326358032523,
                0.06111774556899195,
                0.5394155432159434,
                0.27262589686184374,
                -0.4713629186470538,
                -0.2721194306799649,
                0.46081675069203193,
                -0.5225585025592884,
                0.19267057834355514,
                0.8982408487985823,
                -0.9837174689205307,
                0.10997920180295646,
                -0.4553411924732673,
                0.3857830016842376,
                0.2032236181771196,
                0.8708692008025214,
                -0.15852457462463335,
                0.4625120537221474,
                0.32618633089497917,
                0.09177543327268783,
                -0.8488192795769285,
                -0.18062004048402808,
                -0.44209150068078695,
                -0.6374081734436676,
                -0.673180360020283,
                0.3592195644935797,
                -0.10488868637764376,
                0.9253910950909022,
                0.8063717628274777,
                -0.41647190208022644,
                -0.3003632129929,
                0.1578265796925622,
                -0.5522432758479139,
                -0.5787239632046923,
                -0.6635611848590355,
                -0.1993564102090755,
                0.9741511093750027,
                0.7030610111629024,
                -0.012696045157966407,
                -0.5520136348456091,
                -0.9957690391958804,
                0.8102741279403191,
                -0.6813150543913767,
                0.8731473174563392,
                -0.3606787176212294,
                0.8439439795247046,
                -0.29327796704892084,
                -0.7096125865487242,
                -0.21618026235220586,
                0.21409835144335995,
                -0.127544949891246,
                0.5016268308739943,
                -0.8283498774117704,
                0.5426210182131473,
                -0.506327369619259,
                0.10019173271441707,
                0.24848903707263492,
                0.12949556281262975,
                -0.0028785276237920415,
                0.9897935356941154,
                -0.35938959790767044,
                0.8231757768291345,
                0.03109413294701674,
                0.7055167202745003,
                -0.18281185449107878,
                0.03885496623118168,
                -0.2651765551707606,
                0.11272687372020758,
                -0.20377488881354808,
                0.014927668099881601,
                -0.14817522961322338,
                -0.8320842224897946,
                0.751393229675072,
                0.1389800431389461,
                0.2474800408554196,
                -0.14458301481240915,
                0.12146331646121217,
                -0.7983011133476219,
                -0.9371483176689898,
                0.2274254494901486,
                0.5845692923020934,
                -0.5849639073774043,
                -0.6886128155390524,
                0.5693052946557403,
                -0.36879064747302215,
                0.9349866345049379,
                -0.8667646525400847,
                0.9024053676912167,
                -0.8923502646157934,
                0.6099639238188945,
                -0.8646783580010734,
                -0.3504449687943364,
                0.8111480280255754,
                -0.9000155616415494,
                0.18674255328401693,
                0.7435291001199305,
                0.9533796355485136,
                -0.2363997538523871,
                -0.3929792696657541,
                -0.12327923884054072,
                0.3528843249521015,
                -0.9240751234755994,
                0.7094538769880493,
                -0.44828095904761067,
                -0.16791846922711398,
                -0.3055980765547389,
                0.20125642917925174,
                -0.5002002645144463,
                0.41448182459191424,
                0.4062891922229663,
                -0.9677656046271865,
                0.7903102954876576,
                -0.9326866470249514,
                -0.4126246274968818,
                -0.698719022762527,
                0.6850560975440909,
                0.5752045005265329,
                -0.5870074372032545,
                0.2827016661701874,
                -0.10779146349305829,
                -0.5444761862772637,
                -0.6552126826525136,
                -0.3626818258237117,
                -0.5940550628488047,
                -0.6985532461919989,
                -0.9112460223708476,
                0.11196061056533442,
                -0.5414657816495723,
                0.2688942921753706,
                0.6432688492296288,
                0.5904542690339911,
                0.5053517245440495,
                0.745769109164665,
                0.11529497116014265,
                -0.22330339471521007,
                -0.9819307949188958,
                -0.005717571900306802,
                0.46898342011502775,
                -0.5911568537069394,
                0.90006385404453,
                0.567192152532909,
                -0.6893808064054553,
                0.0034421154955968356,
                0.802772725643798,
                -0.27730449764817194,
                0.30300905770454045,
                0.582954541429167,
                -0.5023088516668954,
                -0.5657325098028186,
                -0.28403132257205194,
                -0.4964532012378091,
                0.9076512673924829,
                0.8808888171247591,
                -0.40758464345960477,
                -0.8235360189800969,
                0.8290515730213626,
                -0.5791366183937745,
                -0.7702142533960857,
                -0.3524098932884108,
                -0.5728601316227215,
                0.21660725291359026,
                -0.9328167532180658,
                -0.16096997219917283,
                -0.39470751040205,
                -0.6626073247019542,
                -0.26662532665910904,
                0.983947786506911,
                0.7891828834438293,
                0.570999156028939,
                -0.9582602086244996,
                -0.8661758609627763,
                0.4900923085951759,
                -0.22669191273955366,
                0.09758919614414777,
                -0.8313664890427683,
                0.30113175948520704,
                0.5633953827093758,
                0.2415367120375184,
                0.9763939443244277,
                0.7900663831112882,
                -0.8557585038182104,
                -0.6329974724028279,
                -0.889174499747663,
                0.9670636796844346,
                0.9850450918277367,
                0.4862444051179514,
                -0.6919562951969113,
                0.5952607393258,
                0.7865814112106455,
                -0.7611497905515416,
                0.9192218570492279,
                0.6717451433235929,
                -0.05499588013783075,
                0.3764341539008966,
                0.6364132028014451,
                0.1271239593085013,
                -0.07480103665413602,
                -0.13183869950182683,
                0.5422082567416752,
                -0.8138283894755879,
                -0.37048270139827166,
                0.2726879599482085,
                0.7269603868733369,
                -0.9083081963745704,
                -0.8118941353594934,
                -0.522556308062407,
                0.7390351526739721,
                0.2815620947066138,
                0.7974751672671357,
                0.7661035378896925,
                -0.8212805144208976,
                -0.8743870625392732,
                0.03261722369872547,
                -0.11601569378179734,
                0.9800489332658255,
                0.7790563864016181,
                -0.5025832713911601,
                -0.680209743545948,
                0.8966967862409454,
                -0.03380744346955646,
                -0.6458508466880883,
                -0.41727858298699455,
                -0.5666371125482103,
                -0.13333299760442324,
                0.6054222812321373,
                -0.8292057313397427,
                0.5200592099514562,
                -0.6449843766038128,
                -0.04619212295233263,
                0.7947379228602498,
                -0.7427686141451323,
                -0.022978537429733627,
                0.2593304225353449,
                -0.8004910209555373,
                0.3219012425893368,
                -0.6130574445839012,
                -0.1210398890202041,
                0.985813386521004,
                -0.4403882890959294,
                0.3788907084665028,
                0.557315681664988,
                -0.9830994786516797,
                0.5993273061341742,
                -0.26150231059955176,
                -0.4958833458154098,
                0.28255079803183536,
                -0.8941915905917908,
                0.07354061357031814,
                0.11675478336643459,
                0.8224840174997807,
                -0.5575717030900742,
                -0.3093556370647342,
                -0.9180516356532223,
                -0.5380581744058825,
                -0.23661050544494464,
                0.831754708387789,
                0.7747356997242709,
                -0.37909095737459214,
                0.170363581964986,
                0.15230011414306133,
                0.7507609335995528,
                -0.6281825519064536,
                0.7369422809683722,
                -0.4445141358245144,
                0.5544520867001108,
                0.013329860240416977,
                -0.17180192116356593,
                0.6738979760106781,
                0.2941751506825363,
                -0.8652540930821029,
                0.1640713235850453,
                0.022592237921130912,
                -0.033567978981931854,
                0.0803573507569353,
                0.030965770078174155,
                -0.7186129634298307,
                -0.9800180482568044,
                -0.5103442616101144,
                0.14721024146411088,
                0.9182904190357178,
                0.20042723509284874,
                -0.22579536858977914,
                0.9730361261325131,
                0.9612391603442236,
                -0.7640135767682095,
                -0.7617539565025253,
                -0.7002310740394384,
                0.3431222896605072,
                -0.3298132618476144,
                -0.7711900779876874,
                0.2786995202584303,
                -0.6323382460118906,
                0.5921171135882859,
                -0.2504505472967547,
                -0.3249846816844014,
                0.9621915057464339,
                0.40057632736493054,
                -0.07905137194409105,
                0.3426723706836148,
                0.318634269418504,
                -0.8907922006941584,
                -0.8645455934989397,
                0.01862159619135144,
                0.5203293316584511,
                0.8048178357965524,
                0.3672121771178643,
                0.5309974344805142,
                -0.9133740932432609,
                -0.725829780082461,
                -0.7147226162715856,
                0.6616594446694983,
                0.10864288633419332,
                0.3189544738377551,
                -0.5925266683199334,
                -0.3186666950600323,
                0.535741429095269,
                -0.5894869518951893,
                0.10336987857634113,
                -0.9246750067361734,
                0.5610747539822305,
                -0.009405494404867695,
                -0.35162715555518775,
                -0.8514380219564143,
                -0.13283967051354675,
                -0.35491596066563663,
                0.7124152281961226,
                -0.16178888818269524,
                0.14219756737473488,
                0.19341031508002654,
                0.2470471476149817,
                -1.001150935358525,
                0.9274823657101458,
                0.47914959737554225,
                -0.6071001538087868,
                0.6994648590362861,
                -0.2806088147547682,
                0.9275648469121189,
                -0.8662819658928744,
                0.6925218269373054,
                0.02343514780008438,
                0.10574743913035911,
                -0.9422165406624868,
                -0.9469751554945449,
                -0.2962472379918785,
                0.43817365614554754,
                -0.22399349206583982,
                0.23334154438437574,
                -0.11774350146847579,
                0.9327814873692216,
                0.757821467253188,
                -0.602554290449156,
                -0.4650160286914065,
                0.4142284712283113,
                0.5784883813908773,
                -0.19950815470638378,
                -0.6710123102019937,
                -0.5402119141093119,
                0.3747419970890963,
                0.6439002718402612,
                -0.6227361691946061,
                -0.0329708140281582,
                0.5938965280843146,
                0.24463688428998098,
                0.989472952842731,
                -0.7599281759799155,
                0.5701419125583318,
                0.5897719251696365,
                0.04857941558078783,
                -0.04451602603115607,
                -0.5636403335684511,
                -0.7676256021313277,
                -0.8543537225323371,
                0.7127581056127086,
                0.502069715248799,
                -0.12389233036936724,
                0.07301948160861076,
                0.6627923557347581,
                0.2439808247488455,
                0.686262064742908,
                -0.5375907688749635,
                0.9871156965128668,
                -0.1650218092179984,
                0.3636195029665941,
                -0.32871679431443235,
                -0.2082079819122815,
                -0.7905758751085197,
                0.31880518023321774,
                0.7531814458536007,
                -0.8332130909646325,
                0.6863936540462037,
                -0.7326434854379045,
                0.6630976502280261,
                0.9615316748166015,
                0.4422373476259636,
                0.4625634442845881,
                -0.9480223930090355,
                0.4672841629842871,
                -0.4071035571503238,
                0.9086260448794504,
                -0.052723814331547984,
                0.6776192325249859,
                -0.8230751785568039,
                0.6945289103859963,
                0.8231828816261687,
                -0.7742472135437709,
                -0.24660689288504087,
                0.18836829860343612,
                -0.297773822413875,
                -0.6276758550694922,
                -0.30245973558388406,
                -0.2754010539072435,
                -0.5250515302081428,
                -0.9673553003523752,
                -0.6788463036835418,
                0.39033134844639333,
                -0.5367639841295528,
                -0.2095220730335208,
                -0.8029363665024185,
                0.7692780213567805,
                -0.2334440990808099,
                -0.3800044107541124,
                -0.9838122237137177,
                -0.8199277536142614,
                -0.5020058803257076,
                0.7699711992411036,
                0.20637434691543102,
                0.7983297277409414,
                0.6997747511383671,
                -0.8248526969372678,
                -0.6228899377082521,
                0.38926775214947534,
                0.958803882403083,
                0.8367709773917597,
                -0.0657706825458921,
                0.154182980366582,
                0.37535188025544897,
                -0.799722514004922,
                -0.2604771753514252,
                -0.4281726263877638,
                -0.5471985396307629,
                -0.5446863879710822,
                -0.7204714577957856,
                0.4532784974478734,
                -0.3927208307999152,
                0.6079674178111847,
                -0.8292451610971776,
                -0.19117666440020673,
                0.1355879006409428,
                0.7762355896830743,
                0.14826685302583295,
                -0.9828560408877314,
                -0.5497715886915598,
                0.05647156508828301,
                0.7253631539491778,
                0.5346586921470239,
                0.46704305152787795,
                -0.09771947857300443,
                -0.48193312101605296,
                -0.1246239929540247,
                0.4719691698676606,
                0.33110751079305695,
                0.39363004333675394,
                -0.2096420246636835,
                0.8365110686292363,
                0.7797278107926995,
                0.2994256844617013,
                -0.4257884682506175,
                0.5627850497481447,
                -0.29489158499225177,
                -0.10418274569712717,
                0.34402968512714466,
                -0.8824792313859037,
                -0.9697467657143325,
                -0.7185898195216834,
                -0.7936229894681256,
                -0.27710162035109004,
                0.4733475454035519,
                0.9903419571849238,
                -0.49097243993916306,
                -0.6463481208464228,
                0.24515199101784685,
                -0.9204055163810096,
                0.026501895316894106,
                -0.1115138321289548,
                0.09072976407572757,
                -0.44299131583425916,
                -0.9233584116737329,
                -0.35300852829664003,
                -0.5258304046180332,
                -0.49766650297326126,
                0.633231958873342,
                0.50134272251134,
                -0.9263448648475863,
                0.15832475546741587,
                -0.3874319836183719,
                -0.48128710199432145,
                0.145485635600515,
                -0.7328522581771113,
                0.22920410763490534,
                0.9505133450049208,
                0.37270973081967057,
                -0.9179562414857293,
                -0.2886069447326555,
                0.4261237379161675,
                0.5439872038899761,
                -0.7250061999983152,
                -0.7494171311943835,
                0.5478004869595068,
                0.3131338800200718,
                -0.747718460698665,
                0.8273227324181761,
                0.19645132448138,
                0.8323197825484515,
                0.3080219999399793,
                0.9535429356299739,
                0.08609940275506354,
                0.05536869034365862,
                -0.8917426446889553,
                -0.13480658069765064,
                -0.504542796366884,
                -0.36003571899137843,
                -0.7793019468960751,
                0.7073967444830307,
                0.18206323629237126,
                -0.34199592687688163,
                0.11469209919010168,
                -0.1895240866217528,
                -0.674383599365267,
                0.2667528961301176,
                -0.7432213662321948,
                -0.7142387746248041,
                0.27379992733771924,
                -0.7922681008394463,
                -0.2736115531230246,
                0.24045663077591348,
                0.7035554416082959,
                0.26850269727657283,
                0.6755396870736118,
                -0.5672480532093809,
                -0.2752515616337327,
                0.3295511593908002,
                0.8294002254474736,
                -0.5982567194526686,
                -0.8286214815621161,
                -0.38262652682535225,
                -0.5571778449893129,
                -0.39812919122711027,
                0.0008461168366072486,
                0.42065285504279154,
                0.4580230776618551,
                -0.1467452875274751,
                -0.81434543827364,
                0.41482222850624817,
                0.9319235503951103,
                0.8007550583118567,
                0.9138809620036035,
                0.2767424691635657,
                0.8342597458005439,
                -0.6033117992118676,
                -0.5561514452355905,
                -0.3716475426189674,
                0.7517438092356221,
                0.3776430094364376,
                0.10301896644393171,
                -0.6600845344131987,
                0.44242621184342146,
                -0.8364535466106793,
                -0.5577838577861011,
                0.5952575846140447,
                0.587534901365501,
                -0.23083021437288206,
                0.6461975443215717,
                0.19118801947385355,
                0.34871039858385205,
                -0.690914859976334,
                -0.6240179195204416,
                -0.6760453237945585,
                -0.868659626070928,
                0.36385032833005887,
                -0.3837478420315342,
                -0.8225574629537254,
                -0.8179706919540474,
                -0.6106739062759299,
                0.21309059606844427,
                0.5227336316833036,
                0.7546323782223051,
                0.08153080041805852,
                -0.25553753303904153,
                0.9450748868064062,
                0.19413568376479368,
                -0.08703949079644929,
                -0.03741940647305291,
                0.23839207423508813,
                0.2632594422846684,
                -0.7265647779617205,
                0.47070353890367767,
                0.6592750061010113,
                0.6741105651818512,
                0.6831311381139747,
                -0.8144419166654757,
                0.06923014452735705,
                -0.7306501015768323,
                0.6828578699294927,
                0.2597758326263706,
                0.20564006809260793,
                -0.6368614683775297,
                -0.7054375680075424,
                0.8952662841690715,
                0.532016068452101,
                0.012476673043184602,
                0.36316628853913063,
                -0.09602274764207336,
                0.7448898825209753,
                0.8643657436838363,
                0.6154197678066337,
                -0.44029974590072035,
                -0.15111840552661954,
                0.7352480982308798,
                -0.6972501934216426,
                0.6356309248968051,
                0.1360160706703675,
                -0.8609022816088648,
                0.3640327689653977,
                -0.05028108822949517,
                0.8567340822827764,
                0.9569070945091137,
                0.259658228922057,
                0.08051385283973274,
                -0.7769664782703968,
                -0.8229612464311239,
                -0.24487618838752218,
                -0.8855701039120557,
                0.33311164984716596,
                -0.03657020147817001,
                0.3688094272343673,
                -0.33347528638181384,
                -0.044046091597547445,
                -0.17505810306929823,
                -0.7733517180024422,
                0.0716981540581801,
                0.7795226847640396,
                -0.9625949934494192,
                0.16277811371369713,
                -0.9931957222536506,
                0.01577627615563241,
                -0.4457862549015324,
                0.42060859205540163,
                -0.8877637186871922,
                0.5519726111951441,
                0.6775740245690672,
                -0.8276517102978992,
                -0.6123452777192812,
                0.4236779483378869,
                0.5513166573732701
            ],
            [
                0.44927759037446363,
                -0.5996867926523539,
                0.877491117080681,
                -0.7979517540628744,
                0.8432409546329311,
                0.42092120053105425,
                0.5131460706346369,
                0.8155210811296869,
                -0.7587910399641906,
                0.7517836075722741,
                0.6512045826207236,
                0.08016192773201668,
                0.7279485277044417,
                0.910345211402011,
                -0.36513261717641426,
                0.40962361614534076,
                0.11993315898835742,
                -0.2334298267611558,
                -0.8654702486432022,
                -0.16592322064222115,
                0.6195308751574382,
                -0.8990503630205278,
                0.008889538247459475,
                -0.05600733827396454,
                -0.8269520593961681,
                -0.882994672930892,
                -0.4874774901965176,
                0.7046540289454044,
                0.26119676403430575,
                0.9775014102995201,
                -0.5631352317183175,
                -0.5595367725012806,
                0.14534307215945935,
                0.7762791067098348,
                -0.28572103904562524,
                -0.9839762186064733,
                0.3052411022305695,
                0.38536163190086264,
                -0.09599201304421169,
                -0.36339860057707635,
                0.45415283775561693,
                0.4921775502843998,
                0.20512043137997432,
                0.7004643929844369,
                0.8640116503814815,
                -0.27121512837672407,
                0.007591060311457479,
                0.609534836969716,
                -0.29638985984056354,
                -0.125298661223903,
                0.9133744695627383,
                0.271529873273769,
                0.4287351050958449,
                0.17901647850085176,
                -0.051178335007311566,
                0.44093236995640334,
                -0.6770305197326867,
                -0.6156026969066185,
                -0.5387405728546389,
                0.32064179329358033,
                -0.3857092335973831,
                0.43327450816719326,
                0.6666319987663977,
                0.4714134180626066,
                0.6763489793833555,
                0.7954491238471504,
                -0.1363461145476713,
                0.7026566526405905,
                0.7157555543373143,
                0.9038248347080602,
                -0.9879657466281223,
                -0.9079155098678862,
                -0.6982084094128354,
                -0.6341840683129285,
                -0.11472651505189496,
                -0.3325508298705094,
                0.43715950480714927,
                0.6479475684434897,
                0.20246753130615197,
                0.9115508159351954,
                -0.02946668022532528,
                -0.4368157641437658,
                0.35960628382080434,
                -0.6113115077642282,
                -0.3674601247344185,
                -0.7540503425592923,
                0.5267235532777167,
                -0.4494034747522921,
                0.989059437729655,
                0.19824117947930814,
                0.15138842028177193,
                -0.44239504422018816,
                -0.8449188631982044,
                0.47420693881678777,
                0.5663097202806967,
                0.6935856567153736,
                0.6386250853321453,
                0.20242098164753536,
                0.31239077190480147,
                0.4273175201260971,
                -0.6808155325228769,
                -0.4722276513604592,
                -0.7635680322083706,
                0.9101083273262452,
                -0.08518726356995511,
                -0.34912771071827237,
                -0.6394242267544992,
                0.9050503016802879,
                -0.6171168071631951,
                0.5001828513437592,
                0.3207921554532393,
                -0.018253140865420563,
                0.3793610489510561,
                0.9282080061976874,
                -0.7615123305540321,
                0.5885225734807302,
                0.6297268231027183,
                0.9564096059657465,
                0.020411523127529037,
                0.3095691466789752,
                -0.3862370090840475,
                0.4284788293336052,
                0.19526419955886792,
                0.0003426661868929772,
                0.9769083980439656,
                -0.28501898706458384,
                0.2512342813292116,
                -0.06448841452023628,
                -0.47816624720152223,
                0.08947082823177754,
                -0.696739255087075,
                0.5722963798589654,
                0.020154540043715516,
                0.3477895933639596,
                -0.12956508202736194,
                0.7028525357760985,
                -0.08933651432239835,
                -0.01249810313913715,
                0.9149109014371803,
                0.8604967606356484,
                -0.6042153475591394,
                -0.19141766403670823,
                -0.8705864797315268,
                0.5678023861838951,
                -0.8298339403828653,
                -0.056809893386387096,
                -0.4227308418590829,
                -0.352571556969724,
                -0.6353543159728803,
                -0.6019781436324088,
                0.7329665167825591,
                -0.08783555688529815,
                0.6127362989941945,
                0.08903728765595846,
                0.5626088595280077,
                0.35077135277530697,
                0.5256886539415572,
                -0.5801147263778158,
                0.08336643875553595,
                0.06697504252749824,
                0.12312811858875147,
                -0.13247943104482263,
                0.33129991408677073,
                0.1630924789475046,
                -0.08693946451865503,
                0.9804152690996734,
                0.6468132924947578,
                -0.10790333831207867,
                -0.6294372396912287,
                -0.09945383314254562,
                -0.2706501028963954,
                -0.4799583297825797,
                0.30978309453165687,
                -0.023225760134016067,
                0.9545604137435559,
                -0.39712056754221114,
                0.2566468704715858,
                -0.6545434602573313,
                -0.21124353505544688,
                0.6957873617939826,
                0.5100572001300309,
                0.7388082532512569,
                0.7153461889808189,
                0.37657601600423884,
                0.429471138994554,
                0.68146160388042,
                -0.8808807529853797,
                0.5923488864922348,
                -0.21256836273069063,
                0.6471813814294712,
                0.5600348237966497,
                0.3756588563142338,
                -0.9475066014097113,
                -0.585872649273029,
                -0.44783483432539667,
                -0.8246562302734133,
                -0.9475565045205612,
                0.2688601637980545,
                -0.9223632267390792,
                0.949301317024461,
                0.9074382360545141,
                0.8887393478350045,
                0.44079664197744867,
                -0.6146031191573222,
                0.5272745431203211,
                0.4567179947239626,
                -0.4367672948075393,
                -0.18211221743535833,
                0.9715201336750522,
                0.5043808902315171,
                -0.5824204609741156,
                0.6836059125407543,
                -0.9179886330708759,
                -0.06411172632171214,
                -0.2942365888690824,
                0.17934975207553558,
                0.20779125949033103,
                -0.27603808732376944,
                -0.8851275232355587,
                -0.42425706822248604,
                -0.37120249595704724,
                -0.5721912207266678,
                -0.4403443926585508,
                0.07596852547633447,
                0.822439196216763,
                0.014645137413047677,
                -0.8992816364273073,
                0.32502074432063927,
                -0.1623353885506906,
                -0.12960944929728227,
                0.06539897450154529,
                -0.32408900480511543,
                -0.9470828442992093,
                -0.6747856747037582,
                0.026997885221581044,
                -0.5874829786734921,
                0.533562397635988,
                0.08878361063282715,
                0.5214719526295837,
                -0.5057987820991331,
                0.9513144379779537,
                0.7470274494635771,
                0.1997770071803392,
                0.12245843849352098,
                0.4158377882358444,
                0.9227330691722895,
                -0.9287807218790417,
                -0.06369532661525247,
                -0.48960446453415296,
                0.8832863753522145,
                -0.0686198623361476,
                -0.267307188982386,
                0.9552902861738906,
                0.6960997291439165,
                -0.9498033692299646,
                0.009197732691534071,
                0.8026671427723696,
                0.3063790503904872,
                -0.3446078930105481,
                0.9006922606359447,
                -0.7807652851470341,
                -0.027620331014296725,
                -0.19409748985902253,
                0.8072999712159407,
                0.7779672951011426,
                -0.5395954022477961,
                -0.5660927477873448,
                0.9090918604049434,
                0.2812542910079791,
                0.9408676862740271,
                -0.44022282943130253,
                -0.44021315500361524,
                -0.08830877362874524,
                -0.8172036574320343,
                -0.6409358297666802,
                0.7669702231957385,
                -0.43954810982865056,
                -0.38078728268062495,
                0.18606370779844408,
                -0.8428129621227631,
                -0.672762798857945,
                0.5758704557628307,
                -0.8288044942888964,
                0.8010942009833855,
                0.14870023753417402,
                -0.39776459740715997,
                0.5514271887120833,
                0.4328684958339838,
                -0.23676207886787998,
                0.7164727857447751,
                0.06577980574767117,
                -0.16199228447186234,
                -0.06717136017227389,
                0.47098121239266205,
                0.6245731384095827,
                -0.7724604015663407,
                0.6726683186741987,
                0.7711830188744647,
                0.9610067221285885,
                0.8492615597054787,
                0.9482343450961506,
                -0.41061703793111715,
                0.2715400154773587,
                -0.8968416763982299,
                0.031829552942440206,
                -0.5369452063854672,
                0.49873593778799963,
                0.24713260266992038,
                -0.11346610805430092,
                0.23572476261354772,
                0.2525716832936786,
                -0.797971776923531,
                -0.17778174424293336,
                -0.3969752375535496,
                0.8184879373638481,
                -0.6276545890891986,
                -0.5062629405766982,
                -0.8627378904082578,
                -0.49730978585522506,
                -0.03175127751072233,
                -0.3464841812545261,
                -0.8138064217364034,
                0.6415650981154902,
                0.36561199262944843,
                -0.9608504256191521,
                -0.687681656865883,
                -0.5498104579400913,
                0.1778419292625396,
                0.3389020854384759,
                0.6357615441159539,
                -0.7129473319017388,
                0.22223649221240735,
                0.9641288413789032,
                0.4124848514282483,
                -0.08847507903765166,
                -0.9459440612038741,
                0.42838662234882857,
                0.9796349266022355,
                -0.40257787315380944,
                -0.2941798229464891,
                0.7944816074113598,
                0.1823644184424158,
                0.46545540405028485,
                0.19789567454598198,
                -0.6168798976808276,
                -0.09532219012412058,
                -0.3741554687519558,
                -0.014010363359972453,
                0.8975648342498195,
                -0.09729939981439832,
                0.14020403169554885,
                0.09031775781116233,
                0.29619010655195743,
                0.6055035092448607,
                -0.019756696370101398,
                -0.429238151495711,
                0.4872625988761813,
                -0.8185344900062462,
                0.4572678305481187,
                -0.26802097464465224,
                0.48378013777215223,
                -0.06432459239611091,
                0.7739110879049158,
                0.3223912959926329,
                0.3844935365402595,
                0.6584439487175605,
                -0.9779551708443485,
                0.1926429531646992,
                -0.8408237063804864,
                -0.17880163322675693,
                0.1146668872213132,
                0.7462267999096035,
                -0.8767793475999829,
                -0.38395219306831124,
                0.33812172848517386,
                -0.9865840451496748,
                -0.26380549552798743,
                0.27514787599054386,
                -0.9210284989463515,
                -0.5326709186298213,
                -0.2974061337377645,
                0.04711392072046927,
                -0.6644075456164413,
                -0.8527880942820154,
                -0.09785250450637183,
                -0.5091850483297597,
                -0.4962623515928382,
                -0.7856011232465251,
                0.12051911356436067,
                0.43845445130133454,
                -0.6271197787732019,
                0.17673756799996482,
                -0.17978687749947436,
                0.21779655108627952,
                0.5288789591034185,
                0.1926839169090304,
                -0.3966978953310352,
                -0.2139450317772056,
                0.8502360741994849,
                0.23560909836830596,
                -0.4337116832180726,
                -0.7969616443631191,
                0.9701087326430197,
                -0.2272974807007345,
                0.7282015891399358,
                -0.9166084353576656,
                0.6119822657077937,
                0.7698201452015192,
                0.05266824115202226,
                0.5593955769866978,
                0.36179339245739006,
                -0.005397466918005179,
                0.9652029246351423,
                0.3545403830393954,
                -0.030159775888583585,
                0.9328903497989524,
                -0.4601639937372529,
                0.912276509718688,
                0.8890449876758827,
                -0.8259129685034954,
                -0.3977842406186803,
                0.7544614132412601,
                0.5467060071921064,
                -0.7543621926696524,
                -0.9858767224691485,
                0.18162361717663864,
                0.41889556051889015,
                0.6201017842496968,
                0.31078091451000095,
                -0.32554518472935445,
                -0.2971848919195537,
                0.22325590053033695,
                -0.348365120780677,
                -0.9730701397736339,
                -0.9412468768374459,
                -0.8540110083501127,
                0.09958937244504233,
                -0.30606152054734004,
                0.9306848748566918,
                -0.1345045390935645,
                0.700030327482098,
                -0.7708859458390583,
                0.1767818920576595,
                -0.3134480141165153,
                0.39981099475549753,
                0.09719342513802329,
                -0.08508212946245815,
                -0.13049862430929354,
                0.7359987191808115,
                -0.8011202433326078,
                -0.8154631640085646,
                -0.7982999734294384,
                -0.4907348156680883,
                0.21428580972663594,
                -0.33501062902352446,
                -0.9763443367201989,
                -0.5634121060025616,
                0.00936554379594179,
                0.5012619010852566,
                0.46860344202165166,
                -0.23408743192677628,
                0.09174548958392753,
                -0.8909213306599921,
                0.6764601856637201,
                0.1662899798356455,
                -0.0920380969283118,
                0.8381102998883395,
                -0.7414608499600653,
                0.767870867163032,
                0.7493096910237582,
                -0.5769108502764093,
                0.1259525634766475,
                -0.19085804529989914,
                0.035702836828365024,
                -0.12920245529472604,
                -0.47480158678065904,
                -0.536290204974682,
                0.2942196639464331,
                -0.8003815941472987,
                -0.4273866924380399,
                -0.9523282123991679,
                -0.990617658844648,
                0.2423331793747669,
                0.2229328432090164,
                -0.31960906647821563,
                0.5661405563033295,
                0.72365670115694,
                0.3962001206499867,
                -0.5228671272529491,
                -0.18294388886448348,
                0.9074768122336058,
                0.12361507234441359,
                0.0882345930420084,
                -0.04728660012427606,
                -0.51049992633163,
                -0.9362892004450898,
                -0.7980358411909863,
                0.7602027571412855,
                -0.25744811756701247,
                0.3763494132872972,
                0.20959010203490527,
                -0.12053091989682463,
                1.003152254868387,
                -0.4376179601193196,
                0.4554250574557703,
                0.328253117775176,
                0.5976935003060815,
                -0.04139779108374832,
                -0.4585111229240972,
                0.45589806550739187,
                -0.14293506443720172,
                -0.44194717441279546,
                -0.7736232720172873,
                0.03222281682388504,
                -0.1035307598795051,
                0.7464641812144552,
                0.5284819353964697,
                -0.09469584821269134,
                -0.7340117103787114,
                -0.8417575915354465,
                0.4294419805953943,
                -0.9702647927525938,
                0.684780672802238,
                -0.22943229319509828,
                -0.8648273033413715,
                0.28816674275619875,
                -0.20847040821947693,
                0.509203956569192,
                0.10402941852591382,
                -0.33215442203709533,
                -0.7447132726976701,
                -0.1948373855526519,
                -0.3222162188398146,
                0.8007875344701595,
                -0.1736150269191948,
                0.4415005630298104,
                -0.8795769878526677,
                -0.4912958891728371,
                -0.11027044323599079,
                0.5729956339053226,
                -0.759938395858638,
                -0.7346409505840431,
                -0.6201719834970292,
                0.7988271184093529,
                0.788999881119535,
                -0.9720969459792869,
                -0.13937914380635097,
                0.25544034299742013,
                0.9739093695577845,
                0.78578513465603,
                -0.1938353519771111,
                0.4527172785080887,
                -0.8954339550337792,
                -0.05206525749970393,
                -0.905586263614992,
                0.9214954342155931,
                0.5211070033040557,
                -0.9127788466102823,
                -0.30101488841498686,
                -0.04185026919762937,
                -0.8900571514437958,
                0.5411689995036548,
                0.9676113708740088,
                0.27371249336915965,
                0.6063459954677589,
                0.9451586398012168,
                1.0020348789308107,
                -0.03274868253854535,
                -0.35155715927455156,
                0.5252943801799603,
                0.41206492442167375,
                0.2911037124389427,
                -0.5652315791486493,
                0.10202812369810102,
                -0.30078854633003427,
                -0.3415471630964174,
                0.8664457751847026,
                -0.6199634364506428,
                -0.6316609372213337,
                0.5957768652013905,
                0.7873167369731208,
                0.2863897244780155,
                -0.13904079742854547,
                -0.9073273696665493,
                0.8829324886225002,
                -0.5929676704028378,
                -0.5094238413919694,
                -0.2685563728895282,
                -0.4972059425352069,
                -0.043363732920595026,
                0.2792086993626328,
                0.3533973000371616,
                -0.34225151559594574,
                -0.8434832423837832,
                0.04989301694515767,
                0.4995176011650733,
                0.6620925578034812,
                0.6240534820772009,
                0.9535561522458303,
                -0.6898423841391699,
                -0.4171749694569191,
                -0.9098472562722704,
                -0.30242246296362063,
                -0.6432730588321107,
                0.5683852985034775,
                0.43035077950888817,
                -0.5418632086993798,
                -0.15840569030304447,
                -0.3766978406556224,
                -0.05438936134658537,
                -0.0777514584574547,
                -0.7178146697825742,
                -0.9102613703307812,
                0.035238344361196196,
                -0.01411616913883819,
                0.9648428404120337,
                0.7030322353576628,
                -0.8099271768982098,
                -0.9814591929404904,
                -0.24258313663628012,
                -0.24112712039841352,
                -0.17991373432310145,
                0.7222849725409165,
                0.2001180027642484,
                0.8838104633871082,
                -0.6765452183592219,
                0.6821653233774893,
                0.5861996088168668,
                0.6333979884962041,
                0.25921846028860807,
                0.7398552467457014,
                -0.09269915324200151,
                0.9282074456387444,
                -0.53166649632049,
                0.3059018094432906,
                -0.43947455091318116,
                0.8325914715698397,
                0.6283155417985612,
                0.5445489126713483,
                0.7082736636744981,
                0.16583391894155802,
                0.6886803781538636,
                -0.8901008164534253,
                0.16805160565749594,
                0.9368911910162425,
                -0.19707759002972067,
                -0.9098014963681011,
                1.0058272093653282,
                0.6445696611919548,
                0.7920964269965676,
                -0.4168828735190376,
                -0.4115897864298483,
                -0.09546636870014313,
                -0.33581502631697896,
                -0.9144139359128256,
                -0.8826402235112526,
                0.766391273127513,
                0.7463066416663376,
                0.20130903310226134,
                0.08345589139717777,
                -0.7934323593827092,
                0.32596184442996184,
                -0.5746789860617821,
                -0.4173129505048778,
                0.20113213835802696,
                0.9355422605419201,
                -0.38357157356938226,
                0.5878422660464864,
                -0.7751134494480539,
                -0.8526735026664355,
                0.7884683842933917,
                0.17051741489905253,
                -0.39182276472658023,
                0.8996232644147159,
                0.9617777254846579,
                0.945426636569844,
                0.2702041440374761,
                -0.34929380039644303,
                0.8116375874398767,
                0.6494737235077405,
                -0.27397419006431684,
                0.5631065038890751,
                0.9708518069635279,
                -0.6332118157267018,
                0.796881422807306,
                0.38336335131980054,
                0.7290757884580642,
                0.9730518774999016,
                0.9737744907094915,
                -0.415018636476737,
                -0.34953856039293957,
                -0.3564354073088054,
                -0.7182978148990565,
                -0.7062650162576052,
                0.6969773702905628,
                -0.6921774679399973,
                -0.26469330499662896,
                0.8774135354934427,
                0.22869674520385833,
                0.6196376304167168,
                -0.6962211703617698,
                -0.5000324784780547,
                -0.6967149909742415,
                0.6618582011675261,
                -0.865340270578497,
                -0.2926598132627553,
                -0.17523795493404817,
                0.2788652209720773,
                -0.7897151697685099,
                0.8684532735326361,
                -0.2591396245525998,
                -0.5585947760129263,
                0.5742705257289459,
                0.6074718902194292,
                0.6735877818062698,
                -0.6163103468119243,
                -0.710666869140903,
                0.23856577707550586,
                -0.9350859476632544,
                -0.8091496514685637,
                -0.20261768651881162,
                -0.9377916564460589,
                0.11724308643586011,
                -0.3272530843821304,
                -0.5039301707743714,
                -0.21633318374744476,
                -0.13741650091261795,
                -0.30649636636576766,
                -0.1591059821092599,
                -0.865863075236226,
                -0.3580235772131992,
                0.49394976940187857,
                0.8429083136164952,
                -0.4410856241203306,
                0.5617661313652342,
                0.8592082000794443,
                0.8030847024627097,
                -0.8569857021051428,
                0.463568228997133,
                0.5583369499851327,
                -0.1707064019109406,
                0.9743947563516044,
                -0.02123725980944139,
                0.6079450157725032,
                0.5313106635408807,
                -0.8526951488984668,
                0.04193237674498779,
                0.41765243429873855,
                0.04824993995279978,
                0.5060167957446827,
                0.34886849009964543,
                -0.6033553957614176,
                0.3656242192343873,
                -0.9496334744940572,
                -0.4804460114347168,
                0.42562837654873137,
                0.39741329388251273,
                0.2576822182696422,
                -0.9693789646954762,
                0.6308986371239733,
                0.65270287896556,
                -0.964351602349544,
                0.9261722083427442,
                0.0745272043533851,
                0.6770733069385473,
                0.22856527232035667,
                0.48170764154289997,
                0.34627734401758453,
                0.19223829972167833,
                0.27050719801505524,
                0.6466102080627796,
                -0.9300921045063248,
                0.474628588786049,
                -0.61782633351124,
                -0.23917330782195972,
                -0.41716615141635655,
                0.49801420412124203,
                0.8006320800649407,
                0.2880920981236332,
                0.05587128689623842,
                -0.6494560076735012,
                -0.38373953471126493,
                -0.4100776694528839,
                0.12891684537221715
            ],
            [
                -0.993333674794519,
                0.20854271816856743,
                -0.32159461569835546,
                -0.9082364860995518,
                0.005781226147527616,
                0.8953934692642065,
                -0.17094983857346654,
                -0.5640584717768831,
                -0.4042133623729939,
                0.4310729399768459,
                0.4952969032635279,
                -0.8524817675295073,
                -0.37642117276838116,
                -0.47353196475499637,
                -0.9128281817901398,
                -0.13969912215968408,
                0.015276186487381495,
                -0.5790739770291804,
                -0.7576683863246358,
                0.6491059102601495,
                -0.19263000045429743,
                0.38835178298238937,
                -0.8350740202901237,
                -0.3078197550301828,
                0.20831429393046844,
                -0.3315107380854415,
                0.4997749029736107,
                0.30016671730553324,
                0.8261662042036437,
                0.7350784861261948,
                0.4613571910776799,
                -0.6708653121755648,
                -0.3972479942245548,
                -0.40011012514767613,
                0.9440837838174506,
                0.1976853884414974,
                -0.4499312480004599,
                -0.7417053867426654,
                0.5432246420468073,
                0.7726876678978908,
                0.8886253516883454,
                0.7547130050055458,
                -0.26226475641457775,
                -0.22451808450790423,
                0.05761807277497434,
                -0.4016546661627148,
                0.1626834347182085,
                -0.585763852995312,
                -0.9114619458984627,
                -0.7241682126308326,
                -0.8998506856165275,
                0.23536111669206092,
                0.5315752126858346,
                -0.7013192136872383,
                -0.04862707789049788,
                0.5327055049426184,
                0.39481805283341587,
                -0.3525520661318102,
                0.35883735829186086,
                -0.05427094449905245,
                0.29474793022828877,
                -0.7642200829610112,
                -0.21304031795143136,
                -0.6303907986923559,
                0.7227555094515625,
                -0.40142866894142054,
                -0.9860683336401612,
                0.027539307225556173,
                0.6350298387740354,
                -0.38105119751212946,
                -0.8559082557338238,
                0.13202648520610633,
                -0.8646515287814629,
                -0.7357527583467962,
                0.13731300386633927,
                0.24995525614550854,
                0.15261300588340485,
                0.5678984256381948,
                -0.004332670997917165,
                0.15730262364682404,
                0.01686788264668925,
                -0.8432301649475233,
                0.21878756053276344,
                0.8340573785178664,
                -0.8238973929975653,
                0.11904773517442152,
                0.013488563722883483,
                0.5246639773179603,
                -0.16568561292414022,
                0.1056758470813095,
                -0.694978774227399,
                0.869776495454854,
                0.9196973908292081,
                0.35176342505205904,
                -0.5036773539766045,
                0.26365161179398294,
                -0.6055012015012227,
                -0.48163351278735594,
                -0.14324916651365166,
                0.5625525995611812,
                -0.5509184674919985,
                -0.8580471381784834,
                -0.42124416867275244,
                -0.9649549376399684,
                -0.7766287096038039,
                0.03780616113890585,
                0.6715833650893382,
                0.1257119212351271,
                -0.7813757704569676,
                -0.3525743301319867,
                0.6096215191430376,
                -0.27317689484574925,
                0.707215445080233,
                -0.4451487214664576,
                0.69680796550697,
                -0.9944452065246474,
                0.9620592321363627,
                -0.39609371468753024,
                -0.40330209832203706,
                -0.5427738831213301,
                -0.887786799273266,
                0.3142170971673777,
                0.8046365378534479,
                -0.09943711539949027,
                -0.5519282121290149,
                0.9763527527237811,
                -0.6810157507712857,
                -0.5016501258365674,
                -0.34055678990234217,
                -0.9966937125749104,
                0.7538420485790275,
                -1.0125150725777652,
                0.7790126189168112,
                -0.724493291265541,
                0.9182988595304978,
                0.9112430029339147,
                0.2187628979429886,
                0.7139049468167448,
                -0.26996982740662573,
                0.06494636734481306,
                0.9060908407849517,
                -0.05200997774996737,
                -0.7547603327141683,
                0.73987179029345,
                0.5256303465355121,
                0.17497747269667052,
                -0.544458239311275,
                0.4123107446076733,
                0.1298815122305701,
                -0.4940162031302769,
                0.867604180097586,
                -0.5356971657538825,
                -0.45010207315236017,
                0.3256721845534827,
                -0.5413166288676813,
                -0.9141927744773144,
                0.9212823350177946,
                0.9547405657052135,
                0.17407923335578646,
                -0.9510213715307336,
                0.8944222603069379,
