{
    "activation_function": null,
    "bias_h": [
        [
            -0.42212099801638053
        ],
        [
            0.9580918303515484
        ],
        [
            -0.6331475992012501
        ],
        [
            0.06900949875510207
        ],
        [
            0.2600593748628797
        ],
        [
            0.3111722878509422
        ],
        [
            -0.9103722060935241
        ],
        [
            -1.0231937757970004
        ],
        [
            0.9807644367518904
        ],
        [
            0.6663706030764649
        ],
        [
            -0.6035836635912739
        ],
        [
            0.4292688117615487
        ],
        [
            0.3063989766667687
        ],
        [
            0.6309543219542195
        ],
        [
            -0.9027295065664674
        ],
        [
            -0.3748387473822896
        ],
        [
            -0.15526098822666912
        ],
        [
            0.2268498446371622
        ],
        [
            -0.5960104049257208
        ],
        [
            0.9791307705527074
        ],
        [
            0.34299720852858084
        ],
        [
            0.8755445082934381
        ],
        [
            0.6100229996132871
        ],
        [
            -0.9862768173832108
        ],
        [
            0.5432033072849097
        ],
        [
            0.005986619778738048
        ],
        [
            0.11082489673481052
        ],
        [
            -0.09473828336420764
        ],
        [
            0.3549260424960989
        ],
        [
            0.8484839709972647
        ],
        [
            -0.008153660387592198
        ],
        [
            -0.35626152459543275
        ],
        [
            -0.6394233593594504
        ],
        [
            0.23813859665047435
        ],
        [
            -0.7111744140031577
        ],
        [
            -0.09236446633466865
        ],
        [
            -0.8320458891562127
        ],
        [
            -0.9269628520963168
        ],
        [
            0.18135619482855167
        ],
        [
            0.6544583437358801
        ],
        [
            0.20635055706528493
        ],
        [
            -0.6202596333239623
        ],
        [
            -0.8099474812720783
        ],
        [
            0.3343069927237553
        ],
        [
            1.0146916243791995
        ],
        [
            0.4773439115032803
        ],
        [
            -0.23580815088472526
        ],
        [
            0.7566175238940354
        ],
        [
            -0.20651623373754663
        ],
        [
            -0.09760334228397285
        ],
        [
            -0.07585526245715778
        ],
        [
            -0.6396562369393801
        ],
        [
            -0.5287269426157618
        ],
        [
            -0.35448075495352005
        ],
        [
            0.5316752775024096
        ],
        [
            -0.4896390727745085
        ],
        [
            0.27298988786415396
        ],
        [
            0.3858198353043868
        ],
        [
            0.3542703553801499
        ],
        [
            0.5535286554527484
        ],
        [
            0.6189988818293907
        ],
        [
            -0.21252420758081608
        ],
        [
            0.6331491777455761
        ],
        [
            -0.023013699481263743
        ]
    ],
    "bias_o": [
        [
            -0.8247992412354926
        ],
        [
            0.20346019340133015
        ],
        [
            1.0680449867001007
        ]
    ],
    "hidden_nodes": 64,
    "input_nodes": 784,
    "learning_rate": 0.001,
    "output_nodes": 3,
    "weights_ho": [
        [
            -0.1417912833347736,
            -0.7446437190104591,
            -0.6156714680404022,
            0.36604010699695727,
            -0.8117769903121526,
            -0.5998472459016891,
            -1.1470797934468713,
            1.1845493463252175,
            -0.18709631355357453,
            -0.9272444931366592,
            0.5235683674822045,
            0.762822351577562,
            0.7982922956509956,
            -0.7134541981136755,
            1.0646348965224561,
            -0.42881759069134445,
            -0.009763972904920143,
            0.9863606483568188,
            0.026840018706369005,
            0.4818932296198653,
            0.30977072402258427,
            -0.9178817377102976,
            -1.0121979528837188,
            -0.6076785235012011,
            0.4670742552250847,
            -0.999616523781792,
            0.26894801591503686,
            0.2768975033647396,
            0.7286070632195318,
            0.5396616860762814,
            0.15964300239804988,
            -0.7922840880923507,
            0.4999378631305721,
            0.14806224821589423,
            0.6048568045720796,
            -0.020363887445516506,
            -0.7607462566589465,
            0.8152844285217105,
            0.3362199283056411,
            0.7209609488264996,
            0.679176748984946,
            -0.48460441778181107,
            0.7626946745575253,
            -0.9373761753045448,
            0.6603923440685215,
            0.8500143832772064,
            0.16930529654468549,
            0.04454195879673698,
            -0.7960094228342902,
            -0.41979367219100056,
            0.9515431256485869,
            0.1018283332588758,
            -0.008052938154363297,
            0.3484958504313446,
            -0.851343998595401,
            -0.8148684360359173,
            0.7894075102986399,
            -0.016242972874011295,
            0.27285938380352714,
            -0.16628402692088803,
            0.10759962894470824,
            -0.646190969262255,
            0.8902122792068267,
            -0.25152887237941274
        ],
        [
            1.0062590435298573,
            0.4790836700940424,
            0.6091781323062883,
            -0.04582662384641716,
            -0.6170715311668834,
            -0.4517602864091465,
            1.107227809823797,
            -0.2868715636403592,
            -0.9218816772337545,
            0.6250348311723616,
            1.006764597474228,
            -0.01340721336760504,
            0.3079224965574438,
            -0.8263417555971737,
            1.2226552223879001,
            0.07484609412657074,
            -0.7618962754561666,
            -0.726565040671016,
            -0.5730180948277463,
            0.3660706326682191,
            -0.6566301820463465,
            -0.6721296008409381,
            -0.3497498154097505,
            0.5608825344302382,
            -0.5696648964511907,
            -0.40566835165175014,
            -0.8808606942855068,
            0.6391062865838674,
            0.9576074415188981,
            -0.6583089798564308,
            -0.6842080278550643,
            0.3128119605591855,
            -0.21491465914806662,
            0.11270247432555265,
            -0.8465782075695639,
            0.2506663385006868,
            1.250136300444483,
            -0.9499711699055525,
            -0.2301380528027687,
            0.47704002410187324,
            -0.0001417118649057465,
            0.5556178819681892,
            0.8640973851905562,
            -0.3935216457678785,
            -0.6576753936033637,
            0.8645364718024792,
            0.9143475188820135,
            -0.07853293367656698,
            -0.013947771871665753,
            -0.18020441095019712,
            -0.1449882009467976,
            -0.7732162344098041,
            0.09346245507585355,
            -0.4904904961217018,
            -0.3337724255732777,
            -0.8819490485649866,
            -0.13243092156159567,
            0.43631764594659045,
            -0.7421478858599075,
            0.509476214213103,
            -0.08198400865710624,
            0.9724567914767105,
            0.018048342082879813,
            0.4600088910758719
        ],
        [
            0.5567532664771987,
            -0.7858903659335168,
            0.11675255994175349,
            -0.7201947289754771,
            0.43025004893981966,
            0.9763284728769391,
            0.12106810958361482,
            -1.055586563872772,
            0.5800444744581176,
            -0.35504832590342933,
            0.13779124017711036,
            -0.5312316253249781,
            -0.1846439252692192,
            -0.5688474901563627,
            -1.654550207456572,
            0.4820477164181127,
            0.7163155507979521,
            -0.8301666597433413,
            0.5936707968395241,
            -0.4309366863798137,
            0.10654770968650266,
            0.6128338812057444,
            -0.46561210001190945,
            -0.015720851044138458,
            0.19553746877638142,
            -0.5423691698387397,
            0.7816838010766672,
            -0.9833399228115202,
            -1.0303324585564162,
            0.022468141597376333,
            -0.26136578598437976,
            0.2780862086141505,
            -0.15440168729925752,
            0.3057156571494502,
            0.29578189181257175,
            0.2541352990565976,
            -0.734901239269638,
            -0.683969248693264,
            0.6373417026738569,
            -0.6625849258999795,
            0.828337187689934,
            -0.8159402713870543,
            -0.43974532060283184,
            -0.4985034595420731,
            1.1145631670883664,
            0.46328089997244426,
            0.08799773603292467,
            -0.35015389497728394,
            -0.5298110382428743,
            -0.36670063441531775,
            0.2731407895264568,
            -0.7144717607826014,
            0.8480905432993009,
            0.9527234144727933,
            -0.2964817445149683,
            -0.37127461801989853,
            0.23809532284566057,
            0.10499625741129627,
            0.361362027525713,
            0.4889861476189061,
            -0.5363798765390971,
            0.13285600920655968,
            0.6934828839195694,
            -0.26733924730914715
        ]
    ],
    "weights_ih": [
        [
            0.7494747152153564,
            0.6926578597726377,
            0.8470483785397364,
            0.5488087328285888,
            0.051154139715347983,
            0.07848069845376068,
            0.3306528754147133,
            0.8971039056605011,
            -0.7248955886432996,
            -0.2813556296589051,
            0.8724185054264612,
            0.8428602538777917,
            0.8399881641881443,
            0.5404717375865314,
            -0.11771223783042907,
            -0.6797273172087307,
            -0.8498360640488142,
            0.0965330498771084,
            -0.6080744004573696,
            0.5193922935343035,
            0.17509358706856457,
            0.6317807618765504,
            0.6452166739668564,
            0.03170823526880077,
            0.3453195463401226,
            -0.8150298112835587,
            -0.8374287399654531,
            -0.5482308605140013,
            1.0010040549037242,
            -0.4693970176849633,
            0.7371986155222948,
            0.7190805507141641,
            0.9210400456359024,
            0.21261452003247344,
            -0.040296165344315744,
            0.825353786152522,
            -0.15086778516297536,
            -0.7960162112189354,
            -0.043864916359223974,
            -0.20656231529897545,
            0.7531983695624277,
            0.1039326155417555,
            -0.5746434428809419,
            0.8318692692949093,
            -0.5258320620768163,
            0.8313729384270621,
            -0.7829114017467917,
            0.9776003115671782,
            -0.6952557564455641,
            -0.9651957065771077,
            -0.08316165961753956,
            0.26430712318598576,
            -0.6124220549638189,
            0.696536522458903,
            -0.755678122837071,
            -0.30120386895437484,
            -0.22800949167685805,
            0.3737386675391957,
            0.3088362600026277,
            -0.9291659018122489,
            0.8463656203936599,
            0.97966188143713,
            -0.4404375100709562,
            -0.9781695808209928,
            0.505478164431017,
            0.8883152963249478,
            -0.023380388488903097,
            -0.3702042493386716,
            0.54875907452368,
            0.33616465054365885,
            0.33291045165388816,
            -0.7167055569049616,
            0.6392996503438216,
            -0.02639529307758543,
            0.600800203949176,
            0.5952402206179693,
            -0.4706578688206825,
            -0.6612766470706046,
            -0.4664728510728562,
            -0.5949857018010098,
            -0.6819235913485096,
            -0.7158512126542597,
            0.76894903655299,
            -0.36851975285895416,
            -0.7957079657872385,
            -0.4536487165871429,
            0.7328251575708593,
            0.8159408949594065,
            -0.9225210229373617,
            0.9313755433224474,
            0.334825167352942,
            0.9849611135791222,
            -0.11751649248979985,
            0.10852651063855401,
            -0.9321858916031065,
            -0.6322047733274156,
            -0.5435765269638283,
            -0.2123688761347773,
            -0.17772393578078582,
            0.03242061121674432,
            0.9773149778857394,
            -0.0658446535310758,
            -0.7184611150684893,
            -0.8526422047641112,
            0.4374836710056085,
            -0.7956948623676027,
            0.7376297196614024,
            -0.5184384511605914,
            -0.8304772843239464,
            -0.006688273568758353,
            0.9919116319510224,
            -0.241399561129587,
            0.8758182424049002,
            -0.22881911844205943,
            0.24761179302326827,
            0.19476655683503782,
            0.7310955082592486,
            0.22255294573600168,
            -0.921990221747884,
            -0.8657703715245965,
            0.5212661616745438,
            0.4734951765689464,
            -0.3144548542040274,
            -0.8926167512421846,
            -0.9173526664793934,
            -0.3473200627733917,
            -0.2890862796474904,
            0.9149020508073014,
            0.5093142003438341,
            0.0153509216021686,
            -0.8756221928895178,
            0.7788691573176004,
            0.036287465685345605,
            -0.591568621063251,
            -0.14126117161397772,
            0.9823659798736457,
            0.4367215270903589,
            0.5653875270575432,
            -0.2924153411622956,
            -0.22539281321497187,
            0.3728355232533362,
            0.7213113401798233,
            0.5279530078596624,
            -0.5326571661638874,
            0.43386233662971624,
            0.47570681766947576,
            0.8319008439997365,
            -0.518208023932245,
            -0.4108019215142516,
            -0.31992599243921266,
            0.2514658114256386,
            0.4095423798665442,
            -0.9284077936969874,
            -0.4149615140798759,
            0.5742176308351207,
            -0.5207416191957409,
            0.7920436538673602,
            0.5042603116168479,
            0.8883893316635757,
            0.6855133203856277,
            -0.5262951866568131,
            -0.2164964088647873,
            -0.09809924441445629,
            0.7597904748681809,
            0.9690769130261349,
            0.9792340623305019,
            -0.7658605745432043,
            0.36861859953688153,
            0.4285783289681901,
            0.6998024023717588,
            -0.00935146038027826,
            0.22475473381061872,
            -0.7031960225899135,
            0.18214695597482097,
            -0.8390725037204806,
            -0.3497284965801617,
            0.25853069778301563,
            0.39112392285808556,
            0.16317320051314244,
            0.4624739977963239,
            0.9388424371880919,
            0.7881309979222757,
            -0.5945505456670057,
            -0.45549374886067484,
            -0.5138333139685864,
            -0.8471584419534752,
            0.19165434011838542,
            0.009614385344345677,
            -0.21875247171137957,
            -0.44786181421806337,
            0.0337624666853682,
            -0.04839517925459992,
            0.24998249293555566,
            0.2991340157503354,
            -0.4185906890061558,
            0.12224550282808197,
            -0.9834407417946393,
            -0.4086035666388472,
            0.41855890841011684,
            0.4099778268594646,
            0.990131325002773,
            -0.4764401758627943,
            0.7614930001317358,
            0.23749098153415038,
            -0.7622763489012931,
            -0.03175512595918294,
            0.4169840186353068,
            0.8755190846825224,
            0.9622147873597289,
            -0.33867513888650524,
            0.6129833979418473,
            0.28677068003204315,
            -0.8983346337686715,
            -0.9654087312409955,
            0.2399278805787627,
            0.5157149074055286,
            0.2295056214322304,
            -0.9093656075418999,
            -0.8046907717925451,
            0.19219184765057457,
            0.43459554112882415,
            0.9014504481592587,
            0.838917029639418,
            1.004721969875773,
            -0.06627642946345261,
            0.9266588287370625,
            -0.4252711361633522,
            0.16514814423314997,
            0.9327950065616857,
            -0.4144575063640199,
            -0.8199224690297539,
            -0.2829837402526168,
            -0.27483760175453087,
            -0.5665582320518627,
            0.6468542536229838,
            -0.6425724344262452,
            0.25989076866433986,
            -0.9448138620507709,
            0.8216859473933779,
            0.5302212693336762,
            0.5815591439247985,
            -0.4820061439710601,
            -0.6327878309172693,
            -0.752011500668528,
            0.7837225628317935,
            0.5936106004026946,
            0.9875016516258657,
            0.17213252755483038,
            -0.5492199736759371,
            0.18732185403415139,
            0.7722549845121714,
            0.5813483711129067,
            -0.6850098429558068,
            -0.47990108530528625,
            -0.8790884082148752,
            -0.8281119723817499,
            0.9044218051524207,
            0.8107253918627662,
            -0.4746045527323672,
            -0.7985305501667039,
            -0.7504477905198885,
            0.8474747587939737,
            0.16509976464264856,
            -0.786680392062852,
            0.17232166873579946,
            0.7705376567494405,
            -0.32287372180565593,
            0.5134425810055708,
            0.4122022045752408,
            -0.5057791839828878,
            0.6023557437797488,
            -0.1294054010665822,
            0.3351949417566191,
            1.0035739647152413,
            0.6558682200776367,
            -0.6985859177735102,
            0.9469376678254486,
            0.0007601125633467567,
            0.600854233891313,
            0.9239387689028858,
            -0.4905481057532524,
            0.5958011796234975,
            -0.2673509093319373,
            -0.3453045857264111,
            0.7272245955788609,
            0.6903084827104911,
            -0.9516498473137595,
            0.8548151877537413,
            -0.9749778022722017,
            -0.0764740658208498,
            -0.39946225598738194,
            0.7581807409188526,
            -0.16929041322773963,
            0.7220269939996314,
            0.4975302032259038,
            0.7038051832171792,
            0.158401180565101,
            -0.5177696282091787,
            0.6155636841139355,
            -0.7901282712853859,
            -0.20430277715691458,
            -0.23480197440064127,
            -0.7742794447766382,
            0.1707584020761223,
            -0.7217023878447654,
            -0.9820240010562724,
            0.5296708169422965,
            -0.11126432404985478,
            0.9981731252174596,
            -0.6612055901228812,
            -0.5802853342808992,
            0.6046401124766908,
            0.4741641215903005,
            -0.3226982201360758,
            0.6329189703259441,
            -0.3884002648715518,
            0.21710937765664823,
            -0.4680079556997379,
            0.6145700461361624,
            -0.4577617307098045,
            0.4913903504516819,
            0.2542645168598905,
            0.1590032235404078,
            -0.6649620939747118,
            -0.4243653034541059,
            0.726802308647177,
            -0.9362890551835725,
            -0.1594648687009194,
            0.36216672751441914,
            -0.504576248286219,
            -0.2436872856643689,
            -0.4058857019148746,
            0.5497295062466633,
            0.6548996159977667,
            -0.9180039738951566,
            -0.6328717536103531,
            0.7218974978349338,
            -0.19906358073937258,
            0.7960801110795729,
            -0.7566343339000022,
            -0.16665324060015216,
            0.7691810948675101,
            -0.3079910311211414,
            -0.07505708252890012,
            0.5052146390479937,
            -0.5887746133605481,
            0.8579274930113288,
            -0.3078578572205621,
            0.2995937731913003,
            -0.33592799430635195,
            -0.3000578760636224,
            -0.4236009379738477,
            -0.6203639352780757,
            0.9027075872375709,
            -0.699105989189149,
            -0.8581072316117674,
            -0.1465736680373363,
            0.5520585239622474,
            0.7587894955954333,
            -0.33162959356267274,
            0.7530704786112759,
            0.8478600455819411,
            0.7538699057000247,
            -0.12944620635442486,
            0.985557186663684,
            -0.3010080514043635,
            0.14263146632669027,
            0.3716640872431926,
            0.8086235807166164,
            0.3319587494647804,
            0.04863607783541683,
            -0.1113070695514319,
            0.938316922555506,
            0.027658318546570474,
            -0.8075139284443507,
            0.5039798001934759,
            -0.8046104664663495,
            0.5019619695383432,
            -0.08699619744253798,
            -0.5802118672222839,
            -0.05924243126274005,
            -0.917753018011735,
            0.24313999593202074,
            0.02851861062674663,
            -0.4466360574649781,
            -0.7623805915649503,
            -0.9595749494651993,
            -0.6861427828900304,
            -0.4565607984078763,
            -0.4070676755681969,
            0.14753631717208757,
            0.17720108772171647,
            0.5601879292120157,
            -0.5304344257956225,
            0.9915234003830489,
            0.8254870750415103,
            0.8539603006258571,
            0.7432268068448649,
            -0.2959930422024808,
            0.9480275527341379,
            0.29796212166631614,
            -0.7324562404115721,
            0.9826937618614692,
            0.37984022103579734,
            -0.19678008888985785,
            -0.6270279007118803,
            0.8924985727174052,
            -0.583783806109326,
            0.5595654287015448,
            0.5846660433305811,
            -0.3648824244876934,
            0.11656852210932199,
            -0.5289006498074926,
            -0.5679603886218203,
            0.3008483100254709,
            -0.7784666857706046,
            0.3661517932510775,
            -0.45838395167576956,
            -0.469939963904666,
            -0.03889976977019328,
            -0.5644232073692331,
            0.12561128192118362,
            -0.5936597809325577,
            -0.6952161012004936,
            -0.8420700214001866,
            0.14550843244033532,
            0.8710343319617254,
            -0.10745512950517655,
            -0.5804177839713007,
            -0.07179513258203171,
            0.460923819198246,
            -0.5222526646225762,
            -0.455591875863775,
            0.9136508474740663,
            -0.29234105392050547,
            0.16678975817023386,
            0.8835542842541673,
            -0.033357911283321044,
            0.9523825561950915,
            -0.4910858931334733,
            -0.9000846353664954,
            0.33139976196243975,
            0.14538551837639588,
            0.6732284008501176,
            -0.5907112267745269,
            0.4222970230800729,
            -0.2338612527124064,
            -0.305049637903758,
            0.9016007723393263,
            -0.5552950745149536,
            0.8898222166877944,
            -0.30124803944984996,
            0.45764240103584647,
            -0.649152421417943,
            -0.2009713921441097,
            0.9965469605712681,
            -0.13205592610741462,
            -0.013711860668397387,
            -0.6642772675761912,
            -0.7209003398032419,
            -0.11375223176557896,
            -0.3229458815436948,
            -0.11094422709345123,
            -0.13244209650924837,
            -0.835946962525117,
            0.19033429923570455,
            0.18390690771985388,
            -0.45681677954026895,
            -0.24531219637661175,
            -0.2757774964954815,
            0.6161391178378659,
            0.5914129733340953,
            -0.854796064507989,
            -0.6372458886467072,
            -0.8119502282939554,
            0.1317738620142549,
            0.6605546402989507,
            0.8630424577581012,
            -0.8727560492505916,
            -0.8464746810362804,
            -0.7548942047564788,
            0.06133572668489709,
            0.07477505747171664,
            0.5899955869135735,
            0.6941984149805326,
            0.6073414020222602,
            0.22290989501948744,
            0.3745971145336937,
            0.2544077527603984,
            -0.06969772237675902,
            -0.8851579139301298,
            -0.7530305935274996,
            -0.7970959355923496,
            -0.7046803041406247,
            0.4094511784861105,
            -0.2674332334263111,
            -0.5378666633803435,
            0.9165617057557344,
            0.7785899555847268,
            -0.925979121162385,
            -0.9536056187621986,
            0.42827147255759745,
            -0.6918884373268518,
            0.7009825800156829,
            -0.5668693995188306,
            -0.216484183645025,
            0.42279548565025626,
            -0.2894907141318259,
            -0.1566551432194739,
            0.657359109096442,
            -0.4051971525502133,
            -0.8657140062943636,
            -0.18070756105698638,
            0.3202582158783055,
            0.8541565497158219,
            -0.10449635107063188,
            -0.6391663600504254,
            0.34331057765805245,
            -0.45088362324061476,
            -0.7780861042401298,
            0.6599482443463309,
            -0.9891167806032749,
            0.08229190765336007,
            -0.7078433099262749,
            0.38295000567520865,
            0.5382033074202798,
            0.9187728370077983,
            0.41684530620955956,
            0.8926699759102783,
            0.791337016224363,
            -0.37003350052931033,
            0.6505612649661269,
            0.6949787849860819,
            0.7365891941629822,
            -0.13455141180564908,
            0.8765706827700216,
            0.5566136293016336,
            0.6060519061294312,
            -0.09701028933008893,
            -0.6113936944443779,
            -0.9665807650247138,
            -0.9287829802337306,
            -0.8307068235353913,
            0.5590914592848816,
            -0.06123494955104712,
            0.2604723921295805,
            0.41580480295348066,
            -0.15460454638930687,
            -0.36854471156438523,
            0.5747149339802203,
            -0.45709560187135184,
            0.6306602479226125,
            0.004803843853481657,
            -0.40038066617760404,
            0.07608718507881376,
            0.1662166872468305,
            0.8308168059853254,
            0.6630413555272161,
            -0.13466848135901768,
            -0.5014037194419997,
            0.8622313885763829,
            -0.8722953734656497,
            0.5639240633021413,
            0.9242114236104038,
            0.350073565725289,
            0.5598866175879971,
            -0.592321908815714,
            0.7855213553875824,
            -0.971252484690025,
            0.6593282419626615,
            -0.3402461614858839,
            -0.4353083250919561,
            0.007901553806376934,
            0.43694079970178257,
            -0.6893662300184523,
            -0.45281187818139634,
            0.7653622395197571,
            0.015987515568830657,
            -0.42838776856308347,
            0.2945925288033356,
            -0.5499428625533631,
            -0.8295465890991233,
            -0.6451224476775322,
            -0.3005375099271989,
            0.36133346682767153,
            -0.6685183223999311,
            0.4360667345981806,
            0.5022260818894576,
            0.556965719353013,
            -0.4218336978634142,
            0.7513439668078166,
            0.06890738453053734,
            -0.1388377845677574,
            -0.8845556860777498,
            -0.5432768284125132,
            0.060165934411968505,
            -0.0994606743036801,
            0.36181569005513026,
            0.21841341988158303,
            -0.4564489890575791,
            0.8484860257125968,
            -0.5653298801894373,
            0.2929021043178169,
            -0.6305372253728533,
            -0.19346010047524304,
            0.13189205349390518,
            -0.715656201835228,
            0.4350294824658891,
            0.36867118586768644,
            -0.06456870910355943,
            -0.74845660401524,
            0.7647796689276734,
            0.8484999803581675,
            -0.6190833700558471,
            0.571029130894505,
            -0.16638635229163293,
            1.0061356200872493,
            -0.014116525098134033,
            -0.461361990270553,
            -0.09284506362544172,
            0.4931450111184421,
            0.44554964802612107,
            -0.731528708949649,
            -0.8677356716283405,
            -0.8056633487021259,
            0.4086504631977883,
            0.9205906312810128,
            -0.8295633384193508,
            -0.012656551587240293,
            -0.734176145922456,
            -0.5473333152015719,
            -0.7620426030688752,
            -0.30990277784757464,
            -0.027934124815934477,
            0.8884152413490085,
            0.9202905907037833,
            -0.18238531784251846,
            0.8619340549337977,
            0.7918258043837181,
            0.07868206385966985,
            -0.8667376521708079,
            -0.19469972642533623,
            -0.896566704075675,
            -0.4288020163753637,
            0.6251666214238941,
            0.9990541099398921,
            -0.485652408794392,
            -0.05371833669493832,
            0.5807842765764106,
            0.6352183864749634,
            0.8185458743826799,
            -0.6191071781305185,
            -0.8432944799046244,
            -0.16278125171606778,
            0.9125256387486481,
            0.1287226260327915,
            0.9576614166430968,
            -0.9327946011610015,
            0.6267264409175963,
            0.7587107797005788,
            -0.8323739516621508,
            0.6253683946719996,
            -0.8390989525408681,
            0.7894939119825513,
            0.6964402978345887,
            0.25652497292570875,
            0.9118094707787749,
            -0.9205131843836829,
            -0.45650089169802677,
            0.1844455543360412,
            0.9542978997913838,
            0.175955739585107,
            0.6923288097320094,
            -0.8381687437634213,
            0.8974510962167769,
            0.4300678181381261,
            0.6448107466365928,
            0.8411247861965924,
            0.5615767858608885,
            0.8960624252482043,
            0.6934753085821265,
            0.3160613168113298,
            0.4923189585970526,
            -0.3921530432491119,
            0.7042940139083683,
            0.24100765555021528,
            -0.3278645411993341,
            -0.3208241726296144,
            0.014643054501282587,
            0.4510549646816222,
            -0.08728545238011799,
            -0.7434882678664058,
            0.8363040898210343,
            0.9042352308289316,
            -0.2378829237557989,
            0.5876464878723323,
            -0.12884859817619176,
            0.3698245087105791,
            -0.5575384980613042,
            -0.3889959984224923,
            -0.7418691973416668,
            0.38044808014564524,
            0.23485936469844992,
            -0.3467741126323909,
            0.2120639159142614,
            -0.9681346172554856,
            -0.7427285517503946,
            -0.613624551192231,
            0.3379944247262538,
            -0.22230288979658994,
            0.7235292686963102,
            0.7752262803971312,
            -0.00399387222246561,
            0.20506914236131893,
            0.5528901075598349,
            -0.9079639352191532,
            -0.8368754009110202,
            -0.9673634668081481,
            0.4018199935696587,
            -0.42150095383190167,
            -0.8186209553926447,
            -0.734274746634216,
            -0.4818549542264187,
            -0.000950888458157968,
            -0.638381163911505,
            -0.6077558806045256,
            0.9071880327851409,
            -0.3177930870019055,
            -0.7564944124363656,
            0.9552099345012325,
            0.12915452367906874,
            -0.8612814385323571,
            0.4585413045836819,
            -0.3417511406839358,
            0.2194934893698106,
            -0.35432896059143,
            -0.48802207652661317,
            0.3798147006269045,
            0.6824467107642223,
            -0.9575001961883204,
            0.6989722668654847,
            0.9673006606305173,
            0.22859123621172628,
            -0.7988922351713065,
            0.9394303699042201,
            -0.4801705404592039,
            -0.3210350968495059,
            -0.9635589967373287,
            0.27486612523847453,
            0.40995202397127956,
            -0.8762797765162822,
            -0.4464933056364441,
            -0.4571246817931234,
            0.4532215694905463,
            0.10731674373975783,
            0.04475396718082158,
            0.8095208587955031,
            -0.517097446032628,
            0.5080314801728475,
            0.7320575032996314,
            -0.9133179574077132,
            -0.6384965556243664,
            0.661427923987766,
            0.546895453859943,
            -0.23354555909621236,
            -0.3818431875926905,
            0.8101139014046871,
            -0.6692436698805956,
            0.20789234795542885,
            0.43179108855189513,
            -0.7533057409087413,
            0.5719108268485654,
            0.23943498661389803,
            -0.7598536449474292,
            -0.6569527977678807,
            -0.9793224972210101,
            0.5435746467860195,
            -0.3322867147712035,
            0.6347398215177961,
            -0.9738340577652659,
            0.2543041930535582,
            0.44414184457971223,
            -0.6734691383430845,
            0.38716295344741675
        ],
        [
            0.9380742273778753,
            0.6170947780509817,
            -0.12824889585151186,
            -0.6134379082875456,
            0.40205750193000367,
            0.7644501763140281,
            0.6150451054668287,
            -0.2276389919118846,
            0.9588407174720079,
            0.35703838016644873,
            0.6523773706484544,
            -0.6315095092924587,
            -0.4637991190753805,
            0.6926373113135416,
            0.6974082413117024,
            -0.8410467545440261,
            0.7341609394508759,
            -0.5528324566899505,
            0.6073817080515531,
            0.360188859162198,
            0.5456711895048822,
            0.2297245936509417,
            -0.30262232957264934,
            -0.5415362715217555,
            -0.08507950686779042,
            0.9214095949762351,
            0.7233809636890334,
            0.37162084759186387,
            -0.7106705043945725,
            -0.2026903203629844,
            0.6117792961941945,
            -0.5791321458163755,
            -0.7693005935983637,
            0.03667879880339729,
            -0.8763484242631238,
            -0.47090205979222755,
            -0.45599465324475225,
            0.3782738965133309,
            -0.48221711801728123,
            0.17005979406992897,
            -0.5622721106755293,
            0.5516018288303889,
            0.28168170245786883,
            0.43141125555452864,
            0.7090438867008553,
            -0.04231155163912591,
            -0.10386163688000545,
            -0.08086859170061787,
            -0.5549385584816544,
            -0.5810395800071475,
            0.9111143231708486,
            -0.48443995289039804,
            0.3272344976729177,
            -0.6479424617273055,
            0.15224167577813869,
            -0.7639133351233227,
            -0.4937308472587917,
            0.9040094397589817,
            -0.4564738266548569,
            0.652275669842843,
            -0.17283481538466142,
            0.942067525720771,
            0.6008943562416137,
            0.05267153723377685,
            0.4724258255204491,
            0.3206089868492947,
            -0.6319300907812833,
            -0.10720040130251517,
            -0.6297452846669513,
            0.11561217703241085,
            0.08073339905005952,
            0.9657797309089359,
            0.6330948060408632,
            -0.7070687897155942,
            -0.23750247248007303,
            -0.7074192492927323,
            0.637918349238548,
            0.08772468136491021,
            0.30047284706777433,
            -0.6098003258909493,
            -0.44211863282281794,
            -0.18386718602006227,
            -0.7006067665875704,
            0.5150043931611628,
            0.8022878524737693,
            0.8086013833837228,
            -0.042620393463548685,
            0.28225910678206184,
            -0.8000308935483504,
            -0.20039819641240236,
            -0.5863408480719257,
            -0.6319767382126906,
            0.9368470143526653,
            -0.5955931270300496,
            0.8630150374876229,
            -0.519413340986339,
            0.11915607585064902,
            0.12009927180105956,
            0.624860908216277,
            0.03306637056068862,
            -0.27617874682282884,
            0.2624276993820621,
            -0.6801202298437224,
            0.893562433899738,
            -0.8962404256716844,
            -0.8582866931484178,
            -0.701241323438546,
            -0.36806673616300484,
            0.36339392971521267,
            0.6731880574850887,
            0.24881289469699522,
            0.4366416006956091,
            -0.6020564746969008,
            0.7576101372409462,
            0.9098292609909041,
            0.9270530404975269,
            0.42389395721228207,
            -0.8277774170948724,
            0.1189081043261085,
            -0.3619618610439582,
            0.4227045056187174,
            0.04546393354972773,
            0.16719246068869778,
            0.3680312190753262,
            1.0206719261022748,
            0.3348438530007842,
            -0.6491225108311365,
            -0.9310112476011865,
            -0.17259207513266378,
            0.6141631235959215,
            0.5285173933923283,
            0.23446946777926989,
            0.06636131657736156,
            -0.8273799822412928,
            0.9831197296539785,
            -0.9363778486774254,
            0.5066078835777095,
            -0.8374269635334612,
            -0.528567585642081,
            0.5917009776502913,
            0.34125612220563606,
            0.2276041344378681,
            0.25321178493131646,
            0.663206177166352,
            -0.5772328257585545,
            0.8170621741636998,
            0.4061113860544346,
            -0.1375755298727777,
            -0.03592843381600294,
            0.021557048162086572,
            0.3906875119242016,
            0.3142966279389451,
            0.651423506019717,
            0.4948830323093994,
            0.8180214326998493,
            -0.20335465067258568,
            0.7116130550255814,
            0.06989979437694077,
            -0.11624022384745288,
            -0.0400140904581624,
            -0.62554233014774,
            -0.16661541301789828,
            0.9192519993915792,
            0.21425240063720988,
            -0.04025101962845304,
            -0.011216656504463317,
            -0.9278135693741912,
            -0.3055163761969464,
            0.9776889740511499,
            0.3651670172919718,
            0.6333839528667248,
            0.9730568204133364,
            0.7762447557953741,
            0.6696337926219166,
            -0.41491701240542606,
            -0.1983139402406019,
            0.7440432308821048,
            -0.617038391384708,
            -0.7278634058063106,
            -0.329817783043014,
            -0.7997586641468656,
            0.5379932960460063,
            -0.4469381180985425,
            0.8074006847053146,
            0.23366501633165218,
            0.12006651400315979,
            -0.09374151136175651,
            0.6361440259344558,
            0.8623127107016686,
            0.3460573644691416,
            -0.304951862269768,
            0.6453199339711531,
            0.3911023941364258,
            -0.3492785765883055,
            -0.445677295468861,
            0.26223083408363296,
            0.7986697960201665,
            0.6025032614755423,
            0.5095925797115246,
            0.2944255085866758,
            -0.7674427096421103,
            0.4408603526988791,
            -0.5480840560460153,
            -0.4053743143390715,
            0.8404014662576605,
            0.16973192557506456,
            -0.7292882970785135,
            0.5317773676770168,
            -0.9473980312943706,
            0.25440549922182804,
            0.5364945028675885,
            -0.8176311119947833,
            0.2676806888244184,
            0.662503768142793,
            0.10050827452516256,
            0.12763628179530964,
            0.4745859907742261,
            0.35753591243949395,
            -0.5432056871201006,
            0.6333875694107322,
            0.06250286627429945,
            -0.0014609946643051417,
            0.551156214780158,
            0.2868357164425297,
            0.6455807893088281,
            0.7971552556926021,
            0.3096532472380856,
            0.28385665698480034,
            -0.6273631473054246,
            0.5113413027920944,
            0.010750331673259743,
            0.8475790306066048,
            -0.13622852283601,
            -0.5711021981708071,
            -0.7773587752876583,
            0.6768400271307685,
            0.9765209935423257,
            0.21891230996381444,
            -0.129938751894646,
            -0.8839031866874635,
            0.48600379084244394,
            0.615472755192414,
            0.005754457834756498,
            -0.8528369247368757,
            -0.07657785010978141,
            -0.33782467160090046,
            0.8388866650898404,
            -0.5073166808702989,
            0.900544238752097,
            0.2038743942731309,
            -0.0058937035621716965,
            -0.039453743836966704,
            -0.22395919330887262,
            0.630648834784248,
            0.7227488746622858,
            0.3865236425148551,
            0.15985966935112383,
            0.128206160168605,
            -0.6672492551509818,
            -0.748844035331728,
            0.028607602113142297,
            0.620959419578635,
            0.20056056489236593,
            -0.8278604115821964,
            -0.26379350950053915,
            -0.14137007229300327,
            0.5671680063195893,
            -0.7018559732913574,
            0.09669053551736373,
            0.7390590561242795,
            -0.26458597282491103,
            -0.6726502214074113,
            -0.5140961400186261,
            0.030519287009371485,
            -0.773754983826945,
            -0.5082991842668815,
            -0.8088671454138113,
            0.8714870522948114,
            0.6848808867521351,
            1.0143412030270564,
            -0.02320524061509651,
            -0.47846366460351714,
            0.7937884808483746,
            -0.2174476568159366,
            -0.8811589223582478,
            -0.6831652011838183,
            0.7561557288771056,
            -0.965523489427058,
            -0.16411967192716725,
            -0.46103107859882675,
            -0.7535159719089621,
            0.03845965488677629,
            0.16219168796854208,
            -0.36464817187910714,
            -0.5358872505501217,
            0.3685512948897833,
            -0.504685804517983,
            -0.3850985708016375,
            -0.5882397647081796,
            -0.3630980227028847,
            0.5044421142903314,
            -0.7625013140918706,
            -0.9560575384118947,
            -0.6443036280185981,
            -0.36792580948765086,
            -0.6626088296312451,
            0.8136435290306928,
            0.5754231095522147,
            -0.2738245684611209,
            -0.5779861040816979,
            0.4322870245140983,
            0.6086296769683442,
            0.09968673941251391,
            -0.17270636633891018,
            0.29489257223114423,
            0.3504977529203611,
            0.4565152577708326,
            0.6259123252696132,
            0.11580697531349148,
            0.31916785224823196,
            0.5877232835926981,
            1.0065869880947986,
            0.8466940712002514,
            0.5481682847928996,
            -0.5872288462628886,
            0.4449005248132003,
            0.06622793695797331,
            0.21645926178433095,
            0.05737857455982101,
            0.666561018507054,
            0.032298370134538096,
            -0.7031684572957555,
            0.49553148999324437,
            0.5475835114827029,
            0.16887286340727276,
            -0.9087963016149732,
            0.4676333015016467,
            -0.8634791262937163,
            -0.7661525310481154,
            0.2239271356393418,
            0.5191754919379293,
            0.5783746153417475,
            -0.6216659219800529,
            0.6205338101888065,
            -0.05039287671590231,
            0.330923324268283,
            -0.30741370901361303,
            0.5283557101899224,
            0.4462250184220408,
            0.18292239078641906,
            -0.04331004560345707,
            -0.930883287889886,
            -0.28518349011403776,
            0.3618714014610358,
            -0.855625699281341,
            -0.7610834673340938,
            -0.6885268151884738,
            -0.00968676206271989,
            0.46073520418714226,
            -0.483329198056477,
            -0.27878640891830175,
            0.6631161803269165,
            -0.031988513909626516,
            -0.11753270098172788,
            0.9629164232565177,
            0.19291166651291256,
            0.6672539561655746,
            -0.538248953944975,
            0.6220703700929052,
            -0.035767125440458805,
            -0.922506724702744,
            0.4623989415122144,
            0.02289737687932786,
            -0.42796596983314295,
            0.004010923528967068,
            0.630412758112309,
            0.3948562273504087,
            -0.512212600500415,
            -0.7563255468539816,
            -0.5468606984912795,
            -0.6917193994946927,
            0.31534000144617114,
            0.9269213207752823,
            0.6399974108192733,
            -0.5126394530833223,
            0.07932253438100383,
            0.6782508301721625,
            0.8423950030758699,
            0.6170155158817915,
            0.2764410022913358,
            -0.6128041957865191,
            -0.607431541182486,
            0.0027168304678682007,
            -0.9026899080717129,
            0.5890627864009993,
            0.9419147752253093,
            -0.9084346783006773,
            0.8745380506770963,
            -0.9725852124753479,
            0.01270631888838607,
            -0.8333445866907453,
            -0.9440357768846682,
            -0.7155156469722496,
            -0.00765263306312705,
            0.9526714385539435,
            0.7712562127349066,
            0.901435780049042,
            -0.42382538282663,
            -0.23224141186649658,
            0.0960524153750167,
            0.783666604763112,
            0.02074454310309514,
            0.5063075083259394,
            -0.02979965014562324,
            -0.8915690436989346,
            -0.8136033528360753,
            0.43782547986997006,
            -0.27725702261408786,
            -0.7826473062283148,
            0.8809273778064164,
            -0.1339059407479498,
            0.712120309090779,
            0.35629317403940597,
            -0.835248224125125,
            0.678139358114181,
            0.33260186153821913,
            0.9987304741803988,
            0.592213015994508,
            -0.09467044172838253,
            0.20236697352073185,
            -0.5361904658174707,
            -0.9413555230059778,
            0.46679728158260014,
            -0.8659360454889136,
            -0.37805093507208853,
            -0.2843372368225809,
            -0.34427757797423086,
            0.137074065246608,
            0.4842762240767512,
            0.9517354490636859,
            0.617396708397629,
            -0.5616417708917226,
            -0.21419449251417802,
            -0.271717747338549,
            -0.6004356085889995,
            0.27058546866123756,
            -0.16926721326899313,
            -0.5121293770873248,
            -0.01922968075108899,
            0.02093245686630262,
            -0.33376807128402175,
            -0.922611779130104,
            -0.37243334003146844,
            -0.5165847418063256,
            0.4959059757494575,
            -0.5965479470776609,
            -0.09198817089120556,
            0.31657652439831074,
            0.9803836746574688,
            -0.1320945924171137,
            -0.3946451799713279,
            0.6401729871206986,
            0.7389840190747626,
            -0.8899816049446575,
            0.11653000996227143,
            0.6697934680570312,
            -0.5391217690413955,
            0.3641350051953743,
            -0.8618821497104369,
            -0.04933361940753079,
            0.42171386685663204,
            0.15399942051941526,
            0.7784053954086074,
            -0.643808922283855,
            0.45478810908997874,
            -0.26601388856747343,
            -0.9438365000685018,
            -0.06442247611676252,
            0.17522169568990686,
            -0.6062603834728041,
            0.971539407871524,
            -0.5573629665316554,
            -0.09595536765718135,
            -0.48252164272371634,
            0.22444634608481384,
            -0.409087037780671,
            -0.2529006985181416,
            -0.861384285837063,
            0.2947259842352437,
            0.7409937527716463,
            -0.07827023627883452,
            0.8148835889354452,
            -0.6316044510931648,
            -0.6412121786919551,
            -0.9069791536819942,
            -0.5838287292507975,
            -0.8228908894921431,
            0.6389746998796302,
            -0.37801426129801124,
            -0.7728554521566666,
            -0.947390845364494,
            0.6279389630713949,
            -0.889001232546309,
            0.3148603672329835,
            -0.5459475108686302,
            -0.3535211251307668,
            -0.912507664806336,
            0.5767678941471484,
            -0.7182126709070249,
            0.38056767164520694,
            0.759265495706157,
            0.666034212696703,
            0.5636460830445723,
            0.9427905077185373,
            0.24835103886622995,
            0.2431412906771123,
            0.6709555244444744,
            -0.19928978285349427,
            -0.07982213444206748,
            0.2156660142010909,
            -0.03235867576683149,
            0.24357455698872707,
            -0.2721766603607167,
            0.8472810608536595,
            -0.40799362661041044,
            0.8992792429775033,
            0.6144987929796143,
            -0.023752665737062077,
            0.09480830111320684,
            0.4544214605656657,
            -0.7350145906298191,
            -0.10663771344804085,
            -0.2669138862674245,
            -0.2011644759963846,
            -0.26363628479155377,
            0.2437084148538888,
            0.552140001312443,
            -0.45650078193897786,
            -0.47154874173921557,
            0.10437546601229773,
            -0.5014647715730072,
            0.9964089682102476,
            -0.3552844934130179,
            -0.37762269726179537,
            -0.6468511683448132,
            -0.11231546025985005,
            0.8967016765320747,
            1.0046529072331092,
            0.40541764955089515,
            -0.961497919482252,
            -0.34810040615268867,
            0.56639147280682,
            0.5862652220053985,
            -0.45484950373358995,
            -0.8666214819557918,
            0.800303801163118,
            -0.09488655888948042,
            -0.7807919248836337,
            0.19597108732141072,
            0.15661771120945991,
            -0.14574505032032822,
            -0.6746139442071246,
            0.7492353713663752,
            0.6962863440188057,
            -0.9199246834822544,
            0.8202457766914649,
            -0.8003497807496477,
            0.4193021683539419,
            -0.6308165832286081,
            0.8388034542963796,
            0.2557232778180925,
            0.2637334224682348,
            -0.6541611675884463,
            -0.16641467402466353,
            0.001518089864307083,
            0.7593904072330138,
            0.43110870513995647,
            0.6864603921057374,
            -0.8468134759867368,
            -0.5874433809425779,
            -0.8655511137940605,
            0.8315320635476675,
            -0.2652035310403645,
            -0.5694806964423796,
            0.4593046563072555,
            -0.44840608165891965,
            0.5204619156981777,
            -0.3339224481030618,
            -0.8673632403910498,
            -0.8383554748008488,
            -0.9087619166919546,
            0.9971405626267568,
            0.6005685000898958,
            -0.1864505411625527,
            0.6588389806204776,
            -0.11336168190589697,
            0.5428423932700286,
            0.628180920999367,
            0.4983092011728023,
            -0.4708529741734481,
            0.8991802516142436,
            -0.15217837606475268,
            -0.11418176658325468,
            -0.23549185420185434,
            0.5247443603032997,
            0.5287473045368852,
            -0.10215035599460294,
            0.45514926681685186,
            0.3047479293239631,
            -0.1542947199912441,
            0.2536507651459872,
            0.8706466780767059,
            0.5971868310668144,
            0.7592060039523923,
            -0.6851221084689446,
            -0.21267043913578085,
            -0.42695589382958254,
            0.1634954478276003,
            0.4074474352772348,
            0.615213145224011,
            0.9185586763694663,
            0.293075880976369,
            0.30474434975594755,
            -0.6339228059808737,
            0.4834643767874373,
            0.8960878767175989,
            -0.7560925126439728,
            -0.42686253282825054,
            0.47807365703386845,
            0.08124384944410387,
            0.786452176557482,
            -0.046972832081023846,
            0.06706611037480605,
            0.33534163763497304,
            0.7431560744191384,
            0.062278736658672056,
            -0.7792286411354871,
            -0.1370071863011957,
            -0.662382141260705,
            0.692373278553344,
            0.161609554172069,
            0.05783118341525411,
            0.577332290816617,
            -0.8057609910838204,
            0.1961394247094065,
            0.6311236476052059,
            -0.9220863474408256,
            0.8117652068469222,
            0.3476428106753293,
            -0.911658628279043,
            0.13150623917197016,
            -0.842423379899426,
            0.15458742458173094,
            -0.8346038298018489,
            -0.1784138194063683,
            0.5831464265246241,
            0.475089046810154,
            -0.7708781501147122,
            0.7232610762232186,
            -0.35083640757281703,
            0.46642316212753143,
            0.176107589875733,
            0.6612261073273638,
            -0.8690022276872458,
            0.6681231600221881,
            0.18890827298292642,
            -0.291069764408604,
            -0.1605530634476031,
            -0.9515627465087503,
            -0.7582328674557889,
            -0.39357060487543477,
            0.09279219047035114,
            -0.9312732072102581,
            -0.9502304078941546,
            -0.8116023497371085,
            -0.20361918078397173,
            0.5123567514159679,
            -0.0020945433835731575,
            0.646189790256171,
            -0.6302915859430299,
            0.8898478532776968,
            -0.3505743700067809,
            -0.4151537492693816,
            -0.34138619893377664,
            -0.07223663951884404,
            -0.45794756437854617,
            -0.10716312817658331,
            0.7728712718926617,
            0.6250053385644514,
            0.346364280732518,
            -0.39408725581608606,
            -0.923748735327317,
            0.9172299684737374,
            -0.6325389356644902,
            0.386371964958823,
            0.5285192229186996,
            -0.002149613602441958,
            -0.15038455087878588,
            -0.3755219324445533,
            0.07209517412521305,
            0.29142824655077426,
            -0.38746580295300864,
            -0.8420418843322875,
            0.7879034699843898,
            -0.8828880914794587,
            0.7706551644029145,
            0.4242167974476962,
            -0.10624404730515272,
            0.49795259880289733,
            0.432441575414812,
            -0.4674506286400928,
            0.3637017495734684,
            -0.7641029873174118,
            0.05269659474513528,
            0.6907306285553412,
            0.7615877015724075,
            0.11160296477146588,
            -0.8129109302622414,
            -0.24651575044992896,
            -0.4758376109972275,
            -0.14862979738589233,
            0.058578779575786596,
            -0.8347781692781052,
            -0.3416468284961878,
            -0.6138481336140038,
            0.8962813882294811,
            0.9411400967390956,
            0.6542510599519338,
            -0.044173320911615,
            -0.43023949116203186,
            0.1744108715376029,
            -0.48412918110136344,
            0.04257902695420394,
            0.2251172021950534,
            0.9950524977533816,
            -0.19903336527559776,
            -0.8856109959151325,
            -0.6341182748122435,
            0.6410119861585941,
            -0.6720816677554838,
            -0.9072073588739422,
            -0.6264463210552043,
            0.9884458667631584,
            0.37246862985951174,
            -0.7547682179072311,
            0.08844951766440184,
            0.935074766862829,
            0.2822257225022486,
            0.8016824996380407,
            -0.3931546692019828,
            0.0096340732518952,
            -0.22838324269936658,
            0.056166463339151346,
            -0.9596628862546953,
            -0.44060110200097075,
            0.6652109112734217,
            0.3808570330944654,
            -0.3916547363198244,
            0.5973346940120101,
            0.18407620182191323,
            -0.8842346859337729,
            0.8336904982875257,
            -0.48436400186490774,
            0.4603852268258086,
            -0.4263669902553662,
            -0.97020191175315,
            0.5652335467726228,
            -0.3294909947414184,
            0.8180448718286637,
            -0.024771398768879294,
            -0.6893128035317946,
            0.48641463876713154,
            0.7283692855891761,
            0.9546658935533023,
            0.8339976551825461,
            0.44652827857351873,
            -0.8828685856633953,
            -0.5108003365127269,
            1.027872072593938,
            -0.31356986956336486,
            -0.3320816348207336,
            -0.08080901913156924,
            0.3549172267201137,
            0.8492947599433098
        ],
        [
            0.887089041000092,
            0.040132875048162944,
            0.5702851486525853,
            0.6077008537783184,
            0.8944812951004517,
            0.08518739617390375,
            0.423099878833944,
            0.5218568142136666,
            0.31483057219880434,
            -0.6999352339941101,
            1.0160196579615945,
            0.3159683491405639,
            0.0056445959509403695,
            -0.8533032059996983,
            -0.7633880018582817,
            -0.09366047738586875,
            -0.7048732511808193,
            -0.1785447204783259,
            -0.5890107225500638,
            0.5502999685627694,
            0.7349831925157422,
            0.20660632369572987,
            -0.09241893902393034,
            -0.905897310848035,
            0.7209540699701646,
            0.6432423358865853,
            -0.8232606639302995,
            0.5111051075020328,
            -0.6904290294159137,
            0.09980182012743867,
            0.24421576624727373,
            -0.4586283959727716,
            0.9155822526111042,
            -0.24291072039354572,
            -0.27723058662265615,
            -0.018564498054606287,
            0.9360305353187661,
            -0.9469409315108032,
            -0.4348418320095538,
            -0.48449894585020636,
            -0.3703855783923894,
            0.8369889388306672,
            -0.9095682957999071,
            0.5345007301508242,
            -0.7685482462504187,
            0.33148261021656034,
            0.2800342956829003,
            0.13261000418295543,
            -0.583029719270015,
            -0.51366911746,
            0.8494952431968474,
            -0.29037325910941186,
            -0.6939203746129837,
            -0.15543025898592644,
            0.9310618078813965,
            0.9169233768188645,
            0.580183187889012,
            0.3489108796934334,
            0.1853058998595765,
            0.3533968772953986,
            0.013126570152844411,
            -0.9826071119608989,
            0.5200738231624478,
            -0.23642054100803037,
            0.5109946304667182,
            0.7242123117023819,
            0.7800011513433703,
            0.9722610870866986,
            0.751288182549368,
            0.6807614815182605,
            -0.04432715278074289,
            -0.8508606870163129,
            0.47594139453246037,
            -0.3237133492845534,
            0.6115275283679821,
            -0.6648130524795789,
            -0.4381057285328834,
            0.3314233433352146,
            0.9701779591267035,
            0.14456881580730235,
            -0.3097123885845455,
            -0.9113343126522561,
            0.8837001155893548,
            0.8227885895678768,
            -0.11772610629924418,
            -0.6136505944788551,
            0.6574405762216193,
            0.3477946303321692,
            0.14270159721204947,
            -0.5759205315224918,
            0.24737292100932737,
            -0.6885126804504674,
            0.21056393434338522,
            0.7804131636921643,
            -0.6395533945767035,
            -0.5479477815856788,
            0.6217269735476234,
            0.15808618066134017,
            0.7973731809992141,
            0.8409624553976796,
            -0.32812839047827147,
            0.285597111977891,
            0.11568071608440346,
            0.5829479232079388,
            0.5021204085806845,
            -0.3011017761434679,
            0.3348833635134187,
            -0.8498117162375098,
            0.27585214523130447,
            0.6976115357619845,
            -0.7945307663722383,
            0.19149419619204602,
            -0.5839363939387865,
            -0.8411194516909176,
            -0.5752093521319728,
            0.6476185045120156,
            -0.17707629701041963,
            -0.41863121811628384,
            0.9495334559747133,
            -0.3791969283052865,
            -0.30147169970704835,
            0.3920846925485813,
            -0.8339338343951073,
            0.026880745923173986,
            -0.26683348096294623,
            -0.22643336126587085,
            -0.053590459511124525,
            0.10268893411317094,
            -0.15150298303033324,
            1.022158865249058,
            0.4362763452172605,
            -0.32895130065780104,
            -0.7322564861969896,
            -0.11948405245540712,
            0.3220236489616293,
            -0.8027057382027042,
            -0.09737918331557173,
            -0.6927398777394278,
            -0.3623743978606642,
            -0.34549409922038027,
            -0.9267909742592813,
            0.5322364887175646,
            -0.7325033845019111,
            0.7734012133237863,
            0.45687059732131086,
            0.8764179549424341,
            -0.7084597963011425,
            0.8109873335944624,
            -0.26917709865216694,
            0.3626233347813158,
            -0.15122335170207296,
            -0.007648637802165739,
            0.35386981778612087,
            0.4163062909073238,
            0.41324085825718254,
            0.8542268131813494,
            -0.16646140807909726,
            0.8881781643516488,
            -0.9059653483940121,
            0.24948978748373019,
            -0.5603584704195855,
            -0.7371798872626772,
            0.04808743250537319,
            0.9504460953445085,
            -0.8139528425778738,
            -0.5523112318286174,
            -0.18896243012030073,
            1.017389595503402,
            0.30722510336796144,
            0.3529829707188148,
            0.9193616630474801,
            0.47893102897446455,
            -1.0151675529445976,
            -0.7670168028408915,
            0.67958078507625,
            0.4930781702220199,
            -0.7035474498713444,
            0.7373783957929494,
            0.23204555107106775,
            0.5973852106976729,
            -0.7282954889094195,
            0.3360150553525596,
            0.38914015746413383,
            0.5774058566675593,
            -0.6015542908416639,
            1.0218830687783242,
            0.2305463478633834,
            -0.7095504569658589,
            0.7856781332844861,
            -0.09108015703167635,
            -0.6098450576402935,
            0.5469018693942879,
            0.5157560219139304,
            -0.6398775154116401,
            -0.9086098136030931,
            -0.43719024751148744,
            0.38145925667373165,
            0.9733436653609404,
            -0.8206879472083123,
            -0.3930805959687383,
            0.5863564914319299,
            -1.0356826919430284,
            -0.14767635892813114,
            0.6699130981145276,
            -0.0765514041086896,
            -0.4494436297814448,
            -0.20790343438740222,
            0.45949684070460467,
            0.5914688526236221,
            -0.16933884639465263,
            -0.3381464148686283,
            0.31697883355982526,
            0.7651176082598218,
            0.5421572832552053,
            -0.24007693167801158,
            0.6267868018036832,
            -0.8178383367751886,
            -0.8640858144084671,
            -0.6867057967968822,
            -0.4222619885569479,
            0.44500819396108865,
            -0.10748193071695686,
            0.8428874867314999,
            0.40407686095860434,
            -0.32163817387079624,
            0.7312092597569394,
            -0.005884013306368156,
            -0.9889010246250238,
            0.6785697189891516,
            0.5990179170936537,
            -0.8950190682778693,
            -0.10276053625309618,
            -0.42155444615681015,
            -0.7767014238995255,
            0.734831549741677,
            0.9457286299973838,
            -0.7272154203606546,
            0.9218496458637724,
            0.21395637688903044,
            -0.08423332116602185,
            0.9828597093942778,
            0.6575675393771464,
            -0.7631100384182602,
            0.45974091458697247,
            -0.6581125666842773,
            -0.6266216772044274,
            -0.042238501502167326,
            -0.8759289564499714,
            0.03776849603162202,
            -0.8730096700422061,
            0.3347951913237163,
            0.42526934858953164,
            0.8205630075691925,
            0.4561114595041619,
            -0.7891649547621219,
            0.3213621863908174,
            -0.6758722589845892,
            0.11435959815763477,
            0.3956790362910174,
            -0.08881957084318341,
            0.6241087142208873,
            0.3717532675674438,
            0.15543435547819906,
            -0.8850651083450084,
            -0.8125752271517424,
            -0.1991040279229767,
            0.02174181338301912,
            0.9975082290348892,
            -0.8460696164328271,
            -0.7796279520497671,
            0.22867060896761526,
            0.6255011409252378,
            -0.0032766564322119734,
            0.04621448176475631,
            -0.40844782374945743,
            -0.22911822927831949,
            0.5188755766126073,
            0.24645998563112614,
            0.1789770309858958,
            -0.5871331431826914,
            0.4892741028800192,
            -0.6842631007820665,
            -0.7928339542352804,
            -0.9203039882946722,
            0.5967004419272768,
            0.14306971256252202,
            -0.5467885383798751,
            -0.3338564208613522,
            0.35519891948039095,
            -0.9065405141513363,
            1.0405285784993554,
            0.3336491147365916,
            0.7116496671311987,
            0.7037982666266588,
            -0.580485139764311,
            -0.2976244769471282,
            -0.3100235792041618,
            -0.3407523490427688,
            0.0035571443293872383,
            0.3998954484656412,
            -0.10197542291002659,
            -1.0263389472435611,
            0.6737071070238271,
            0.08685966065246603,
            -0.9992193025966558,
            -0.1785817326731642,
            0.48451836100605356,
            -0.8664691520286167,
            -0.4366709844262459,
            -0.18926169936559015,
            -0.7430574596445235,
            0.7291321802558163,
            -0.9920172134125521,
            0.693759210947171,
            -0.33908885320338056,
            0.9295043902836874,
            0.3284609582016084,
            -0.8071784442721783,
            -0.5986849423694117,
            0.5006673449404367,
            0.8069247595505078,
            -0.5055538317976445,
            0.24347995390515864,
            0.740770736593067,
            -0.3271469736647189,
            -0.8863787085664361,
            0.43445396425583366,
            -0.5809971195951821,
            0.7433592254740624,
            -0.3780756379112473,
            0.39600259324297193,
            -0.09249103792150346,
            -0.5938697345103477,
            -0.06709901519833038,
            0.739832283369563,
            -0.722346467813896,
            -0.7222116711709257,
            -0.4469513422505441,
            -0.32808472448063575,
            -0.6678207098254253,
            1.003550767712011,
            -0.3132266924428258,
            -0.6924293058385167,
            -0.8565064247512242,
            -0.6177500296169947,
            -0.5827880992520335,
            -0.4191960489478804,
            -0.041297217736355675,
            0.7727029253259798,
            -0.40902206540253677,
            0.5412757922282962,
            -0.5448734061078546,
            -0.55291466191811,
            -0.5133177031549299,
            -0.1819545578650983,
            0.4576222463734145,
            -0.8781581732891077,
            0.09013863660389158,
            -0.22998720108049292,
            -0.21817814869341112,
            -0.5558005349196646,
            0.1379524371374281,
            0.6193030413631563,
            -0.9208575726912538,
            -0.28091484765405456,
            -0.6797524577592922,
            0.03269344416350595,
            0.7262127254541317,
            -0.10498376302704222,
            0.7533376018366444,
            0.394649214360777,
            0.4185463626048018,
            0.534446896880679,
            0.31439947866028983,
            0.7099016995136213,
            0.34516501062876725,
            -0.06067625111807223,
            -0.43242838801147115,
            0.585911403129543,
            0.08439627088251106,
            0.12519580720523185,
            0.22032452921489556,
            0.6947888187979767,
            0.3337644846822501,
            -0.17972107903940257,
            -0.15039691385743506,
            0.14110392071382147,
            -0.6318528162983897,
            0.2847618403333027,
            0.36723278233974427,
            -0.9159611556861615,
            0.1996202718397602,
            0.8696074346545668,
            -0.6140576542260215,
            0.44659201129519904,
            -0.8194054848019784,
            -0.3718495665419067,
            0.825217478153973,
            -0.492174814462136,
            0.5198339394547518,
            0.2352922875648503,
            -0.3066746166979954,
            -0.612452922179895,
            -0.9070980620937487,
            0.575184198621147,
            0.39289534990755876,
            0.1474950453215743,
            0.3089176244640647,
            -0.8838860863579872,
            0.7032957891401428,
            0.21328333159513835,
            -0.9811408729518899,
            0.21673656513875603,
            0.44584155456695324,
            -0.3675451207762391,
            0.4712788739691465,
            0.7777813413533343,
            0.8110255236891435,
            0.5436592551029148,
            -0.29623042482842726,
            0.531473265890025,
            -0.21211612399671775,
            -0.007290756373774232,
            0.8542448146464531,
            0.8513066826833162,
            -0.5076784601431444,
            0.3945967856556397,
            -0.7678181909215899,
            -0.829891023835962,
            -0.18272534222852602,
            0.05405870602018303,
            0.7459402563353809,
            0.5076438744950463,
            -0.547555376829889,
            -0.5751190721772793,
            -0.7887437770465092,
            -0.4962945243432239,
            -0.2794023190374808,
            0.8860825285801501,
            -0.863373439516401,
            0.7405717513339936,
            0.22090545313414614,
            -0.2176350696840394,
            0.6433187091761995,
            0.45878446470314205,
            -0.4530696096472369,
            0.7770526429592367,
            -0.401781639389513,
            0.8575790413315443,
            0.4173765141858588,
            1.02341374357692,
            -0.6091718593734055,
            0.25982668818898247,
            0.6572615567608016,
            0.019717394255065447,
            0.20904381607202946,
            0.5931215201773978,
            0.6212131677745363,
            -0.7993707692323274,
            0.18344354635409987,
            0.24838135775238993,
            0.05576292837800008,
            -0.26048012183343283,
            -0.010688368338797355,
            -0.6036974580418768,
            0.6622234049935423,
            -0.945334883158349,
            -0.38286168133166426,
            0.502942394393959,
            -0.037048058122780066,
            0.8719158136573615,
            0.3144573680894734,
            0.6480262221984662,
            -0.5372927320426261,
            -0.20155363118510908,
            0.12388141241404241,
            0.895284802967546,
            -0.1949310095287108,
            0.13506851068223508,
            0.5871662207098206,
            0.36019857420762647,
            0.21147160112758054,
            0.4993185425738299,
            0.1365871656155937,
            0.2013024337146467,
            0.4991743966042695,
            -0.814795696824824,
            -0.022857532276361392,
            0.4801544781846227,
            -0.9957625281059224,
            0.536895150635479,
            0.35374606118836843,
            -0.3985054257856241,
            -0.5618320407204225,
            0.30242281327314346,
            -0.7042915273157385,
            -0.5871314634312539,
            0.7831938314968695,
            -0.024224603754472673,
            0.03175973249604641,
            -0.38245488536897865,
            0.5554756480311283,
            0.3154537511354247,
            0.6535034962668942,
            -0.12774311113201306,
            0.8692978758863137,
            0.9298695514953773,
            0.21785098269174222,
            -0.9424650057139959,
            0.5580783674981225,
            0.02957756989064521,
            0.9813646768818299,
            0.18726615505476515,
            0.004585784940852483,
            0.4748098487360897,
            -0.2824426163462668,
            0.012259082102375614,
            0.48403854719438727,
            0.11800775485799136,
            0.7230941596454993,
            0.5222711441978589,
            0.23102456135954158,
            0.2705148354842262,
            -0.428493828094682,
            -0.3027524427902926,
            -0.394515699744928,
            0.6276538134791556,
            0.9220004536514124,
            -0.7762310843232922,
            1.0344287654150064,
            -0.5686629176261996,
            -0.07068849525923776,
            -0.5988285517483778,
            0.8041353202837352,
            0.7856548734143868,
            0.5583527400212286,
            -0.013855932078082292,
            -0.6047859057601686,
            -0.8319612216292533,
            -0.9561640249914394,
            -0.9597680476852585,
            -0.4824027289250166,
            0.06180828500820766,
            -0.2552644661248779,
            0.7639974971668172,
            -0.06935836002819869,
            -1.0312022133650574,
            0.8055612416830915,
            -1.0901348202890735,
            -1.0863749000962994,
            0.07311819293117167,
            0.8319402364714701,
            0.5895808530637948,
            0.6595369261034048,
            -0.7136901970407219,
            -0.4302892968990226,
            -0.8439255162126507,
            0.19728980536929705,
            -0.9558184057403853,
            0.7323200360610145,
            0.05193581464708101,
            -0.35139145269259586,
            1.0077777384022826,
            -0.6228578542764105,
            0.7166539978923965,
            -0.45586774214154785,
            -0.7036808333313723,
            0.013958133161707388,
            0.738476692960708,
            -0.2874895231664268,
            -0.36092340834264747,
            0.880256811601341,
            -0.21680781259835244,
            -0.9498099701571621,
            -0.507234650353495,
            -1.090106360396791,
            -0.36296646737483723,
            -0.770178150383506,
            0.4524371855631345,
            -0.3519525115674724,
            0.7729592935933826,
            0.1500225935222546,
            -0.4267599942735056,
            -0.7820096025270272,
            0.5924426802456907,
            0.3443617622295785,
            -0.03863272125447082,
            -0.1807965649874594,
            -0.5125602049157156,
            0.4068187737323742,
            0.06937145075513643,
            0.42567382139133353,
            0.8620174173082689,
            -0.5037135418861346,
            -0.2553975189246824,
            -0.8336307543741709,
            -0.9966944324977647,
            -0.8671212222967638,
            -0.042778515183112945,
            -0.7527894559244802,
            -0.25259008434835983,
            -1.0884077813185153,
            0.4445316307411666,
            -0.5059795543895822,
            -0.6262426478669314,
            0.6348820763100986,
            0.855432599127218,
            -1.0107847264653438,
            0.22685261450243854,
            0.9081995880666109,
            0.5164038698326361,
            0.6273981703904555,
            -0.6657267131604162,
            0.5692045215025257,
            0.16756590752840222,
            -0.8113059145093937,
            0.8516143676134307,
            -0.3465158276145053,
            -0.6966373443811039,
            -0.1720524013825275,
            -0.8618126243615408,
            -0.478176976288031,
            0.023538438003638463,
            0.641923987154453,
            0.5461008755725474,
            -0.6303886879175318,
            -0.182258780844911,
            -0.7668445090736008,
            0.8950537006745433,
            0.7106452632599731,
            -0.5116369577544349,
            -0.47194134120188325,
            0.783301034683077,
            0.41033732774247184,
            -0.6448597654550667,
            -0.6957452518732516,
            -0.5976225325279771,
            -0.3365261973694893,
            -0.10368596582130712,
            -0.072604020827819,
            -0.17267183035272463,
            0.3048735858701813,
            0.008024371228311594,
            0.5481643305340083,
            0.4942555021679594,
            -0.6067148582153552,
            -0.7253587622649924,
            -0.4980160571522065,
            -0.9672911695774884,
            0.7309900685602899,
            -0.8465074604162793,
            0.8740705765310762,
            -0.14507014707745575,
            -0.9722782811700488,
            -0.9709644111086247,
            0.8306726604700104,
            -0.2730929410085695,
            0.9070803161453598,
            -0.14105148579361093,
            -0.37201588082762227,
            0.5962637079589588,
            -0.5883994650246096,
            -0.5913429939824444,
            0.1504219729274208,
            -0.2711715712094614,
            0.4434470902283481,
            -0.4096055108620252,
            -0.22317427441429807,
            -0.16060742331875058,
            0.9615463649008553,
            -0.8572950387512128,
            0.1521341591645349,
            -0.21853368691147132,
            -0.29230419984549205,
            0.7645617435284796,
            -0.6000770561962834,
            0.7818089058577785,
            0.8228343763098601,
            0.6627124814468915,
            -0.14329203482707564,
            0.16001727026353194,
            -0.4490487703487726,
            -0.516371496818716,
            -0.9693510366452605,
            -0.48512748071427636,
            0.33465564639701395,
            -0.47777716006676196,
            0.5679980336337344,
            -0.27873363678635465,
            -0.6020358182197263,
            0.176031950381871,
            0.8118409867545114,
            0.015156534956000408,
            0.288286032720048,
            -0.3336295173590367,
            0.7107986971121947,
            -0.5524073335411886,
            0.4053172258609335,
            0.3316838779075291,
            -0.46393099315997083,
            0.2659882172627169,
            0.15493453871496723,
            -0.15438842185798113,
            0.2674757138633193,
            0.3825104316177325,
            0.047581562522838336,
            -0.881764149140489,
            0.9579496961571291,
            -0.24962998617827056,
            0.3159919240092092,
            -0.2712509244126537,
            0.8891370830967338,
            0.7627357620473093,
            0.8747798797262952,
            -0.21699577152978639,
            -0.7864883463367631,
            -0.7943118103858848,
            0.5617603400818405,
            -0.061552139572241815,
            0.7179265208814797,
            -0.8004452030742552,
            -0.2979447373532402,
            -0.706404838579544,
            0.40047073668963995,
            0.059495328441376866,
            -0.3736719224193372,
            -0.8933110825087052,
            -0.7810781092321377,
            -0.2331956594712263,
            -0.2977174133006158,
            0.3692188778715942,
            -0.9466451857452554,
            0.3070282685280477,
            0.7278377602674803,
            0.6638493502457398,
            0.2544513523812117,
            0.12562049988291338,
            0.7735459309109421,
            -0.14762754993625765,
            -0.9143550262531861,
            0.6071019647130793,
            -0.21147124752146568,
            -0.1311414181067523,
            -0.4149924516646728,
            -0.808374514501202,
            0.9861145114137269,
            0.9713178917194507,
            -0.41721284058066443,
            -0.25623079898690354,
            0.8786640711319033,
            0.6322891776818566,
            0.6237922892401638,
            -0.9522237710757715,
            -0.32585012018924076,
            0.35368804395191356,
            -0.2189112828509245,
            -0.5465839970357389,
            0.025180710123074167,
            -0.6010665081371203,
            -0.2813241766468039,
            -0.46266268281512496,
            -0.9616715131056215,
            0.6395223534752039,
            -0.08944588397747993,
            -0.7214155800934601,
            0.3267587300412323,
            0.3096502903636538,
            -0.645418635089476,
            -0.9294487048082378,
            0.6868860885539356,
            -0.28185049577703397,
            0.2427673392267418,
            -0.12130211375064084,
            -0.7078762097810725,
            0.41029387513589005,
            0.3218242115902266,
            -0.48381455725606953,
            0.04547907558045716,
            -0.17590765400371386,
            0.46155285880374725,
            0.09040471094942587,
            -0.36211583623791127,
            0.7545181527455016,
            -0.2775990578540692
        ],
        [
            0.046337991393813956,
            0.10823278552470533,
            -0.6768902225623282,
            -0.38481966255258593,
            -0.4989554431796017,
            0.05416222850682222,
            -0.8544377423583561,
            -0.3634906779201117,
            0.8830417036412262,
            0.8833988418352704,
            -0.3513084849680741,
            -0.5207622189149218,
            -0.040133886180243585,
            -0.7046205033248779,
            -0.4579743576224118,
            -0.13044798157340867,
            0.1402941441185648,
            -0.7210553120825266,
            0.7127100182375591,
            -0.22574295455751422,
            -0.48959680372008196,
            0.054100639868375315,
            0.585222037781964,
            -0.08472844089176393,
            -0.4613739332488165,
            0.575473934926464,
            0.6122049113717932,
            -0.7998869620024848,
            0.9081044493817759,
            0.3605203314963388,
            -0.7611656914013603,
            0.848072112949064,
            0.9044972523796655,
            -0.7252886211368487,
            0.7850897234226969,
            0.5166057347921758,
            -0.6958319506207967,
            0.670272694872048,
            0.694216328837627,
            -0.3918964097899557,
            0.37694695971911113,
            0.714175878255048,
            -0.545483391179853,
            0.4245216644389401,
            0.2819627008655157,
            -1.0477652088725942,
            -0.1579313833028439,
            -0.8410075833383289,
            0.5572263669734476,
            -0.7445191764798904,
            0.35400900842310257,
            -0.13926678096674738,
            0.25785858456875604,
            0.19847205158987613,
            -0.6270637798669733,
            -0.26331928544010563,
            -0.2332115060110946,
            -0.2527618141542743,
            -0.5411254131738713,
            -0.822438074785001,
            0.11400977732472635,
            0.8803580472941087,
            -0.8461648160175185,
            0.6461050471784168,
            0.14518103549855743,
            -0.8564147047895394,
            0.020349514653648846,
            0.1880778697882685,
            -0.8358059331489199,
            0.2786410178819166,
            -0.013631094753239644,
            -0.23324288795163672,
            -0.19736515880218622,
            -0.70324952420955,
            0.5349774038095045,
            -0.03445396543426483,
            0.346186350150148,
            0.8774741755415659,
            -0.5906731116724669,
            -0.31091857383318267,
            0.7764683670444323,
            0.38083178812112883,
            -0.23046530176898164,
            0.71016204074181,
            -0.537943400094916,
            0.11635900554961778,
            0.9339694269095592,
            -0.8482214015876258,
            0.7515268096306639,
            0.5049173737951923,
            0.2765913544629037,
            0.39270865790366166,
            0.9039085563693852,
            0.9187095566516605,
            0.7642035386414496,
            -0.8881016601028249,
            0.1580076295475622,
            -0.8014813468689549,
            0.5712383162085123,
            0.4179698823038883,
            -0.13487516052250767,
            -0.9542663293022281,
            0.8359330128517541,
            0.6708425618651469,
            -0.49928550348011125,
            -0.93570206719788,
            -0.008795946036764398,
            -0.14442175466208088,
            -0.5438016728092678,
            0.8117768180258789,
            0.7047700393717634,
            0.20286974558127982,
            0.9275087211203535,
            0.7582515963843328,
            -0.011005715615326666,
            -0.42005194012957864,
            -0.38175685539618076,
            0.21454309307401248,
            -0.42777448784074923,
            0.954097093427947,
            0.859936141630118,
            0.8758823963915104,
            -0.7202922960313083,
            0.21157276478459308,
            0.6255411420734778,
            0.6980166361356428,
            0.650604459608166,
            0.9284514205025526,
            -0.3391929876550112,
            -0.8095042142785723,
            -0.12428374126336547,
            0.10056772181368101,
            -0.9974742815764007,
            -0.11974498039693408,
            -0.31321218058894684,
            -0.2635103206633018,
            -0.9331901355742234,
            0.5556891706074512,
            -0.10940039739536667,
            -0.9783161575975278,
            -0.1808828270165823,
            0.662932194100813,
            -0.968583286245897,
            0.5552372311770427,
            0.7548633437035019,
            -0.38275464080854665,
            -0.5137435069128233,
            -0.13700122916212934,
            0.2161103360369782,
            0.8182303335602621,
            -0.4978237228356402,
            0.5029692016203429,
            0.2569174241508659,
            -0.9256838885003961,
            0.6796182113478387,
            0.05638968074045855,
            0.19132014729085497,
            -0.028280015814797867,
            0.3152079422903933,
            0.7199517107591119,
            0.6699836416332212,
            -0.6513301102107915,
            0.5911037933422266,
            -0.4822474941104214,
            0.2725163265425478,
            0.3362002487950976,
            0.8771435045454995,
            -0.09987528203545032,
            -0.648489576705145,
            -0.38026801601080884,
            0.8576650012428774,
            0.1794940334820235,
            0.29964180210122676,
            0.3890928545326784,
            0.6050258624362846,
            0.38030767628084,
            0.1378321141198769,
            0.5769903074324717,
            0.8839971480909538,
            0.5051484702467979,
            0.5797351319312237,
            0.6420095039040712,
            0.5441821825255144,
            -0.9333774058684867,
            -0.34085830089116154,
            0.08893627008811164,
            0.42949921036298955,
            0.13471442876867282,
            0.039853495966856875,
            0.18732749399857804,
            -0.1648359481575257,
            0.3699523090240972,
            -0.33652390741093335,
            0.033328147069237805,
            0.5531662965135096,
            0.19788229678367622,
            0.7384089049478807,
            -0.878423475450537,
            0.6089044853453597,
            -0.6125878100425786,
            -0.1054157138736957,
            0.04279369448852944,
            0.6015574684837637,
            0.6564323370418234,
            -0.31851446953131096,
            -0.2397843109732652,
            -0.5453271447518746,
            0.2360779475621863,
            -0.11759570644407906,
            -0.23254026838316255,
            0.37236781549964976,
            0.7716810403204518,
            0.5372856356028021,
            -0.7399397130825915,
            -0.5677386352626329,
            0.6387447779599976,
            -0.4694905870423126,
            -0.7432487761789146,
            -0.34618628035124877,
            -0.7134431465861942,
            -0.013076610390944885,
            0.8456526695817642,
            -0.6361436959613571,
            -0.27947099384470553,
            -0.17332577411489944,
            -0.9047887195300891,
            -0.36382275966080213,
            0.4156955588952749,
            0.3259414989036136,
            -0.3834340500623456,
            0.4386428412744182,
            0.08735444097602152,
            0.7147001856317664,
            -0.5221638267238368,
            0.7263053393288815,
            1.044457367771742,
            0.8745836479842388,
            -0.03973853544819747,
            0.663089438406906,
            -0.34881944041887764,
            -0.3186540730291613,
            0.6262711148977388,
            0.1801848129111136,
            -0.002544171606093394,
            -0.34358927946955203,
            -0.5124981217491734,
            -0.7582701190918938,
            0.8681914774806213,
            0.2457907046463637,
            0.8814754121983632,
            0.7031605973221956,
            -0.6799270051249285,
            -0.4748599346250866,
            0.017202667355073635,
            0.855412030367187,
            -0.3029544947340519,
            -0.2000322189861175,
            -0.6985541499878063,
            -0.9121760291088225,
            -0.22334824934530162,
            0.9755827693288688,
            -0.9373333461856687,
            -0.9032004028122973,
            -0.5186769555960363,
            -0.5002435827604871,
            0.8825281126572028,
            0.9911057359277515,
            -0.6369714427468289,
            -0.5724072734885992,
            -0.2964969649703704,
            -0.7687886370132841,
            0.7785816438525874,
            -0.6089210416445782,
            -0.5199048818259369,
            0.28746600802981576,
            -0.2864987016442747,
            -0.5141733760506132,
            0.6996234254396232,
            0.0654204691676887,
            0.5563013798987398,
            -0.7155654700449584,
            -0.2402835131979298,
            -0.21590491251194002,
            0.8853639431012446,
            -0.9120623399069934,
            0.6050254843591047,
            -0.4402110017921529,
            -0.7251020037569261,
            0.36016360731235186,
            0.6600249429568181,
            -0.9033713563825405,
            -0.7560712720548763,
            0.6342195142206511,
            0.25236102922798953,
            -0.6662319379368697,
            0.6659673190435031,
            -0.8018797288051868,
            -0.4282805838230488,
            0.23372461172539397,
            0.614789231189647,
            0.35915308084349806,
            0.22728892484505153,
            -0.5607321362708996,
            0.1969524834230013,
            0.2130886410108037,
            1.0314596930247832,
            -0.7512187808941696,
            0.24684474973231815,
            -0.25415221001412025,
            0.14667349707724076,
            -0.1621296559607621,
            -0.50644644864498,
            -1.0485789756138355,
            -0.8528077998769155,
            0.6027628171625576,
            -0.18706729738504912,
            -0.765978779130774,
            -0.07055149953770908,
            0.6721122758607091,
            -0.3983160008269579,
            -0.04345230881736721,
            -0.5832250097182611,
            -0.4683421122520513,
            -0.6699893930757395,
            0.541060985759725,
            -0.9309302430526138,
            -0.5462229000455857,
            -0.9001491657465636,
            -0.61528997714834,
            0.2915369199615691,
            -0.5075166853798698,
            -0.4837096135039199,
            -0.27436487624481154,
            0.9748600554978116,
            0.6216127577941211,
            -0.1215824910985003,
            0.8273648740898168,
            0.004811708833384487,
            0.4350079822975877,
            -0.5614323301665037,
            -0.7640749416979767,
            -0.605249031716697,
            0.05036661040704858,
            -0.051070841056866205,
            0.1403165323228128,
            0.2676100634853579,
            0.813543810472007,
            -0.056495359996023085,
            -0.7679991839167604,
            0.3722086309377078,
            0.9148622442665909,
            0.6351884045617487,
            -0.40120805029259576,
            0.32691350594214347,
            0.28743705076531284,
            -0.226172959345575,
            0.6399742966861129,
            -0.9642990278536644,
            0.9082008794014083,
            0.6399972174433969,
            0.29443959029751626,
            0.7565389622671223,
            0.8288910154986793,
            0.5904393211680513,
            -0.7381086032675453,
            -0.4423289021453663,
            0.31467548123763917,
            -0.34296150465873537,
            -0.6047095238884976,
            -0.7168243325026226,
            0.1467227929441347,
            0.6040961747309638,
            0.6164273627157834,
            -0.9553819318890343,
            -0.9438369254071808,
            -0.809276056335287,
            0.18322616309896064,
            0.10136758881979425,
            0.4709512450399938,
            0.492173360023677,
            -0.19895448992335787,
            -0.3882283049350065,
            0.77644062538528,
            -0.4046426876748269,
            0.01237277086829361,
            -0.10543367061527434,
            0.5834346200410865,
            0.8420275307678401,
            0.9260074382350054,
            -0.5091922568294462,
            0.26069906257452863,
            0.1753748972892917,
            0.22676600327547294,
