[
    {
        "epochs": 2,
        "name": "multiple"
    },
    {
        "activation_function": null,
        "bias_h": [
            [
                -0.7430010586446627
            ],
            [
                0.6585484606641085
            ],
            [
                -0.14007277144868144
            ],
            [
                0.6217871792585467
            ],
            [
                0.9408410235413891
            ],
            [
                -0.06762673466466944
            ],
            [
                0.046074066984638846
            ],
            [
                0.5905071790994171
            ],
            [
                -0.3099286870657801
            ],
            [
                0.7056287406466111
            ],
            [
                -0.9749308626738065
            ],
            [
                0.3401902334058942
            ],
            [
                -0.48500178898130547
            ],
            [
                -0.1998901612129326
            ],
            [
                -0.5352134377034586
            ],
            [
                -0.22988583576269778
            ],
            [
                -0.09065527213966766
            ],
            [
                0.4821893019016669
            ],
            [
                -0.8927454552870988
            ],
            [
                -0.7381563326853887
            ],
            [
                -0.20867916416222654
            ],
            [
                -0.9821545592030525
            ],
            [
                -0.4594695350352226
            ],
            [
                -0.284942086182244
            ],
            [
                -0.7728676208904235
            ],
            [
                0.2115870380114151
            ],
            [
                -0.7017928874560188
            ],
            [
                -0.3664450801535827
            ],
            [
                -0.8299129201235985
            ],
            [
                0.9671082416960743
            ],
            [
                -0.4821948261105528
            ],
            [
                0.08928294839299096
            ],
            [
                0.5632078307505894
            ],
            [
                0.868686251546182
            ],
            [
                0.2305320712482504
            ],
            [
                -0.09200922831882909
            ],
            [
                -0.9927155522995036
            ],
            [
                0.6005694972825202
            ],
            [
                0.16164430545515004
            ],
            [
                0.3925962184704357
            ],
            [
                0.3492682966578452
            ],
            [
                -0.8224393454039965
            ],
            [
                0.8114289145933014
            ],
            [
                -0.710503974465615
            ],
            [
                -0.1522915430105372
            ],
            [
                -0.05215239014100504
            ],
            [
                0.9217999716228206
            ],
            [
                -0.14267453287720133
            ],
            [
                -0.9723383370450375
            ],
            [
                0.253388771690218
            ],
            [
                -0.7563001753500471
            ],
            [
                -0.49338851239357634
            ],
            [
                0.40327787422493944
            ],
            [
                0.1906366594300834
            ],
            [
                -0.2764974067648287
            ],
            [
                0.6052168030893756
            ],
            [
                -0.19483521508007948
            ],
            [
                0.5091979157271702
            ],
            [
                -0.008573463193150352
            ],
            [
                -0.6130471578413268
            ],
            [
                0.8041992120488157
            ],
            [
                0.46840722354710645
            ],
            [
                -0.22247566465631194
            ],
            [
                -0.8638874547816161
            ]
        ],
        "bias_o": [
            [
                -0.6648604613472257
            ],
            [
                -0.6808910918992048
            ],
            [
                0.315606124751099
            ]
        ],
        "hidden_nodes": 64,
        "input_nodes": 784,
        "learning_rate": 0.001,
        "output_nodes": 3,
        "weights_ho": [
            [
                -0.07942487985415618,
                -0.7147168051451883,
                0.49705026206057956,
                -0.4690986605961967,
                0.8179398494703997,
                -0.7323413138774433,
                0.7513549031931559,
                -0.8568071744779538,
                0.8043740828924703,
                -0.7382741175674923,
                0.4960281789724464,
                0.8835482105807312,
                0.48918924904142813,
                -0.07780556292888816,
                0.4500681426646858,
                0.2271524397544894,
                -0.3581201341541052,
                -0.9008419951182133,
                -0.5142610531026593,
                0.8497286794023362,
                -0.9358851486597429,
                0.8420107605098409,
                0.10224788845222547,
                0.7206514577216065,
                -0.49533588018711855,
                -0.14813566430623099,
                -0.2584900769662837,
                -0.17666189665256082,
                -0.8518719316294687,
                -0.3853034152938849,
                0.17611277548454207,
                -0.48906378529712763,
                0.3998542152635799,
                0.0029300472433805885,
                -0.763051548569008,
                -0.2244578668945951,
                -0.9406014385156463,
                0.7561540332387938,
                -0.8008197496284201,
                -0.5165646905725648,
                -0.49617339568381125,
                -0.01668453930681672,
                0.5481043893618938,
                0.7171433865278382,
                0.9432927957840342,
                -0.3828832836292128,
                -0.12390343923124862,
                0.2701196377518964,
                -0.27647067536785574,
                -0.07468432754569229,
                0.16734747734028063,
                -0.6528216865242447,
                -0.11123484023350161,
                -0.05629200505640124,
                0.6939606223552673,
                0.12432944980099099,
                -0.28546091503583293,
                -0.29188525441680874,
                0.7780635790046218,
                0.42785892451510293,
                0.4188153313938113,
                -0.10724054404791805,
                -0.8176855499952215,
                -0.309902640733969
            ],
            [
                0.7672951776603587,
                -0.6965777992520643,
                -0.7399450919775029,
                -0.16477088560400152,
                -0.806462065684862,
                -0.4184856819893599,
                -0.6094890585738544,
                0.213756518524345,
                -0.9535004756051558,
                0.4176667359266621,
                0.7035519367536602,
                -0.8055565013211954,
                -0.31247470310229325,
                0.3997499897804608,
                0.5063005476516832,
                0.12140476020444474,
                0.50142084751203,
                0.6622465306479465,
                -0.11226529715546506,
                0.009335292636570378,
                -0.6221671687262945,
                0.8294611866753258,
                0.3113387025266691,
                0.6535373112075332,
                0.9491956740868005,
                0.25276732200817537,
                0.7072779138140457,
                0.3314830280735134,
                -0.5781534037987965,
                -0.6291279193182479,
                -0.8524054319351895,
                0.9024151465308458,
                -0.5945708694023824,
                -0.11238700038854255,
                -0.6981682957599584,
                0.9818058829372036,
                -0.8888123141034028,
                -0.595002240931156,
                -0.2885339326802719,
                -0.5050090026443392,
                0.1227570410286553,
                0.7941724639978077,
                0.27091591062903086,
                0.17164804252329915,
                -0.18817726128609008,
                -0.22899191083891784,
                0.5713417477416652,
                0.2130167903888432,
                0.5478105339665001,
                -0.924688138963411,
                0.4917936843562468,
                -0.8480273152929624,
                0.18492010567614267,
                0.611881808831137,
                -0.8068293097090574,
                0.057398888204015175,
                -0.6381674388921409,
                0.4439680906155777,
                -0.11936100820557317,
                -0.2463953797928513,
                0.5203688258443958,
                0.4369633187330057,
                0.44378075714152715,
                -0.2064005104362475
            ],
            [
                -0.4447969963563398,
                -0.6883830934168514,
                0.18153515890188446,
                -0.6842981746629381,
                0.25253229216427053,
                0.7839647121688789,
                0.1440723714209827,
                0.4199193911843125,
                0.4327519588673003,
                -0.5893202259031026,
                0.8727372252018281,
                -0.29106449234161275,
                -0.8567185437982159,
                -0.8755361250235928,
                -0.31424417933735965,
                0.5250078705308998,
                0.09493051281404362,
                0.11584029895463746,
                -0.5449284025407184,
                0.04880674267534646,
                -0.10307487583933445,
                0.6771682241169528,
                -0.0994032956904805,
                -0.08646208899158168,
                0.8164718967395848,
                -0.7235849494552676,
                0.531913933895144,
                -0.36358603257983424,
                -0.7858724401173776,
                -0.16939876196809753,
                0.9843586326715649,
                -0.3141742951172697,
                -0.5322122311193783,
                0.38166439468898855,
                0.37641095942794217,
                -0.17919100657541165,
                -0.5651940241353351,
                0.4320100230377679,
                -0.29800688110812623,
                1.0107933380581546,
                0.9423976530389291,
                0.23532802588433657,
                -0.1202982922774735,
                -0.4685118702966534,
                -0.6424637270458908,
                0.6233660025330277,
                -0.546008217475025,
                -0.5396753760156482,
                -0.8676005694120911,
                0.8984965646771186,
                -0.22581754399679646,
                0.32414502947182605,
                -0.6318152457911813,
                0.27714505025440067,
                0.8996272189152268,
                0.14160333659655083,
                -0.06122244733290393,
                0.7583082159817831,
                -0.3346270563604411,
                -0.25998727130056143,
                -0.5193931129238051,
                0.8139757961902044,
                -0.20568014543191382,
                0.07991921944599709
            ]
        ],
        "weights_ih": [
            [
                -0.9334835839648823,
                0.44435796816407835,
                -0.9897107903987676,
                0.6141334561325598,
                0.6189959355174441,
                -0.8034134831934086,
                -0.8104952478310656,
                0.31154968935660143,
                -0.7060477203511775,
                -0.5616964901192607,
                -0.6910201174484469,
                -0.5455033858037293,
                0.05845133427157626,
                0.1503115634354175,
                0.530541473990142,
                0.4665806844699685,
                -0.29536110441137,
                0.3554263802031443,
                0.5497689426983356,
                -0.1833619002569802,
                -0.881780041869352,
                0.46387365235421707,
                0.6783364915951082,
                -0.5534047138727818,
                -0.2167113564876835,
                0.9540767690767267,
                -0.264149216794062,
                -0.7866175992080655,
                0.40417852346956984,
                -0.24214737524223817,
                -0.4065954346607827,
                0.5577381255164763,
                -0.361437873230462,
                -0.11998456348342104,
                0.6063822049233479,
                -0.4102047927216193,
                0.13104330347642137,
                -0.44562975150968176,
                -0.7203415677239025,
                0.6951775612275948,
                -0.2655897387689596,
                -0.23572358471838706,
                -0.20012229217093003,
                0.8010451597091574,
                -0.39508112086149566,
                -0.4298029392168711,
                0.6402970848683728,
                0.44236737299325063,
                -0.6010479572329598,
                0.8942657209006395,
                0.7209124972854305,
                0.1776066633937476,
                -0.048440712381795877,
                -0.2585458444982624,
                -0.7846806724093474,
                -0.29478688228097183,
                -0.8505655873188311,
                -0.8865915419369671,
                -0.7942183706637599,
                0.15825921160128362,
                0.5082470300842462,
                -0.06366748230767387,
                0.9280841454308147,
                -0.08954007185524895,
                -0.2606114614927409,
                -0.7979690115921285,
                -0.15702213616292812,
                0.8510410941485462,
                0.3060296615675589,
                0.8525267150190797,
                0.17255649472926102,
                -0.5170428663670411,
                0.75954879897432,
                -0.21353130015213687,
                -0.999368531160459,
                0.8547848888948499,
                0.17824600406701416,
                0.9588812176938027,
                -0.7482820004918543,
                0.6982859142279506,
                0.6126718256023871,
                0.42058161850928283,
                0.13735038730117854,
                0.7146683828560922,
                0.024651305153421076,
                0.3912511711739349,
                -0.18526614952346349,
                0.3572240487890893,
                0.5785148683012279,
                0.8779512954935493,
                -0.1424545133740427,
                -0.05363510273603452,
                -0.29903767008101956,
                0.7804977639837194,
                -0.9348264396339666,
                -0.8577383998788835,
                0.9566379695511557,
                -0.306355503043392,
                0.967282090649468,
                0.8679183870215225,
                0.8224086028484908,
                0.7422905763045983,
                0.6671233502658368,
                -0.15178976872643735,
                -0.6778969220091821,
                -0.8092247582244945,
                -0.020528871930208626,
                -0.20355579904016016,
                -0.5307197787691825,
                -0.870217343906681,
                -0.9333184711270979,
                0.25854966200544793,
                0.12804345722226682,
                -0.48942799818736116,
                -0.31733379027724057,
                0.6518980935472125,
                -0.6150820634487835,
                0.7573186539598254,
                -0.708071946190396,
                0.4867408300140313,
                -0.5970344184817338,
                0.26735473918401687,
                -0.03902263958022753,
                0.8797128274743288,
                -0.17875039473308404,
                0.4290813989375931,
                -0.32772263353184683,
                -0.01300987950517305,
                0.8551793324370461,
                0.732047758438698,
                0.4079077782446833,
                0.8639934557037986,
                0.8114671731685502,
                -0.8410780172357205,
                0.9842395241444355,
                -0.009108689761542488,
                0.0880310208484944,
                -0.590027258118309,
                -0.026704895913966915,
                -0.1509906796169365,
                -0.013495635475610663,
                0.3324914050600729,
                -0.930798387263812,
                -0.9970563124734634,
                -0.233165613360378,
                -0.19661248965322958,
                0.18397224176100738,
                -0.2981958146532227,
                0.8099263151976777,
                -0.689259332520321,
                0.6383196210174193,
                0.9773445763310197,
                0.4288664102208075,
                0.024494714954182765,
                0.7752900725833043,
                0.5844616061817444,
                -0.7633034502672716,
                0.9521657502990877,
                -0.11090011253872513,
                0.5585930384212554,
                -0.24147372500123093,
                0.8609317349134633,
                -0.08350527014609821,
                0.6663860625512411,
                -0.8424672255500919,
                0.8503224185668558,
                -0.17759378948733312,
                0.333112744456878,
                0.43797813189247936,
                0.1836811783685857,
                0.8831651941470503,
                -0.8721387782526577,
                0.7615374499457882,
                0.7985862383835611,
                -0.3792762766445932,
                0.6146086394007151,
                0.5782521665999643,
                -0.8662575500103671,
                -0.19020057543776492,
                0.44639132327361236,
                -0.39897368460230653,
                0.9502709819225418,
                0.49422790691919727,
                0.8180855209586368,
                -0.3185631863553784,
                0.7446026920103079,
                0.13288395558139532,
                0.5330623295444495,
                0.01744409847938094,
                0.18235371808086734,
                0.6727544781634082,
                -0.7461836188036304,
                0.8286385564239859,
                -0.5083314469145458,
                -0.131723206676263,
                0.9628236252312561,
                0.8968953000426294,
                -0.36452997458439007,
                0.27973520035782,
                -0.18505941294911127,
                0.6486806644506228,
                0.3590943691129393,
                -0.30405023899817635,
                0.903166920334104,
                0.2990841031656936,
                0.9873586693779515,
                -0.9048877921081099,
                0.6497380124279716,
                0.08976150876789422,
                0.08604492457486315,
                -0.6767423477631241,
                -0.5094388501397871,
                0.38869463517299174,
                -0.35905924134120437,
                0.4915395738473196,
                0.15164988891066913,
                0.8687127358629584,
                -0.473177691759469,
                -0.05348666008915543,
                -0.4453638039453317,
                -0.146792359016946,
                -0.8451805399829002,
                -0.3237166612423678,
                -0.4526561759270922,
                0.8803568465450244,
                -0.7031876160155806,
                0.21746150248970886,
                -0.7012649163050927,
                -0.5646660670916346,
                0.11735035544319343,
                -0.38901521362284736,
                0.8899547607663801,
                0.48532914265956173,
                0.3878572505385133,
                -0.2443024055534712,
                -0.2791737697806275,
                0.1526985316261438,
                -0.8225221123149746,
                -0.298748978945278,
                0.015237872551578931,
                0.9163094726367637,
                -0.4682169352470058,
                -0.6589620668146376,
                -0.15484697028716565,
                0.08929987411858378,
                -0.3391966078295158,
                -0.5328274770085096,
                0.35903631275266956,
                0.5373916673543089,
                -0.7231746854071864,
                0.3968037607465542,
                -0.8916107076914292,
                -0.37254846665904684,
                0.00013495409576365315,
                -0.4237021285178998,
                0.3959217755329036,
                0.22445405862832662,
                -0.35444145471146193,
                -0.008136058569556277,
                0.6869653050945536,
                0.6813948823678523,
                0.24410506663030482,
                -0.03606458502541141,
                0.8413342871937152,
                -0.6391592832643263,
                0.8916403837193315,
                0.4511820501641787,
                0.3991300841586125,
                0.6820742222423647,
                0.4985274682504636,
                -0.7181988049219881,
                -0.23617193529772015,
                0.7828064415294839,
                0.7111538058450655,
                0.396161014877134,
                0.6788608402529135,
                0.8028129103279834,
                0.49586417867326144,
                -0.014256846695267002,
                0.6881080140615832,
                0.7093301668348697,
                -0.883316893738632,
                -0.9525320325101577,
                -0.6518761349346154,
                -0.6517570233101727,
                0.44054527791991416,
                0.6995146626556455,
                0.7831961801472315,
                0.6837596369746707,
                -0.3391209335822751,
                -0.9367888095689308,
                -0.41656201427377226,
                0.42906979295353964,
                0.12220752524502583,
                -0.23844169448501054,
                0.19028069795871919,
                -0.5511702513108017,
                -0.4098537170577372,
                -0.5703874754314773,
                0.6348994514143511,
                -0.12597137870222228,
                -0.5757656360731872,
                -0.9677518425335715,
                0.31732477359818173,
                0.29153820793975466,
                -0.5018072924245861,
                0.6843744204047368,
                0.15813921013041018,
                0.10768187492361994,
                -0.17917279142521764,
                -0.10715345299675649,
                0.7375390737416071,
                -0.2151480947633623,
                -0.3361225143439152,
                0.9736702059496758,
                0.6363211609205688,
                0.39087073756784657,
                -0.8049662731730813,
                0.854290824600776,
                0.5304032963295172,
                -0.5738600364077168,
                0.20724641478249817,
                -0.6162089336531726,
                -0.42732718970511,
                -0.49162766635801036,
                -0.8516846205930165,
                0.040703070231296594,
                -0.729579792774715,
                0.6395511870863485,
                -0.5071616209745256,
                -0.7961301665712359,
                -0.43455876890807615,
                0.9051799356326201,
                0.31521981355277595,
                0.2474449541340596,
                -0.9416945170738813,
                0.4603219047813123,
                -0.4658154887824177,
                -0.1392961669500874,
                0.8051458428963473,
                0.7225752430009249,
                -0.643085093192042,
                -0.9527027100820576,
                -0.7037718462906964,
                -0.03581705211662265,
                -0.7972747668586796,
                -0.7371889508356424,
                0.9514835548564473,
                0.8894261918197803,
                -0.7661901042230829,
                0.5468632489951025,
                -0.9801627845373299,
                0.7167864528901554,
                -0.045583772408127415,
                0.12134552355505945,
                -0.8596381375627065,
                0.9789103058109159,
                -0.6383286242096545,
                0.46825815565945705,
                0.5615230003850238,
                -0.25079469613307204,
                -0.45793140867604487,
                -0.8070949708328177,
                0.14360836685866515,
                0.2525774410645938,
                0.8853624268231319,
                -0.3593590762290116,
                -0.5848644240992305,
                -0.5197847503737276,
                0.9876305350489558,
                0.705360647835013,
                0.37470441958769163,
                -0.9310919775415257,
                0.36012063761183044,
                -0.9919159835855812,
                0.9259804915855236,
                -0.9691181193117462,
                -0.8248492463393505,
                -0.3674884645870578,
                0.1538841129126885,
                0.5171000598014003,
                -0.8456383309947683,
                0.49257533723234237,
                0.8664311780855752,
                0.5061931250974668,
                -0.46133364912035624,
                -0.32567458425322693,
                0.14074756177173936,
                0.39246837555444375,
                -0.6797891805688483,
                0.01666617960593768,
                0.9799066474155718,
                0.12448185154260408,
                0.19314055897115123,
                -0.8315971226991314,
                -0.21194362152151802,
                -0.2501246222536828,
                0.8636425852521165,
                -0.1990380479726943,
                0.8858598216225749,
                0.39624820367434627,
                0.8795451890237155,
                -0.9274863990465287,
                0.2944249783280244,
                -0.9024313296539155,
                0.8215872767737974,
                -0.9824690550024049,
                -0.6312678286704435,
                -0.510103481499484,
                0.9701143349121444,
                0.022425719520248764,
                0.5397155472589309,
                0.8263257633966348,
                0.5043989902890159,
                0.5269510619234418,
                0.6299124697241241,
                -0.23460052299950587,
                -0.3073336802993104,
                0.7746327201389565,
                -0.9695295529393708,
                0.5827344717501566,
                0.2712844562814162,
                0.11702426353395394,
                -0.23190234537051277,
                -0.11047054827533309,
                0.12216340917712645,
                0.9421465312957265,
                0.38201399595690755,
                -0.30279848715211066,
                -0.42322623426300504,
                0.001461322102748908,
                -0.960592094871846,
                0.4314930113244205,
                0.12118704241719665,
                -0.7341439705474263,
                -0.04112196566127751,
                -0.5877233873897468,
                0.994088295149664,
                0.35630032637771275,
                0.6309600738320142,
                -0.6609892807886368,
                0.1275591343567899,
                0.9067853064852369,
                0.8431782555058889,
                0.6549032455345232,
                0.24416900036734812,
                -0.03862541181956008,
                0.6480100456894387,
                0.8892032946812554,
                0.6613602660223615,
                -0.7214978662845418,
                0.09291597947540899,
                0.8507394287084106,
                0.3792393305238323,
                0.8331425799555457,
                -0.6346087403919293,
                -0.39257734043382064,
                -0.7133828026860124,
                0.20318666391891427,
                0.7693773547495211,
                -0.423056005341412,
                -0.4040869190975962,
                0.6155593470170603,
                0.019360692708122112,
                -0.29520018756143696,
                -0.9691837341663381,
                0.15990274452095907,
                0.7960399961656943,
                -0.016344396455851482,
                -0.36030147429895915,
                -0.6641872609447511,
                0.41472048378781773,
                -0.0855756430274554,
                0.10320088129542608,
                -0.34262858127094264,
                -0.045949245050543396,
                -0.7525209587282673,
                0.04556352915562544,
                0.3720698032493687,
                0.12365758190507392,
                0.8720679662294434,
                -0.958721717108735,
                -0.7491627195624213,
                -0.7589436129421399,
                -0.7382372113695773,
                0.26257379187784097,
                0.21731587910137634,
                -0.766869974755998,
                0.5306360053980218,
                -0.8565271970375642,
                -0.10914576981121576,
                -0.9032614632002052,
                -0.3166158311085839,
                0.4480203632814357,
                -0.49034556316594485,
                0.6925244313483031,
                0.22408011135793612,
                -0.04979513833700539,
                -0.478187486777098,
                0.08332222785961206,
                0.08289021290289943,
                0.8604709835312034,
                0.5219398174846414,
                -0.9194340525702853,
                0.8285169897504936,
                -0.24257473626442438,
                0.2728948461500512,
                -0.0986554450710377,
                -0.05029899618154751,
                0.11881033273326731,
                -0.07201999540796598,
                -0.7792046901513184,
                0.5787957420977046,
                0.6085086619933606,
                0.4469222971150502,
                -0.6595888307337917,
                0.8574269599946815,
                0.3303490855059115,
                0.14294554269029858,
                -0.9768560872280888,
                -0.05763751295877075,
                0.8326315966034484,
                0.39383657923326665,
                -0.5277345791689501,
                -0.11688278439936309,
                -0.9004152594626932,
                -0.6519357736152328,
                0.03127137100872742,
                0.9958947043721804,
                0.1018783525310374,
                0.4654705408740488,
                -0.014548213766084223,
                0.4469596894477972,
                0.9845915571115252,
                0.9211466758522628,
                0.9543645483690312,
                0.49915164902336356,
                -0.611787542445961,
                0.5543266500483626,
                -0.6834739584679882,
                0.9214843502154234,
                -0.059516264483258786,
                -0.5503428463704576,
                0.5659438069778961,
                0.7761480996042924,
                -0.7019931775792871,
                -0.42709410406661136,
                -0.37610735029412024,
                -0.47035318791028996,
                -0.5798064861464459,
                0.947400572717235,
                -0.7869484814075359,
                0.5464188502677724,
                0.8540449742430505,
                -0.7442054564509449,
                -0.23529227975101366,
                0.8262128692234612,
                0.18838067102904044,
                0.712211989675285,
                -0.7430875645504307,
                0.6740845116340788,
                -0.2707996000450828,
                -0.9886041929604381,
                0.9159989498817117,
                -0.14081475626901707,
                0.46415753612396765,
                0.5495114104491801,
                -0.0001664340605630929,
                -0.6680222792484757,
                0.692131261891586,
                -0.8641249698245071,
                -0.32272381933852634,
                -0.7127968107312714,
                -0.6924938856763263,
                -0.5498422408185062,
                0.10401027396577839,
                -0.21271800917858713,
                -0.011661233393764976,
                0.6896501277053889,
                0.8022105883726712,
                -0.8816201825025786,
                -0.5051109083548945,
                0.04736346928384449,
                -0.92999781243027,
                0.23664205103047253,
                -0.7425642113111195,
                0.21314582019621472,
                0.711175355264489,
                -0.8355418334855955,
                0.7533413287599995,
                0.9552622767509674,
                0.21568328214112492,
                0.7563469459430063,
                -0.9939233934712047,
                -0.7980053639524544,
                -0.49279423205301975,
                -0.9542106660680655,
                -0.0378285833445442,
                0.7719374562612401,
                0.3840426754041608,
                -0.9325335075777108,
                -0.47486259240225426,
                -0.353529817277058,
                0.9887914064821411,
                0.2295596230528004,
                0.5176746102395873,
                -0.3285030363207695,
                0.49313194701836827,
                0.9666700153608593,
                0.2168045190651839,
                0.3236065692806517,
                0.0816746181540334,
                -0.3958082303504189,
                -0.5588403812443717,
                0.4141062320363901,
                0.2806197673063442,
                -0.7138310814230635,
                0.3100600557170493,
                0.9747927534172137,
                -0.569043190142289,
                0.9257261395816929,
                0.9822524408588956,
                0.3012827210631972,
                0.7139197597158584,
                0.9803755534480177,
                -0.08523070987651374,
                0.48192769924397655,
                -0.6181326557461887,
                0.08153182566102161,
                0.06129932031240169,
                0.7884493535398818,
                0.8093150462889621,
                -0.27159810576530913,
                0.2979953716538728,
                -0.4323887329555907,
                -0.058825369922021316,
                0.16175207940502473,
                -0.8601784832836296,
                0.2467698783624925,
                0.25504111724231804,
                -0.059309391102150395,
                -0.09261010302341871,
                -0.5103389501036014,
                0.7206258305724447,
                0.8808724962066197,
                0.3849278008506147,
                0.22784126639809027,
                0.9302576451733504,
                0.3681780164307808,
                -0.3413779091033232,
                -0.6573271413912922,
                -0.9754138218896724,
                0.3707795267674884,
                0.06612379304629859,
                -0.9928561947492079,
                0.39655646809836226,
                0.48281887007504076,
                -0.7817217670274526,
                0.3727602824097182,
                0.928648737265086,
                0.03319022035569982,
                0.4091338479060386,
                -0.799594227039134,
                0.23427500297563653,
                -0.26458445832971206,
                0.7053165028476499,
                -0.26030093109094604,
                0.35244668179367866,
                0.6940243581362207,
                0.6574042678232678,
                0.4781014059209566,
                0.7308076021695469,
                -0.9034926085273507,
                -0.4453881001254067,
                -0.6851711358388474,
                -0.6820634396358636,
                -0.13889740175673684,
                0.02657109336520191,
                0.3366075621587401,
                0.20562537186801538,
                0.3833120814044992,
                -0.7829521519029399,
                -0.5269550279476276,
                -0.11170336411758686,
                -0.7019903529988759,
                0.21476888633423385,
                0.5285836657051081,
                0.9507823115012327,
                0.31563800022190014,
                -0.9648144615285927,
                -0.4547482129266792,
                -0.7323984809604902,
                0.44535465330340407,
                -0.6490025445297583,
                -0.3084176863326385,
                -0.9376263818221967,
                -0.501190660989938,
                0.09031118773739753,
                -0.6506167830572135,
                0.49075722162957036,
                0.44763793803909135,
                0.3291789208039995,
                -0.8167156854668887,
                0.1501864401207318,
                -0.9881569489831095,
                0.8419801581478248,
                -0.6480851738218438,
                0.376291821634081,
                -0.26427427514706203,
                -0.5059308671145751,
                -0.5085421262612796,
                0.7341323435291129,
                -0.7712566865900926,
                0.40902037284700926,
                0.3076649252382222,
                0.5839855883662785,
                -0.1545162094472891,
                0.9459028789258215,
                -0.8262091388978793,
                0.3869367374448555,
                0.9589908407912439,
                0.4366932266259216,
                -0.11586564326098046,
                -0.6421232779696987,
                0.7357011420720994,
                -0.865271809351492,
                0.6691764317548696,
                0.692402315802807,
                -0.08533846018151989,
                0.3099395079844946,
                -0.2508551864438165,
                -0.9958009295286518,
                -0.1482545430761112,
                -0.9310079048711108,
                -0.7207559134700123,
                0.2967276090976618,
                -0.8763997436032345,
                -0.3367672480905762,
                -0.2530012311144953,
                -0.48737487451004635,
                -0.28634284778043784,
                0.7897173086613191,
                -0.5737265362858229,
                0.7478746577794433,
                -0.5917735699094013,
                -0.30846130572079467,
                0.5068699651381723,
                0.29306514322357435,
                0.2413686205134399,
                -0.8012518667395393,
                0.21382244326498315,
                0.6264488986202595,
                0.27140916653910585,
                0.10630917632767455,
                0.1492308339520187,
                -0.5694572658855845,
                -0.07551101413470881,
                -0.3004818632404609,
                0.11960108606550948,
                0.6398781332815395,
                0.6838573936977508,
                -0.08913419592233593,
                -0.3107398569283082,
                0.7667161744631572,
                -0.20151409064913176,
                0.4037334928111458,
                0.23039681771522288,
                -0.08174482063305064,
                -0.031573722437279315,
                -0.13096745078795594,
                -0.681934031106223,
                -0.9095638932230983,
                0.0033947533916330705,
                -0.3160898725736394,
                0.8324307778394291,
                -0.2712202424701764,
                0.6959703779207356,
                0.030648160334990748,
                0.6233450505100517,
                0.23144761490806084,
                0.9652914523589711,
                -0.038607680953092825,
                0.2667396392766588,
                -0.7655812639772146
            ],
            [
                1.0032167759613724,
                0.5284751568745707,
                0.6593008073529152,
                0.7505004710199505,
                0.9205086477971363,
                0.5903800648155264,
                0.8883353495697113,
                0.28314876199197886,
                -0.6471462988632333,
                0.3317085720720548,
                -0.8747258264978448,
                0.9602089611901898,
                0.7693989666214207,
                0.7488022839816908,
                0.2837720247778313,
                0.5599487862873589,
                -0.5924820677465168,
                -0.5196493239288296,
                -0.4643875320310415,
                0.7699329462246793,
                -0.8416231725626406,
                -0.25130160906523197,
                -0.9710415683751847,
                -0.6856587077307217,
                -0.05555240877624428,
                -0.4343887016719061,
                0.3356949588906473,
                -0.9620165283344124,
                0.5730974703790666,
                0.5920706892889745,
                -0.04024940828335873,
                0.052637570965230064,
                0.660231600208113,
                -0.9085813625596799,
                -0.3554391533487552,
                -0.37289183476091975,
                -0.35323550138902027,
                0.6282578485035519,
                -0.07292427276599571,
                0.546944789601735,
                -0.6665091119211108,
                0.1433868445276367,
                0.6299865708744402,
                0.8000663737480658,
                -0.5623347737996682,
                0.7104384428730166,
                0.9921107076837944,
                0.650651482238365,
                -0.4680187195608459,
                0.5037376175261155,
                -0.8256514233331695,
                0.6063813008932598,
                -0.863596758930004,
                -0.6641284500411759,
                0.23427229523992907,
                0.0281252163418589,
                0.5608670370938778,
                -0.4920073637784822,
                -0.38488481685953757,
                0.41234378171460395,
                0.05296874822090115,
                0.026942276226895847,
                -0.3060893673510815,
                0.06766747074451125,
                0.697300989539342,
                -0.36344374294728726,
                0.6807679325785839,
                0.6580434905065128,
                0.3221130176111355,
                0.48940002369171426,
                -0.7031932793385277,
                -0.5136983109799192,
                0.7213177968262596,
                -0.9735498725416725,
                -0.5136418635091758,
                -0.3388582194243775,
                -0.4107874363091523,
                0.767229970570019,
                -0.4104937427768086,
                -0.3375375614737344,
                0.042809537094640936,
                -0.16192637234527682,
                0.12498393408922942,
                0.8499523852731883,
                -0.19110942247865603,
                0.9410000052105395,
                -0.00047423625894580306,
                -0.7960353973908942,
                0.42178109996698776,
                0.11875297320348349,
                -0.029958060183308946,
                0.47569557644177646,
                -0.4120797050189907,
                -0.8925655565938282,
                0.37436650201488997,
                0.5280925347516837,
                -0.5531948664634829,
                -0.5983607780203342,
                -0.26741618230357295,
                -0.0013250593201891848,
                0.6930049158876723,
                -0.9327639301316305,
                0.5786334750273148,
                0.8970520934566895,
                -0.10239322593765224,
                0.755410227355662,
                0.22549178541641057,
                -0.2643481044318354,
                -0.6715211648370621,
                0.41971610170863033,
                0.15782598576095636,
                0.12621136676451156,
                -0.7454753178217604,
                0.9080967276724775,
                0.7374111311645929,
                -0.7802616646857659,
                -0.0930214821621361,
                -0.5418583315283687,
                0.2573603431080134,
                -0.5355670496506061,
                -0.4144490543352711,
                -0.44432473028900216,
                -0.652236831924371,
                -0.9605688706876299,
                0.8754972451853655,
                0.5093388042560384,
                0.5539653386051395,
                -0.2976040628079342,
                -0.7360591213120582,
                -0.36095122285384174,
                -0.9694523428211282,
                0.7854454321813237,
                -0.223145358342535,
                0.41308329975611946,
                0.07062603303133143,
                0.9672686363553492,
                -0.1438586484695961,
                -0.18796199140303282,
                0.9028987388664151,
                0.7945499644768381,
                -0.9601288562736012,
                -0.24429258474405416,
                0.5817727322363011,
                -0.6386930257725008,
                -0.23536714433035913,
                -0.6041425966040791,
                0.050766085192045965,
                0.6531957370072052,
                0.3547595750693838,
                0.9795896219128967,
                0.48115756026122797,
                0.08767217300162274,
                0.4894534368785026,
                0.5969803305952299,
                -0.6951694932428455,
                -0.6430586317216358,
                -0.6454323169645535,
                0.9034807156972244,
                0.24887354771245931,
                0.024138993893034717,
                0.051102645101441996,
                0.4063995459726631,
                0.6357210485124369,
                -0.009367662570380623,
                -0.7949811176899362,
                -0.30207119633788965,
                0.9654903075401035,
                -0.10502861714954165,
                -0.4947034049833009,
                0.906044847072867,
                -0.3394732669041151,
                -0.8282685766913052,
                -0.49902319034493037,
                0.24930533227257268,
                0.8063669572998312,
                -0.4672796935737614,
                0.1670092804413853,
                -0.5623500940310502,
                0.6823491994969165,
                -0.6749709517116361,
                0.19208179922435153,
                -0.397512213568356,
                0.7363594365678957,
                -0.7993802803790637,
                0.5364945291293488,
                0.9013201955321171,
                -0.5251872161584573,
                -0.011676959758523321,
                0.49320067086890734,
                -0.43663389709503914,
                -0.647837623336212,
                0.3634282244264107,
                -0.26207808233060204,
                0.5470874314449445,
                0.028298839794828647,
                0.19904595804999348,
                0.8330890306581451,
                1.0074674190497164,
                0.5901449266271884,
                -0.8913945515187223,
                0.15606303121634432,
                0.7716743104967677,
                0.706529031699324,
                -0.3431252082344181,
                -0.8013174944217867,
                0.13413938261082542,
                -0.49375710934533895,
                0.5377288036750557,
                0.24059000208356854,
                -0.48720185377479425,
                0.6647054573322032,
                0.31842029047467196,
                -0.07248709382456854,
                -0.2689931310539952,
                -0.7545228155067247,
                -0.7693716124523817,
                -0.8156568933375192,
                0.9182960177621423,
                0.7505006794092942,
                -0.7239234545639717,
                0.8892839080615048,
                0.5184274579178211,
                -0.9413113517703401,
                0.9531808368074044,
                0.6474695202225194,
                -0.22245671994098246,
                -0.28554554957646194,
                0.4323692890471972,
                -0.3886102306002704,
                0.2996150208587248,
                0.5715861004627854,
                0.20134326721191476,
                0.2186572593657052,
                0.7482942220707781,
                0.09548776346089251,
                0.7976776986532443,
                0.998946619239984,
                0.07056381908054861,
                0.016791357031935576,
                0.008426927894553057,
                0.08298679334541202,
                0.8493557723780855,
                -0.18882076238306789,
                0.4810034160161894,
                0.1254223564673008,
                -0.6058379115501632,
                0.19793412714034722,
                0.8774210741462201,
                -0.7837060535214874,
                0.023279253789905977,
                -0.33000332035732527,
                -0.8392528045304537,
                0.24603643414782228,
                0.3584379657541705,
                0.7576336632735725,
                -0.6223675702704116,
                -0.18071142087650294,
                -0.36280592385929844,
                0.675659508138975,
                -0.37224528364525894,
                -0.7216946582041905,
                0.7680543884530074,
                0.3486296992845272,
                -0.2663264479073524,
                0.5565901342499985,
                -0.3054386745703541,
                -0.7456101633825596,
                0.8343465872966502,
                0.23802966160493355,
                0.5844246024833394,
                -0.2495268241861507,
                0.5709312363582871,
                -0.005156523008188935,
                0.8075138680991691,
                0.8651232153096823,
                0.25124485911305516,
                0.16937833881704367,
                0.15013329547470924,
                0.10764234528070213,
                -0.12274264849620226,
                -0.9830723753833128,
                0.5031241632256255,
                -0.14678878289524722,
                0.4750418560659765,
                -0.510523911957293,
                0.2874454070196057,
                -0.3294285007183294,
                -0.3164606196844242,
                0.3889912727423554,
                0.6968937076080292,
                -0.017921913213285623,
                -0.20669472639618702,
                0.06610403391905834,
                -0.027025619229903066,
                0.6048182009194707,
                0.8942732729299547,
                -0.4213431677669708,
                -0.912636390947924,
                0.9581236436882105,
                -0.38029990856877777,
                -0.43881572945185093,
                0.3092092877639023,
                -0.15463652637099648,
                0.2766072130776884,
                -0.3723310340224727,
                -0.5177427254713397,
                -0.7199228079659304,
                -0.17591945599644299,
                -0.12097790963968286,
                -0.15578136551097133,
                0.8533951726514903,
                0.3818935804194307,
                -0.592222053975925,
                0.5901459600562622,
                -0.07468215506328474,
                -0.5680320085689008,
                -0.5721378242309688,
                -0.721196868358475,
                -0.7506121885043568,
                -0.6170901200308565,
                0.39750392558876935,
                -0.49355273350214507,
                -0.8237856190237877,
                -0.7482904258534716,
                -0.292670384817128,
                0.548552233207781,
                0.33938961917314264,
                -0.4942624769467523,
                -0.5432028634221797,
                0.7960815902052364,
                0.705858553655552,
                0.558701192862452,
                -0.7067889065611909,
                0.6624269687615246,
                0.738580038969234,
                -0.18222241045232845,
                -0.3584953834553461,
                0.15195308135124166,
                0.5256787994509085,
                0.8532294204728726,
                0.9979291064975041,
                0.04932385769440947,
                -0.47467905271566174,
                0.07255319502456482,
                0.9539183588639537,
                0.8614383202384813,
                0.4899173053490483,
                0.45723807716711273,
                0.7590666460143631,
                -0.1011885062322318,
                -0.0828682680331366,
                0.07291424027446626,
                -0.7019916569088048,
                -0.9109153837282761,
                -0.791836792329694,
                -0.7539524679194799,
                -0.6513358122096967,
                0.29881526661784064,
                0.702359247163961,
                0.38459954600784013,
                0.9942181053462437,
                -0.4320653220896824,
                -0.607638150984193,
                0.0314216494432187,
                0.9369028585733605,
                -0.4424621604323548,
                0.578912315700795,
                0.5135582071460554,
                -0.1141670181399969,
                -0.5914265651046152,
                0.7185998414706837,
                0.00982756055920237,
                0.4211076380132838,
                -0.2849835891996303,
                0.6268607277324713,
                -0.607405391309271,
                0.5723893009270998,
                0.36980896679886593,
                0.9472390995340872,
                0.9414426401171169,
                -0.061666183822658954,
                -0.49740428091976474,
                -0.02642770451250601,
                -0.3485701334816041,
                0.36828490622435706,
                -0.07471061850119219,
                0.07566232989193104,
                -0.9135292658677493,
                -0.40789222220672583,
                0.8036547411983692,
                -0.12220222989359539,
                -0.7514594258214173,
                0.5023706287049843,
                -0.33990339888412074,
                -0.64843865078067,
                0.9508936132836496,
                -0.9168803315031911,
                -0.1903646800011923,
                -0.36886152617226103,
                -0.6109851747870424,
                -0.2321323238518497,
                0.48307412100445674,
                -0.7678498030937063,
                -0.04152904824328612,
                0.6632405467806807,
                -0.8577921387828078,
                -0.3902308191874638,
                -0.3608827188002973,
                0.4277818407296152,
                0.7778540483030827,
                0.03616491181807009,
                -0.484233490908361,
                0.953964788784345,
                -0.4047138975997706,
                -0.5351766809673123,
                0.29210694899349654,
                -0.7691461293480807,
                -0.7724455441340905,
                0.3609896345252638,
                -0.3090932406865307,
                -0.2679200581517515,
                -0.4742922664431832,
                0.38940786350225914,
                -0.121413133152934,
                -0.9815771216530874,
                -0.233494173481169,
                -0.8352472688751679,
                0.6828004400571862,
                -0.26649064720660504,
                -0.9597878138834427,
                0.4486158559766845,
                -0.4397978714528512,
                0.8363630224032635,
                0.09800123840355009,
                0.7675711883728027,
                0.1590801809643193,
                0.9994520955697044,
                0.7762132347417471,
                -0.500465180826029,
                -0.39131064392285647,
                0.38372340448972114,
                0.27956517484506493,
                0.2392817778560241,
                0.6793872777509862,
                -0.15515629081249832,
                -0.6727076435036498,
                0.5357715073170073,
                1.0129936268933115,
                -0.8416568409244274,
                -0.5931979799018846,
                -0.6849164646191823,
                0.19692375744952217,
                -0.4198680892703841,
                0.6412769261019076,
                -0.49400274078429346,
                0.12888677642543467,
                -0.7477832905488657,
                0.6280074010380776,
                -0.35817536327118604,
                -0.5991902894450852,
                -0.4177314081724758,
                0.34511159972394667,
                -0.14059237463567004,
                0.4497164319197891,
                -0.10269695502115554,
                -0.1722975045291352,
                0.5729016013446175,
                -0.5521833476791688,
                0.6557487775042946,
                0.618447060095851,
                0.02420355203180732,
                0.8254519261441556,
                -0.8163381829548042,
                0.3053195327381449,
                -0.2561265640748276,
                -0.8393765626239402,
                -0.9826962872859524,
                -0.06459261253322132,
                0.1581556343161754,
                0.03093488159679708,
                0.9863135134460964,
                0.974959505422647,
                -0.7668315138328472,
                -0.3164610082573801,
                -0.23749918239921353,
                0.9872667003381499,
                -0.975603020043961,
                0.5571746293898869,
                0.49715929742499554,
                -0.20162809152539765,
                0.3192879189741712,
                0.25602342952624246,
                -0.6597454018058819,
                0.3906963323686648,
                0.27866011033337656,
                0.6456514424458779,
                -0.7397039970007939,
                -0.5801406031240125,
                0.7105541436097171,
                0.7284609885583019,
                0.43772031940181744,
                -0.229523093271697,
                0.8342467337324984,
                -0.7631640217147497,
                -0.960533944672596,
                0.10488046073867906,
                -0.8861114989763578,
                -0.8282052313257385,
                0.1907195432701036,
                -0.31125568676801113,
                0.37240065575866454,
                -0.13630352518468397,
                0.20427825871777824,
                0.8694658350121315,
                0.9238707668445357,
                -0.066239680774598,
                0.9715118776672725,
                0.8996261606185706,
                0.19892694671374228,
                0.6222572017581095,
                -0.10216903851135145,
                -0.4851493475699992,
                0.2620336749249902,
                -0.5120949831644998,
                -0.07916133678083302,
                0.752637708292497,
                0.17891604653845788,
                0.6801027640491537,
                -0.023552493592748237,
                0.004326157600948816,
                -0.9417237191669272,
                0.6640859915614927,
                -0.7181410155491637,
                0.43456817998577324,
                0.5989447875357906,
                -0.11477886215772111,
                0.12817101576399972,
                -0.45301776174543634,
                0.5691360609992252,
                -0.21194407860874923,
                -0.8457984935905645,
                0.3313976874193292,
                -0.1978257748320392,
                -0.00348057404392402,
                -0.3429350705246509,
                -0.6254079313686077,
                0.34472596687635404,
                -0.960235026668658,
                0.52700730968925,
                -0.18503629680690015,
                0.7705457773733405,
                0.04596698494122215,
                -0.2388670543536868,
                0.3609776822397363,
                -0.5385054279842494,
                -0.6348871192254594,
                -0.1861454380065821,
                -0.6501651216632942,
                0.7308815855345799,
                -0.6747906216387187,
                0.49600342004093095,
                -0.47065014739356914,
                0.27462078412101837,
                0.3109475776645671,
                -0.5062874019925221,
                -0.009071791141944107,
                -0.4133003531142099,
                -0.3209360929459272,
                -0.15264297365275975,
                -0.3575505592042411,
                0.6802053384312713,
                -0.6514840374428006,
                0.05807673815385541,
                -0.48151088731667946,
                0.13929611877033488,
                -0.29690479392288766,
                -0.7573576374709154,
                -0.7552647949233757,
                -0.08418641755786047,
                -0.3007211254625874,
                0.5887023695014989,
                -0.6368184582644055,
                -0.7019993702993906,
                0.6745146931939915,
                0.9832885334874943,
                0.5590340687202373,
                0.1830806738486957,
                0.9949710923624966,
                0.3393836314094448,
                0.07606593053400923,
                0.7376449644511304,
                0.7975289131459025,
                0.36168097528167775,
                0.2521765791771407,
                0.13299884669341738,
                0.9189972206865,
                0.6951841054318185,
                0.7456614377963706,
                -0.16987330869441028,
                0.14889264262028173,
                -0.7150567399755253,
                0.09371841692429478,
                -0.2970690451257934,
                -0.20081022588895947,
                0.4746788594113063,
                -0.34579365930177564,
                0.3104957574741432,
                -0.039366741331515034,
                0.1714172892210301,
                0.8111220870114048,
                0.7722942042626015,
                -0.874057008683114,
                0.8661765356834882,
                -0.9241471428919819,
                0.16595013496462963,
                -0.4937210795803208,
                0.028067102060692035,
                0.8066381197400605,
                0.33275412681175964,
                -0.6732821501703133,
                -0.7757368990588913,
                -0.029677290121232304,
                -0.26319004202246016,
                0.7075894890129388,
                0.49798640886422957,
                -0.8018934774425044,
                -0.036154416591735274,
                0.8548103738719607,
                0.14728871096820678,
                0.1410730685256276,
                0.9380914486758064,
                -0.9259269400566257,
                0.6286565075474313,
                0.6719333560990678,
                0.6480065057482837,
                0.13404088850321264,
                0.1130831728887771,
                -0.4255951305625641,
                -0.8280123844391724,
                -0.3021131816267673,
                -0.3806543146007028,
                -0.34760505539968634,
                -0.24301322079299276,
                -0.8728193013765817,
                -0.12419506104766696,
                0.8665393496979171,
                0.44417243213910584,
                -0.35509075693552244,
                -0.8131933602588775,
                0.8788164759227847,
                0.8726036885294517,
                -0.642329706309754,
                0.3539272878448666,
                -0.8907911553604542,
                -0.9614184850169643,
                -0.21080186026312028,
                0.3828525823243157,
                -0.7681165757925343,
                -0.7982532056826798,
                0.08885845244672509,
                0.8420836232551635,
                -0.10713821408377269,
                -0.8718170122322435,
                0.2535093525154999,
                -0.2574456870422924,
                0.4795737572836384,
                -0.7152251696782213,
                0.7252659807639574,
                0.4357190153658514,
                -0.0652969106068189,
                0.5294592437672812,
                0.22875638283372002,
                -0.551772826998769,
                -0.825778337190599,
                0.5389383438037115,
                -0.10697019672533316,
                -0.14829381320699536,
                -0.716960160899964,
                0.42390182279665306,
                -0.6866434396973863,
                -0.6270746737208717,
                -0.9167814278161116,
                -0.46925651730352214,
                0.5925635715475531,
                -0.5427317333120878,
                -0.00978355281745908,
                -0.8288107529567712,
                0.8476254558893881,
                -0.10385834678459291,
                0.5930998746758036,
                0.3597895656848622,
                -0.5780231973613547,
                -0.31532937298619257,
                0.2749492484766135,
                0.9481366379049162,
                0.9154308192979043,
                -0.9397967243424036,
                0.0016166125101398521,
                -0.37402547190046587,
                -0.9693485517226692,
                -0.7031000096116657,
                -0.5246837668523666,
                -0.5428782351736371,
                0.06669096884450952,
                -0.06169391651963851,
                -0.673084044418603,
                -0.6050271789977273,
                0.2623954975226186,
                0.9828714658247236,
                0.7736387900574523,
                0.865737792250509,
                -0.8600506638154052,
                0.5581075302272038,
                -0.5123547407842515,
                0.29373128024182765,
                -0.5693820726106454,
                0.3241678353690146,
                0.7618140292886477,
                0.6174982241039375,
                0.7612749687723356,
                -0.4211505477414729,
                -0.9534401796243291,
                -0.016601539417427032,
                0.2293497242091,
                -0.667881009135484,
                0.045159556874022504,
                -0.6014758862117113,
                -0.8627928592246228,
                0.7967858040357387,
                0.6334904791042614,
                -0.002186905752643098,
                0.914755060281756,
                -0.7406903840861971,
                -0.5576382710482561,
                -0.3870634003969644,
                -0.4168527187679088,
                0.127710489928111,
                -0.27844678406346113,
                -0.656664323567193,
                -0.13748076589412753,
                0.5008420783035402,
                0.11005104253003652,
                0.6797569351021017,
                -0.34291384562368865,
                -0.7488485159860666,
                -0.02743775754292808,
                1.0110724854579025,
                0.9166689286299047,
                -0.49649087346739207,
                -0.7404795679206957,
                -0.8130374492884818,
                -0.5673121222015209,
                0.44380736410863736,
                -0.017351115970912923,
                0.23553527674516922,
                0.258108875512295,
                0.09394425328502892,
                0.321621655246007,
                0.14807534093951213,
                -0.8297247203264588,
                -0.33587923717216656,
                0.7015934880740855,
                0.5700496525960579,
                -0.029553445876193688,
                -0.9454697677633435,
                0.09845942640152788,
                0.3026258585316211,
                -0.47925090553512256,
                -0.1699920920624407,
                -0.25263697304249594,
                -0.5563128997689906,
                0.7117512961844479,
                -0.4644704462801765,
                0.8292808051389347,
                0.49106364374525474,
                0.6622318838795591,
                0.7464883135089369,
                0.5217271928346356,
                -0.9251656386628959,
                0.6454704932741919,
                -0.21101165972592995,
                -0.8164836927310419,
                0.005439973414747311,
                -0.11050651248075949
            ],
            [
                -0.3337412901823871,
                -0.0020549521623717242,
                -0.3965431044402443,
                0.5468665200751834,
                -0.15956157470592722,
                -0.43262182010949113,
                0.21531297627029047,
                -0.24204247711797197,
                -0.12648246719403286,
                -0.2525154855005898,
                0.997800467404212,
                -0.5866880840448796,
                0.0734893266105129,
                -0.27149976436480694,
                -0.776849646208186,
                0.12374099457338668,
                -0.905401288111517,
                -0.006743048032008666,
                -0.6284007133314906,
                0.5655923790486295,
                -0.05425945161965708,
                -0.34692970445283033,
                -0.4557316173300514,
                -0.27322931485513724,
                0.9604706023369447,
                -0.4456821781189686,
                -0.18151914179284553,
                -0.004237722656071701,
                -0.09194146513261896,
                0.3484304213878522,
                -0.1625033994810238,
                0.1321544552229981,
                -0.6710360074844944,
                -0.6111761668924159,
                0.3645720529925659,
                0.31832991054425813,
                -0.8899565912026234,
                0.8304433781697022,
                0.09463860549894258,
                0.8308307609176545,
                -0.11693759187907954,
                0.42833761715090646,
                1.0095205204222673,
                -0.5122339607252349,
                -0.8686211004539411,
                0.7565913998704137,
                -0.785106782663522,
                0.4725879382938874,
                0.11242783448834864,
                -0.0639452236022528,
                -0.6857778193355507,
                0.5367422531823863,
                -0.1664116765358783,
                -0.0028533830545794023,
                -0.3772714791284948,
                -0.13932889783253408,
                -0.4883310028686337,
                0.22312914629375458,
                -0.4622444401269165,
                -0.0915627035509384,
                0.40006366547353606,
                0.002973158991019399,
                0.1410557640399267,
                0.523617469762183,
                0.5266469762562013,
                -0.2233172404222515,
                -0.19218348129169324,
                0.2833516715931771,
                0.7699392622017359,
                -0.491164888476832,
                0.835334990037192,
                0.4883773694417707,
                0.8789578834309036,
                -0.7581107180354759,
                -0.020019463329588594,
                0.804107452189484,
                0.6524026088951467,
                -0.9343919456578159,
                0.955202386653421,
                -0.055963782411208855,
                -0.7759128865378807,
                -0.0032079513878533585,
                0.17970233395775323,
                -0.973484622039354,
                0.3809433318838269,
                -0.6969664723454057,
                -0.5998211386241296,
                -0.22962512477405794,
                -0.4698801817500755,
                0.685909067485456,
                -0.7048711088781184,
                -0.5431375497986746,
                0.9556610256920489,
                -0.6217232406130574,
                0.5642224538654881,
                0.27796772446764534,
                0.2689505290550995,
                -0.18126352850097147,
                0.8384522591831767,
                0.6356267934995065,
                0.10926859496121706,
                0.39665168530198897,
                0.9615867560055096,
                0.5746416058509148,
                0.5139258084323821,
                -0.4249851531954148,
                0.7301469858790832,
                0.6391475275888265,
                -0.3729194410038813,
                0.9749201092246554,
                0.14468804618052844,
                -0.8913121552978622,
                -0.3922908204612363,
                -0.48776911782514304,
                -0.8776131156076461,
                -0.3535171075030596,
                0.4901595131386702,
                0.15355253385906303,
                0.018850915724517272,
                0.37655392632872425,
                -0.23946142174140947,
                -0.3523248233993873,
                -0.15747813020805607,
                -0.9227317794612278,
                0.10282718338954834,
                -0.25857972395189116,
                -0.26736919326386416,
                0.46768107996478386,
                0.8364912052091612,
                -0.986837529507061,
                0.9573426689398071,
                0.9002110867224868,
                0.7620586186595282,
                -0.06687250118426165,
                0.8338586780170563,
                -0.2062771235462739,
                -0.31096525453981805,
                -0.9543159608395667,
                0.11961451782065989,
                0.08416647533770778,
                -0.6051040938186176,
                -0.6081436776752166,
                -0.029968395839930904,
                0.3033824386075897,
                -0.24037247066981576,
                -0.6951942069613644,
                0.7525141069177822,
                0.9711281695165874,
                0.9890384882881716,
                0.25839506492513564,
                0.11454730730822814,
                -0.5025898126893397,
                -0.11527088363598935,
                0.8572322883914311,
                0.8789160712860445,
                -0.7857439311411647,
                -0.1612868298369756,
                -0.38786742632346577,
                0.930259794356819,
                -0.055304108137839925,
                0.44048094750581707,
                -0.2704062576816607,
                0.10692050382248994,
                -0.5980124341020774,
                1.0046074218596304,
                -0.8357817745025906,
                0.3001654140265848,
                0.8198859616352874,
                -0.0926895967844064,
                -0.17448319602635537,
                -0.12273784166850944,
                -0.9794757987569557,
                0.2809653114048536,
                -0.8344016500844706,
                0.6451607955429662,
                -0.4821803422599705,
                -0.2732844620373657,
                -0.6078083294949299,
                -0.024968088071358977,
                0.5670006083892319,
                -0.6136717931357192,
                0.7740739482717249,
                0.3761900942878056,
                -0.6272988139663257,
                0.1359394200625532,
                -0.6876779699316145,
                -0.2410778529216071,
                0.3269761899213656,
                -0.40852751642913615,
                -0.1493391386407509,
                -0.29392124232267147,
                -0.8872624557106695,
                0.6669011485086345,
                -0.9211081136656886,
                0.6563656271640455,
                -0.43456161724922704,
                -0.49857351411216416,
                0.8576827601971736,
                0.9797197980214206,
                0.4493516795973763,
                -0.8763929448617417,
                0.6553503673815334,
                -0.8376621711966467,
                0.6445211051369434,
                -0.7744750959495748,
                0.7538972272185078,
                -0.10527225418168544,
                -0.9400018754576173,
                -0.07231823774776609,
                0.20523247924106894,
                0.3930054368127497,
                -0.5111739003769586,
                -0.9465291083544112,
                -0.47580325325979667,
                0.2624095638850551,
                0.033121350469906205,
                0.2973582782796439,
                -0.5558261075168143,
                -0.10033868509486853,
                0.28948425933928024,
                -0.7465543659591761,
                -0.6611222273293372,
                0.0648605936136284,
                0.3953975371852383,
                0.9687872714786894,
                -0.2686376007771753,
                0.29942030108750545,
                -0.509247660372215,
                -0.056995160716503374,
                -0.10444275687885651,
                -0.7516029229091459,
                0.8895591224013402,
                -0.49781475380614393,
                -0.6556772648830347,
                0.2218582196079542,
                -0.9493700655949693,
                0.8990763540022019,
                0.25388385872930797,
                0.26930508041375567,
                -0.17343822977101647,
                0.2407428174877412,
                0.5280183430575113,
                0.4921140767622517,
                0.9582090902122548,
                -0.16614909402642677,
                0.6526731348314815,
                0.933116199086741,
                0.9153909628289724,
                -0.30433093822974855,
                0.9246537235900628,
                -0.03359161758093288,
                0.49948553480256375,
                -0.8068729437228168,
                0.48643896552893173,
                -0.5247682304738923,
                -0.6393293395511813,
                -0.6508897497952484,
                -0.3382448845040772,
                0.6411001971136826,
                0.40559113729811125,
                -0.5456227728710823,
                -0.5653403061197666,
                0.2651287236877047,
                0.17750308385481606,
                0.8302044619006628,
                0.26957704303926017,
                -0.46929096787948527,
                0.43690557898136795,
                -0.1525568850247586,
                0.7221723818908725,
                -0.6096554959672239,
                0.0004033889085713509,
                0.16729658602711883,
                -0.37767922498865736,
                -0.9733013106792897,
                -0.17372437697065196,
                1.0066284846060518,
                -0.1447348210578689,
                -0.21439555223869303,
                0.011047090520485362,
                -0.38583427552070826,
                -0.6310812562816905,
                -0.7533370638089864,
                0.2645169769170856,
                -0.7683844457786754,
                -0.1288627637021242,
                0.8262113291490578,
                -0.10994276334233095,
                0.19588266013643948,
                0.9577299688691825,
                0.08147885296183864,
                0.3441638502729279,
                -0.2442967415705529,
                0.028616873935709105,
                -0.21171800445899375,
                0.6837974901071272,
                -0.8666030791601729,
                0.9935274443132573,
                0.8079477500666982,
                0.15554909814763415,
                -0.4491258722503054,
                0.04606356466585366,
                -0.3920993552409367,
                0.2774089092593514,
                0.4177081673786939,
                -0.21637621421037434,
                -0.0953733511861081,
                -0.20104889578469862,
                0.22122908674972544,
                0.10509395801837354,
                -0.6796200603231717,
                -0.5740649094414403,
                0.7304568700153135,
                0.7329070349033535,
                0.0995639532769275,
                0.19800290835548856,
                -0.7686984279090616,
                0.5566206995287917,
                -0.5465130160527317,
                0.40411360012168496,
                0.5366765427474379,
                -0.6719414646922075,
                -0.3210678874167492,
                0.4301096368304186,
                -0.8539171165646509,
                -0.10550903901154335,
                -0.41368255751595545,
                0.5347704002403504,
                0.5092252102701543,
                -0.15205508187058567,
                0.7328621675536746,
                -0.5247598621185855,
                -0.16686514074848513,
                0.23515101847974365,
                -0.6659205175345602,
                -0.8178269259017132,
                0.45125323827900354,
                0.9624869832882477,
                0.7868156038309334,
                -0.2923521031057875,
                0.40221384836772345,
                0.5252728982304087,
                0.7353449484935345,
                0.059091468208841515,
                -0.047899832919510076,
                -0.48382024523392814,
                1.0023450722253444,
                0.7965407472556266,
                0.5259546162665946,
                -0.8602386379698636,
                0.07569200909057416,
                0.4542822561358487,
                -0.9859610867604887,
                -0.007840447167335354,
                -0.9056866555966043,
                -0.7593077523332472,
                -0.9081860624440139,
                -0.3089380820477252,
                -0.024480163564022057,
                0.8088192120519322,
                0.5281768990584212,
                0.4280370571809439,
                -0.44041313643224744,
                0.37853569869566805,
                -0.020627553404670772,
                -0.8564537153979066,
                -0.2976068856902821,
                -0.14107071421034667,
                0.6294677430690436,
                0.07861254027889873,
                0.04783142643937076,
                0.5597400759044215,
                0.2847985813490457,
                0.41444437649573757,
                0.06641733564457633,
                -0.18688444910793242,
                0.0481021580158051,
                -0.1835040957189368,
                0.5820633018636572,
                -0.014673028331366323,
                0.46389080819791595,
                -0.3909498061272617,
                -0.9849734855484165,
                0.604338234883843,
                0.7726802964768561,
                0.5381893565205618,
                0.0643336851971358,
                -0.9401678905854336,
                0.7047918660819112,
                0.05049488754418045,
                -0.6555506231268559,
                -0.467521787067952,
                0.8061995057738112,
                -0.8663830958174457,
                0.7086041745457927,
                -0.44910598202303015,
                -0.20360545388085596,
                -0.6965732595187303,
                0.7832558179626791,
                0.9055915989220609,
                0.9260947266324692,
                -0.37694407215029513,
                0.9352155739870393,
                -0.4255751590302934,
                -0.2671317497790997,
                -0.6423008782795288,
                0.6750595276594822,
                0.05358705785454006,
                -0.1552713796449137,
                0.8955993053669414,
                -0.04744180230502472,
                0.974770707812133,
                -0.27462585134565015,
                -0.7573068443782545,
                -0.4427253934806638,
                0.6787345018157657,
                0.2818388407146742,
                -0.004829688541654818,
                -0.28045513702178204,
                0.44815508406564875,
                0.24648816285277855,
                -0.8269182802540593,
                0.3950903086736093,
                -0.2925879758622029,
                -0.434480346060795,
                -0.9259549573418839,
                0.43402959569006555,
                0.44010895427516267,
                -0.10659439397196538,
                0.009932565433003743,
                -0.8610865197365368,
                -0.5114037232633529,
                0.2607817150011351,
                -0.9575226753600723,
                -0.23282648937948622,
                -0.27638253927236917,
                -0.361708856328308,
                -0.7288863587324353,
                0.41020304731812235,
                -0.15635816296460545,
                0.7636211002132021,
                0.7845258493134106,
                -0.2506671353694124,
                -0.7676594789713247,
                0.2523972040070158,
                -0.2790454504299492,
                -0.3707480510174899,
                0.40146367511746406,
                -0.6623016196784761,
                0.3869922361921805,
                0.04941591058152867,
                -0.1935883468874849,
                0.8474216406525609,
                -0.3211349904431099,
                -0.7028171162839076,
                -0.43405400262094856,
                -0.5100284525429508,
                0.3406880814355282,
                0.399245072339651,
                -0.007577560962988035,
                -0.3174748549103475,
                0.07708462109396504,
                0.30001380243480885,
                0.5768095719983537,
                0.09129698385570703,
                0.8736181888002836,
                0.5467873376859369,
                0.05585945237541608,
                0.12849705946158493,
                0.32011571823687596,
                0.8638631641768847,
                -0.1763234594265878,
                -0.13760647462954084,
                0.8353662667211107,
                -0.2725845075071548,
                -0.3368148155157864,
                -0.5355138799636141,
                0.6659977972002112,
                -0.8417539341296655,
                -0.8738746281976328,
                -0.05694127575710966,
                0.10839460902554922,
                -0.7290766991992781,
                0.3924337617542328,
                -0.7939757901828025,
                -0.40996379336238964,
                -0.10836571661624532,
                0.22733865163820052,
                0.3368634171800547,
                -0.17983423532619772,
                -0.08922188385447698,
                -0.21210480425164627,
                0.3816037219878937,
                -0.37630792190122325,
                -0.5074768172906291,
                0.7165066173659851,
                0.5749266098102699,
                0.030697959410743287,
                0.5823624184406296,
                0.05316771743338971,
                0.6406209081701643,
                -0.06045459341244484,
                -0.23572566128388756,
                0.5512576040826322,
                0.6414669083125346,
                0.9820989330728317,
                0.4638129004947671,
                -0.2529530543077482,
                -0.6896421084649662,
                0.4109777692496805,
                0.6105236212506318,
                -0.14331858238937986,
                -0.8529696485888669,
                0.7112769815506879,
                0.8804414555684268,
                0.996230923236484,
                0.3649858259936828,
                0.009657434657062482,
                -0.8650407294439483,
                -0.7583260106510255,
                0.12974859171493627,
                -0.8473907309794216,
                -7.324646078611931e-05,
                0.9989169733395169,
                -0.9053365162142797,
                -0.2863273798688696,
                0.5449177996470432,
                -0.8812782079319301,
                -0.17121706808840553,
                -0.7442440153628297,
                -0.5446298326374934,
                -0.06373807734255092,
                0.6240454175310013,
                0.14843028438441747,
                0.7561844925429901,
                0.860673482432536,
                0.5130641335604109,
                0.9352666674482999,
                -0.8206120569313339,
                0.7631106586756029,
                -0.9156368461257113,
                -0.40404537108099653,
                -0.1903938133928662,
                -0.017739093764221784,
                0.5269681966579752,
                -0.4342359492340687,
                0.12341040968957219,
                0.9094428692564758,
                0.802355039729436,
                0.8968115819162521,
                0.31310424791508396,
                0.8273358450181859,
                0.3238214952598554,
                0.43864886437118145,
                -0.9370506968826935,
                0.5221181092150214,
                0.2717921412705393,
                0.8319495969857358,
                -0.928407200430055,
                -0.3714429435847635,
                0.49368313614668935,
                0.6146274343677296,
                0.3781730667598578,
                -0.46881138498880304,
                0.6263973118999429,
                0.9318806102934403,
                0.6828184238131254,
                -0.35020307713279514,
                0.49229177264844515,
                0.3673404778140955,
                -0.9467505920117547,
                -0.5490697932278668,
                -0.35111336652536895,
                -0.4824581271679341,
                0.28635244581212216,
                -0.2560475975327314,
                0.14204534176026856,
                0.5008213688826125,
                -0.8712022881551345,
                0.7315674468729914,
                0.56749694198008,
                -0.42050732436715693,
                -0.6409489662152534,
                -0.03754581266980122,
                -0.22231213086241194,
                -0.7881144490885745,
                -0.3810743847619331,
                0.7924251104163986,
                0.3964213260477871,
                0.010531734971057133,
                0.13182162740158387,
                -0.11331027666898733,
                0.8977194590148426,
                -0.6557840851642358,
                0.1999951598360613,
                -0.24769358042634587,
                -0.5280835015456468,
                -0.9173068977310018,
                0.9331465596899,
                0.5966998800379697,
                0.5330868493785403,
                -0.4543497798862024,
                -0.8793210834390899,
                0.48496151932706744,
                0.6053424061714088,
                -0.026326544690385843,
                0.7506192003692307,
                -0.3163787983339456,
                0.05044226875094778,
                -0.4853716124198438,
                -0.8043916896692749,
                0.8072466163002431,
                0.5253161349238744,
                -0.1827381839991497,
                1.0108776925529193,
                0.22251246026895402,
                -0.5358403095353339,
                -0.2886897969336265,
                -0.33666502320582736,
                -0.6342580283307901,
                1.004419205478453,
                -0.7547528614558489,
                -0.25978240013486625,
                0.5181739147192534,
                0.06731122348502502,
                0.5580110793931522,
                0.1346773778293285,
                0.46912214142074227,
                0.9045897199479188,
                -0.5994068960912102,
                0.6305535834303512,
                0.015881442090104243,
                -0.35641305511635374,
                -0.9115661018598866,
                0.9101897620565486,
                0.43298380413963,
                0.007453343587388667,
                -0.8971266629169307,
                0.8508906440182905,
                -0.30954647577517047,
                0.18763050498132924,
                0.08464314523866834,
                -0.6964951886585588,
                -0.3884168196100173,
                -0.7874910089056948,
                -0.5506892369717244,
                -0.013753478960769524,
                0.5009289165028981,
                -0.7802836124644394,
                -0.5186257465181539,
                0.03252040897090557,
                0.21743927958311782,
                0.42003633982628735,
                -0.5173235526463118,
                -0.843966580947077,
                0.3110128284774648,
                0.902394909126885,
                0.5737331591572744,
                -0.16495423599419787,
                0.01347674055896191,
                0.6015155735724756,
                0.7885952888312443,
                0.8996215171874045,
                0.43431533498731073,
                0.4126597696335647,
                -0.6404636775727448,
                0.23982515333126528,
                -0.6314116409687737,
                -0.8327762098369267,
                0.46097733691721265,
                0.9603789018616187,
                -0.24850759406706516,
                -0.9282181742375892,
                -0.35298458906378744,
                0.03968058744919387,
                0.6566320604815877,
                -0.14393226942291248,
                0.39111866227699565,
                0.19897870442617074,
                0.6842586971902117,
                -0.15043310590851258,
                -0.668919028277141,
                0.6053882080519237,
                -0.9755894840595702,
                -0.8465461660249183,
                -0.06013144141588795,
                -0.8226129710888028,
                -0.6038908762826268,
                0.547097053096837,
                0.749332618362677,
                0.5812611163720404,
                0.6096145682562931,
                -0.8276833224854023,
                -0.9086981247616746,
                0.633678189773484,
                0.7724306431918341,
                -0.3603039141494642,
                0.4885994979272392,
                0.8038831738069715,
                -0.273649470603083,
                -0.5973560422114381,
                -0.42641963361551016,
                -0.7889840029805868,
                -0.7187347173591502,
                0.5451233993176436,
                -0.8850089938636123,
                -0.4884152643624812,
                0.3328977784588341,
                0.9133609801226387,
                0.5145096242283329,
                0.48914528946142244,
                -0.9013966046570934,
                -0.03203051226063677,
                0.8804493180780126,
                0.4514934044944053,
                0.8318835283490242,
                0.7836964030355092,
                -0.30636487622016995,
                0.8186661996413718,
                0.22895937242497538,
                0.8754176943825878,
                -0.11499461493137153,
                -0.47184651021084306,
                -0.3619294162776432,
                0.33824728325676634,
                -0.5705501073480107,
                -0.7015362424764872,
                -0.27124207069191586,
                -0.05462680673303271,
                0.038909822251754975,
                0.8620535899651611,
                -0.7749964083257124,
                -0.3245034054930511,
                -0.0006134401114363811,
                0.520950280465196,
                -0.10695255857046873,
                0.34593214753663426,
                0.050366694446786785,
                0.7641031372235219,
                0.44695671809039406,
                0.695512203165978,
                0.2771904815830921,
                0.7184618109910861,
                -0.06758314158442134,
                -0.6422474115213317,
                0.9486628799779713,
                -0.8637333345718061,
                0.8229007967304495,
                -0.3110507779010585,
                0.7755282696907919,
                -0.3112345541806698,
                -0.9709528515578335,
                0.0676612886140834,
                -0.56362377306313,
                -0.15470443871052506,
                -0.10821684564230309,
                -0.25194752372159157,
                -0.06909014913352944,
                0.6661551320509742,
                -0.07160672042740672,
                -0.34287053629703523,
                -0.33895196015376183,
                -0.1505745861015527,
                0.865110474894454,
                -0.4815523815531078,
                0.9966303788648097,
                -0.19843235977883852,
                -0.6621724792606136,
                0.9236342087776797,
                0.07574670475974872,
                -0.9763547197066758,
                0.7496861603614373,
                -0.3416046437011844,
                0.966111886781267,
                0.2172839989001837,
                -0.2991107771644046,
                0.31632299094921024,
                0.14710137949836968,
                0.8991932322983107,
                -0.1479340951881479,
                -0.07503412358936794,
                0.9164745658554063,
                0.6129306454350634,
                0.1939143227704784
            ],
            [
                0.25896554758642243,
                0.549649194163473,
                0.9878938664735991,
                -0.5531769776064749,
                0.8271626899648631,
                0.50927369677241,
                0.9638429373461616,
                0.4524430030065544,
                0.18343390812349883,
                -0.3089184340760541,
                -0.3627315430262451,
                0.527077819690828,
                0.1065270914462459,
                0.5804783481314829,
                0.6193743813307858,
                -0.014321053458575792,
                0.2936401600847719,
                -0.9695212789044213,
                0.834200127444744,
                -0.1470983413395612,
                -0.8657470744244414,
                -0.9421647292362975,
                -0.3475650704249412,
                -0.1645269750932352,
                0.21397442034380168,
                0.922717887752034,
                0.6338028625828939,
                -0.37335228933580267,
                -0.19670818748067084,
                -0.6463874797889544,
                0.8864165017759833,
                -0.3572135676913319,
                0.9171462119876583,
                -0.8061938924086102,
                0.38870624627582984,
                0.3255556936797093,
                -0.5013339464759533,
                0.5201876055791382,
                -0.2413820017522672,
                0.1543915296646526,
                0.7825219631707069,
                0.3442976547113166,
